0.025410008 -0.0065788254 0.028258678 0.020689115 0.017727073 -0.028106758 0.008025311 -0.027012983 -0.010646038 -0.022288412 -0.028183714 0.0007658005 -0.043946154 -0.059097096 -0.0071845613 -0.029643241 0.00658381 0.017625868 -0.01907923 0.02885158 0.030411992 0.024890546 -0.030837214 -0.00092598423 0.019423064 0.008994579 0.02330869 0.024942432 -0.022133565 -0.012850102 0.01312042 0.02572881 0.015626553 -0.0518846 -0.048404794 -0.057653774 -0.0666321 -0.12627439 -0.028058479 -0.03504609 -0.090404265 -0.06892213 0.04223291 -0.18070103 -0.18174888 -0.13071173 -0.03994343 -0.04113976 -0.08293611 -0.025920453 -0.035109315 -0.08708747 -0.03265896 -0.0066512525 -0.018554926 0.016085446 -0.01933355 0.016861461 -0.03090783 -0.07420517 -0.107478894 -0.01839936 -0.06909666 -0.107489765 -0.11719374 -0.10573062 -0.09322562 -0.15312034 -0.14325607 -0.045009993 0.041897386 -0.0822254 -0.13104784 -0.09233062 -0.08432159 -0.08379055 -0.12573428 -0.10432456 -0.06549234 -0.11959162 -0.14305343 -0.076447286 -0.021438524 -0.027176037 -0.013516439 -0.008706566 -0.09915827 -0.09323929 -0.115671836 -0.11610429 -0.1804988 -0.089304216 -0.2208132 -0.26694596 -0.30841717 -0.24108912 -0.21420613 -0.12928025 -0.105768405 -0.1397054 -0.09918795 -0.130001 -0.009440503 0.040450618 0.09140143 0.094796404 0.059381988 -0.14356306 -0.1147348 -0.11361249 0.00064166635 -0.020943314 0.021390554 -0.023679398 -0.07337844 0.10306289 0.039729375 -0.036625087 -0.09849112 -0.005964591 -0.08680872 -0.032494824 -0.08892077 0.004900547 -0.019622415 -0.089421034 -0.123709425 -0.048820816 -0.0690061 -0.058758706 0.019647205 0.111488074 0.035125535 0.06476797 0.14297324 0.13822418 0.09699233 0.09835859 -0.024180451 -0.058682516 0.009153247 0.03209829 -0.14396915 -0.13467008 -0.14799368 -0.050098937 0.013038127 0.013674714 0.01425396 0.14115232 0.113700606 0.07719562 0.01123343 -0.13385952 -0.10776804 -0.10486571 -0.04054114 -0.030223371 -0.08284255 -0.05497221 0.01332216 -0.08558533 0.03122476 -0.0052375454 0.016780892 0.034622274 -0.0057621086 -0.044187162 0.010001533 0.01883015 0.086419374 -0.14146218 -0.02407048 0.17455037 0.0017387006 0.050377548 0.113887765 0.13937804 0.057429973 0.004726914 -0.06624972 -0.13548638 -0.097765125 -0.104333214 -0.11942204 -0.011034336 -0.02189455 0.02944045 -0.03191436 -0.084073134 -0.021604812 -0.008143385 0.0040143286 0.04747363 0.06199504 -0.09633675 0.05180607 -0.00092207966 0.11266812 -0.14182918 -0.019660827 0.07689875 0.0011365202 0.053260624 0.11568778 0.093187794 0.022928447 -0.036756083 -0.030251145 -0.0784279 -0.07178809 -0.026819978 0.101687714 0.07717266 0.060197428 0.033394802 0.083980426 0.018029224 0.04735322 0.08957362 0.10061051 0.0837202 0.10630852 -0.027910398 -0.015421722 -0.077619664 0.046115547 -0.05181177 -0.066571996 0.10326575 0.041004967 0.08347812 0.06474918 0.105651684 -0.023911033 -0.062288865 -0.04963771 -0.101798706 -0.023354445 0.06986662 0.18675716 0.12771566 0.11624173 0.020118041 0.06838115 0.11227007 0.046931908 0.14973319 0.19974212 0.33791348 0.14767332 0.00083656126 -0.038888957 -0.02469491 0.045063008 -0.12812226 -0.09358192 0.027652178 0.08344742 0.051596884 0.114776716 0.11450077 0.02713006 -0.0006642401 -0.1116557 -0.17784913 -0.072508976 0.033982377 0.16398787 0.08733982 0.06257936 -0.023885008 0.0724708 0.1107102 0.11729475 0.14659476 0.17041504 0.25105208 0.16567974 -0.002525142 -0.030641504 -0.041860744 -0.12515341 -0.08806326 0.038019378 0.041340686 -0.009993138 0.061254576 0.16366073 0.20238218 0.16050243 -0.02398458 -0.12649862 -0.19760235 -0.20835398 1.8410123e-05 -0.02603406 -0.06667335 -0.047684856 -0.043726668 -0.006431837 0.020045977 0.071919926 -0.0025958891 0.08186227 0.21072532 0.17990969 0.10449053 0.04850347 -0.13396783 -0.061072867 -0.0991269 0.0004725492 0.089672744 0.095026515 0.12677433 0.21979316 0.24999072 0.268165 0.10052732 -0.042493165 -0.1854936 -0.17313969 -0.014940331 -0.060669772 -0.13796906 -0.10887826 -0.1588333 -0.09298987 -0.03361331 -0.020492926 -0.02544257 -0.027778415 0.027076365 0.17279 0.022168495 0.044975087 -0.0021600858 -0.07360914 -0.061178923 0.024002498 0.111317545 0.12878162 0.18517882 0.18350111 0.23299834 0.31692407 0.18883568 0.0363204 -0.11564214 -0.16987517 -0.021436999 -0.06711457 -0.14506935 -0.13296007 -0.0951214 -0.10767948 -0.012266946 -0.022768868 0.022583246 -0.051618222 -0.04422674 0.0547526 -0.1539041 0.029884178 0.042493947 -0.09404803 -0.08672586 -0.01615361 0.13437021 0.09015693 0.16866316 0.20475109 0.21539433 0.23019555 0.1986197 0.06790722 -0.11811615 -0.107588045 -0.057143223 -0.040789787 -0.04854286 -0.0056387093 -0.095888205 -0.107753955 -0.06404356 0.046450984 -0.08029524 -0.104561575 -0.110324964 -0.15840554 -0.04101859 0.029181065 0.035891257 -0.044507675 -0.13259779 0.07589163 0.14881116 0.103193365 0.14583017 0.19119307 0.1888168 0.18433858 0.15978801 0.038121123 -0.10859938 -0.047575105 -0.09193725 0.002412796 0.07761532 0.0031681787 -0.036920518 -0.075213574 -0.09429889 -0.0007643644 0.02457964 0.04092395 -0.195803 -0.17188561 -0.03818666 0.060989216 0.0632401 0.13311388 -0.012318151 0.024439791 0.004611172 0.05960197 0.063981146 0.13840649 0.2218865 0.22063075 0.26620084 0.15772247 -0.0006513007 -0.056357093 -0.069763176 0.0037055695 0.09920333 0.02767532 -0.029801344 -0.064458534 -0.06958024 0.04468353 0.11519256 -0.060836457 -0.1356748 0.01890876 -0.15966783 -0.06005304 0.022799876 -0.018406251 0.020278674 -0.16291954 -0.03747736 0.016733708 -0.03664255 0.05474349 0.16271716 0.18829301 0.2133608 0.2349819 0.13443421 -0.01805638 -0.0012383725 0.045582037 0.05410808 0.08869961 0.006848816 0.011944411 -0.024207925 0.04364458 0.052608054 -0.00520072 -0.10245258 -0.1027263 -0.14105739 0.023707502 0.031976514 0.061750993 -0.113743134 -0.15453461 -0.091047354 -0.08060242 -0.06741188 -0.042386778 0.1103122 0.14769512 0.1991268 0.11799468 0.06729691 0.001998511 -0.016872086 0.043078277 0.011970688 0.078495815 0.020661822 0.021188408 0.047551513 0.034380652 0.093828306 0.06252034 -0.19468106 -0.03461791 -0.14943714 -0.07182927 -0.083585635 0.09259397 -0.1341527 -0.16450073 -0.072045445 -0.15560254 -0.16833486 -0.091904186 -0.055076875 0.018086275 0.050985504 0.046998743 0.029062835 -0.042770837 -0.058125928 -0.0014146125 -0.077157676 -0.057931673 -0.0012940611 0.05507963 0.055421166 -0.012004006 -0.067474596 -0.04272072 -0.24576299 -0.07069315 -0.12544115 0.03202201 -0.07295134 -0.006222957 -0.1812031 -0.22303954 -0.07529406 -0.11562618 -0.1824184 -0.14614251 -0.077948555 -0.14504464 -0.14110228 -0.07722568 -0.05685634 -0.0008634478 -0.021022461 -0.045257002 -0.054391745 -0.02121518 0.028571641 0.048176367 0.044342205 -0.068291426 -0.07186219 -0.08518684 -0.13635767 -0.16084392 -0.020572012 -0.004773276 -0.07732461 0.014746919 -0.09436769 -0.17529725 -0.17540105 -0.12752216 -0.13337182 -0.12895189 -0.10400597 -0.11988385 -0.14548692 -0.113533355 -0.049892694 -0.01670684 0.028259803 -0.023481263 0.0020905028 -0.018585885 0.009767406 0.06521789 0.05165196 0.066207804 0.0026637227 -0.07690282 -0.00033930727 -0.22250313 0.039451078 0.0072026886 0.045464404 0.015618553 -0.15967053 -0.09226842 -0.07962342 -0.06330561 -0.054329537 -0.08352378 -0.07847115 -0.12853411 -0.12113152 -0.08285612 -0.023545891 -0.0063864146 0.011610565 -0.069298394 -0.043535717 0.04708651 0.04454806 0.17613716 0.13467395 0.10267312 0.025470737 0.037799716 0.02933277 -0.10723121 0.005978672 0.035630357 -0.02894102 -0.038052708 0.02755469 0.13162556 0.0403276 -0.027528932 0.04306913 0.0019376137 0.03751079 -0.068049856 -0.053931054 -0.07157286 -0.09674201 -0.04994086 0.026277423 -0.004294496 0.031928916 0.12368176 0.17783746 0.09821586 0.11164288 0.018981677 0.09022052 0.10215673 0.035733 0.06502397 -0.0035618697 -0.031420715 0.023713455 -0.03129339 0.13810527 0.26356205 0.1450431 -0.007331041 -0.034651246 0.034006722 0.05832928 0.13229972 0.021888623 -0.038158014 -0.046487328 0.032248642 0.058540817 0.104001276 0.12995698 0.1257982 0.111086436 0.11304968 0.103468046 -0.034313247 0.059529975 0.047883064 0.07714764 0.1319753 -0.02226825 0.00868842 0.021210514 0.023196211 0.15727367 0.19023012 0.1859619 -0.0036399015 -0.016067417 0.046711523 0.0796366 0.08191084 0.14685021 0.08826359 0.08174709 0.0893833 0.03491589 0.11028103 0.012539937 0.049945038 0.0569839 0.099603854 0.0051874965 -0.051312093 0.07961709 -0.07827313 -0.072921515 -0.055706058 0.029720422 0.019146342 -0.023754563 0.024471216 0.06642366 0.027663415 -0.045734208 0.0406099 0.013765588 -0.036519583 -0.004904997 0.031008448 0.06741081 0.05440321 0.093866415 0.0054965876 0.1246303 0.056491103 0.096916735 0.06993981 0.04494483 0.048312586 0.13898452 0.12719896 0.19263253 0.11100203 -0.033311326 -0.0552096 -0.002779089 -0.02961121 0.020379487 -0.006931437 0.043247294 0.012110266 -0.034514356 -0.0996749 -0.17363201 -0.1438237 -0.08109425 -0.0025553145 0.12578377 0.063687064 -0.04314466 -0.13007535 -0.026559 -0.03443286 0.030213818 0.0070443205 -0.1536444 0.01928804 0.003980982 -0.09509536 -0.1392849 -0.07185988 -0.021374997 0.021075372 -0.0014807023 -0.026048586 0.03419644 -0.01417697 0.0007814355 -0.016876705 0.00844317 -0.07817788 -0.066192724 -0.11475561 -0.060010705 -0.06060273 0.013742912 0.030354781 -0.09882104 -0.15110694 -0.03137523 -0.10435524 -0.24723633 -0.16269942 -0.13631904 -0.004849045 -0.0779878 -0.08148929 -0.099496126 -0.025048977 -0.02319771 -0.03144555 0.03201208
0.024131093 0.01844778 0.027744371 -0.02966877 -0.03089182 -0.01497506 0.007453438 0.02349269 -0.0219438 0.0064090937 0.0017670505 0.023245562 0.0020631142 0.021908477 -0.02390398 -0.0074909925 0.0050624646 -0.01366861 -0.023554036 -0.019518722 -0.005545173 -0.024034105 0.022149574 0.03326459 -0.011103218 -0.022213027 0.023340303 0.004147876 0.019725922 -0.025932342 0.013014436 0.008375615 0.0029257722 0.029359054 0.010172644 -0.012808017 0.050096087 -0.013411041 0.0053006373 0.0551108 0.111019865 0.12103939 0.06618751 0.065208144 0.10444039 0.08141219 0.12716813 0.17050977 0.18040071 0.14364743 0.12834898 0.026896037 0.03091507 0.0057257973 0.03469936 -0.0040509515 0.0038449354 -0.004847672 0.042152267 0.06620978 0.1288029 0.03613162 0.06309095 0.05097665 -0.026819011 -0.016663281 0.016585266 0.033085827 0.08613667 0.0046906355 -0.104417585 -0.08821538 -0.01615372 -0.09867608 -0.033727676 0.08551775 0.2486478 0.21483368 0.21543434 0.16987778 -0.014644554 -0.07903461 -0.029023606 -0.005545225 0.010699317 0.023994695 -0.011809134 0.12131401 0.10049678 0.011236193 0.06711996 0.032286845 -0.010352785 0.019780831 -0.11114173 -0.09183829 -0.086045876 -0.03449155 -0.082944244 -0.15730964 -0.21811657 -0.16419066 -0.056982476 0.02806097 0.024274057 0.06752627 0.14542186 0.18848805 0.14408298 0.06502644 0.07258151 -0.026212454 0.025792532 0.027478937 0.028071076 -0.010429159 -0.065565765 0.01640835 -0.006365142 0.020204468 -0.16045548 -0.10341147 -0.06264073 -0.10545929 -0.18919775 -0.101206325 -0.06394635 -0.11249736 -0.18972877 -0.05051288 -0.07509649 -0.034578327 0.0023441862 0.072539024 0.042546708 0.17265975 0.07717789 -0.006418657 0.1783166 0.1309911 0.000460051 0.009696618 0.034175884 -0.0094018495 -0.0020712155 -0.045490824 -0.07521003 -0.09500854 -0.15258975 -0.09179138 -0.082504824 0.015971279 -0.109058715 0.030368065 -0.043418135 -0.10426395 -0.12232961 -0.024880797 -0.07234349 -0.0070827114 -0.009121944 -0.016458614 -0.03051297 -0.04758312 -0.002429442 0.07722245 0.097916 0.06430059 -0.016168544 -0.094422214 0.083192885 -0.06853292 -0.14284047 -0.093358025 -0.08859613 -0.11612888 -0.14449513 -0.08069517 -0.0094176885 0.027003841 -0.080925696 -0.0542837 -0.08637792 -0.029310513 -0.07186332 -0.024463518 0.018109746 0.10156415 0.06991539 0.059707318 0.09955815 -0.02805545 -0.0102905 0.15021688 0.06476214 0.06180915 -0.022631535 -0.16224058 0.109893136 -0.12617317 -0.08375692 -0.06983278 -0.1345584 -0.12699267 -0.14412184 0.005193387 0.0897228 -0.04569796 -0.044273786 -0.0056075463 -0.034128066 0.068236895 0.08708598 0.19411093 0.19596744 0.109937176 0.09218625 0.11018035 0.09320274 0.09199474 0.12781315 0.15656817 5.697291e-05 0.1416692 0.116345614 -0.035405234 0.15519847 0.023648908 -0.06542116 -0.115061834 -0.13828023 -0.13292678 -0.0885575 -0.055938274 -0.04885632 -0.025648883 0.10038719 0.094433755 0.0924467 0.13721047 0.19915196 0.19371477 0.14410041 0.10891087 0.16215934 0.07773629 0.033742327 0.17321669 0.2320478 0.06411697 0.0030523648 0.03520983 0.022099594 -0.021815728 0.08147734 -0.09057254 -0.049233876 -0.22053309 -0.17182407 -0.11828315 -0.06629907 -0.11538999 -0.012069877 0.041046426 0.15012173 0.15444186 0.122986645 0.08457145 0.08973397 0.08603399 0.058610026 0.022355145 0.041306112 0.021249898 0.026889876 0.11481019 0.3216807 0.17712732 0.009650476 -0.064598344 0.013048413 -0.0591599 -0.04296329 -0.053660113 -0.09777358 -0.109165445 -0.1487322 -0.049346853 -0.03185537 -0.017835816 -0.0316109 0.05187417 0.12834066 0.09622343 0.16731986 0.09233739 -0.043211497 -0.014658667 -0.033305548 -0.07951063 -0.008592475 0.03280216 0.035819653 0.21374753 0.2585154 0.09267048 0.056894634 -0.04004812 0.05111338 0.09904632 0.08522656 -0.048563547 -0.12860163 -0.16476607 -0.079612404 0.057037484 0.02051332 -0.071085356 -0.06723477 0.006181196 0.009943324 0.046899043 0.022299398 -0.021099016 -0.12719406 -0.15095262 -0.1089817 -0.081841454 -0.101698354 -0.029751992 0.0818274 0.14864779 0.33450043 0.20284708 0.2746442 0.05229539 -0.01611689 0.015226263 0.09190813 -0.022211224 -0.17994583 -0.14403705 -0.04944932 0.07490354 0.013989916 0.06189446 -0.0137859965 0.02135156 0.034285925 0.07567891 0.032443415 -0.03277774 -0.22190891 -0.14875434 -0.119097926 0.042478155 -0.020559624 0.05566364 0.06748614 0.107490994 0.16124927 0.14655504 0.17391458 0.04572962 -0.014478931 0.039640967 -0.00707951 -0.10082925 -0.10818531 -0.115739375 0.056809902 0.049946662 0.038294334 0.0057024336 0.008384241 0.049111627 0.1018774 0.11230314 0.024627846 -0.03837958 -0.16842331 -0.20069551 -0.10552804 -0.060651094 -0.027558928 0.020408088 0.072144434 0.067940086 0.059773523 -0.02701056 0.06880782 0.13654545 0.049613293 -0.015125093 -0.08850222 -0.21691413 -0.05550556 -0.021844454 -0.019705495 0.02962494 -0.015946548 0.051579002 0.11621756 0.124670036 0.08114104 0.11251351 0.015786948 -0.068093374 -0.0924199 -0.057764184 -0.06766372 -0.04527214 -0.03061068 0.0134587865 0.0509273 -0.012630978 -0.0071940483 -0.04549583 0.10836466 0.05838277 0.03541709 0.019711586 -0.14060469 -0.1753429 -0.03584628 0.0116540585 -0.033819772 0.047502495 0.05209851 0.10162091 0.12635659 0.106693245 0.11135193 -0.009312293 -0.09369772 -0.090358175 -0.06617206 0.01789866 -0.022773625 -0.10616348 -0.066912234 -0.020223007 -0.10899204 -0.011153683 0.15012972 -0.051688988 -0.12799719 0.08607206 -0.02860468 -0.09758386 -0.20544212 -0.15036742 -0.05927201 0.0026262652 0.04437076 0.014281219 0.12874298 0.16575766 0.16465323 0.08113614 -0.067610994 -0.20882821 -0.10296777 -0.06361922 -0.009077365 -0.0070962836 -0.115756296 -0.09276195 -0.09620706 -0.043224853 -0.03415289 -0.068027765 0.018650385 0.07655134 0.07277765 0.08894053 -0.006288141 -0.11602164 -0.17701858 -0.1308121 -0.05537134 0.045720067 0.124025434 0.09319629 0.19587877 0.23306578 0.16915442 -0.034268845 -0.22818391 -0.26263186 0.026651422 0.07562675 0.0008434036 -0.012469368 -0.08323785 -0.089983754 -0.016127616 -0.033135667 -0.039298147 -0.12448964 -0.040825207 0.0004504802 -0.011374659 0.03847961 0.15462221 -0.14204296 -0.21370183 -0.17349958 -0.04443312 0.011287562 0.14100097 0.16418907 0.24799548 0.16204837 0.0034256317 -0.17625271 -0.2681071 -0.21279745 0.034331154 0.037025142 0.0067761503 -0.043976966 -0.10782554 -0.018182777 0.020353239 -0.10357835 -0.025250342 -0.07648745 0.044261575 0.08034331 -0.07909449 -0.035891045 0.017594222 0.12884153 -0.07255087 -0.15455201 -0.04836697 0.04232804 0.09160712 0.1227357 0.15879834 0.0785331 -0.006655594 -0.1391386 -0.18193227 -0.19259138 -0.061318107 0.0107565615 -0.038784996 -0.063067764 -0.083889365 -0.016271 -0.018474136 -0.07297871 -0.033522114 -0.05118773 -0.05279447 -0.03829639 -0.050470937 0.009151256 -0.013764672 0.09693594 0.031954482 -0.08776992 -0.0023838296 0.08450627 0.088878356 0.10626544 0.13451698 0.040615626 0.060039174 -0.04951198 -0.20704535 -0.15945648 -0.10356908 -0.017375303 -0.05856927 -0.12419033 -0.18058324 -0.12608726 -0.07777524 -0.03674829 0.020177815 -0.012304077 -0.06436108 -0.031915523 -0.006690216 0.0136407325 -0.0146045815 -0.10772024 0.035979833 0.034687202 0.07504595 0.04612971 0.14436169 0.14522691 0.06730072 0.10327111 0.097399496 0.064714916 -0.116332605 -0.1513455 -0.1365522 -0.082994506 -0.09603075 -0.11095752 -0.15196687 -0.096162744 0.0013654402 -0.024224352 -0.052952543 -0.10021794 -0.10787511 -0.017221302 0.022273367 0.024593351 0.005141344 -0.027378289 0.028417774 0.10165637 0.06933459 -0.004116015 0.14112115 0.15937854 0.14932814 0.20934997 0.17326555 0.07604905 0.060604643 -0.0117425015 -0.019512746 -0.041096643 -0.088588186 -0.037287403 -0.00059477455 -0.05972647 -0.09776224 -0.1565908 -0.07925613 -0.104519345 -0.06535136 -0.012102982 -0.07607178 0.073446855 -0.011660913 -0.025527552 -0.1772716 0.06922228 0.030713597 0.047028117 0.079150386 0.051784053 0.08451238 0.13905881 0.14302854 0.058452334 0.05425814 0.062434003 -0.008854504 -0.048273675 0.03042785 0.0030421405 -0.008993866 -0.014842813 -0.17890982 -0.14219795 0.035253342 0.082501985 0.059367593 -0.056011822 -0.1858997 0.0063776 -0.0038571656 0.019966807 -0.090969265 -0.11149983 -0.11216282 -0.091101535 -0.13064528 -0.032425895 0.02859528 0.035128437 0.094992936 0.12792116 0.19535153 0.122009024 0.009828313 0.02807594 -0.033649642 0.076760314 0.017287308 -0.08415039 0.01418677 -0.039831903 -0.043132544 0.05706085 0.16146152 -0.058757365 -0.04539084 -0.0011658594 0.031287376 0.01266516 -0.048279516 -0.05652879 -0.20280047 -0.35003084 -0.16434902 -0.16040851 -0.14414927 -0.05181521 0.016553931 0.11605654 0.076310225 0.10571463 -0.031526614 0.020055126 0.049587183 0.09594691 0.085270785 0.12901121 0.09784421 0.04255849 0.101521 0.0957417 0.09226299 0.056986563 0.06962388 -0.02245698 -0.00831748 0.002573438 -0.013391908 0.016070955 -0.050396394 -0.13349818 -0.16894579 -0.0745304 0.026998267 0.023011802 -0.06181362 0.19107302 0.37970066 0.13739023 0.09431497 0.011836482 0.011028542 0.018262837 0.034445185 0.17880806 0.11999459 0.054074284 0.029692827 0.033055097 -0.017845457 -0.039275415 0.027868155 -0.007918196 0.029092375 -0.005870614 0.024947848 -0.01476757 -0.03139934 -0.12700129 0.075919636 0.08916085 0.051659618 0.16372187 0.13438429 0.15591261 0.12843293 0.06962514 0.15222293 0.046085116 0.013705701 0.045702785 -0.00066736114 -0.0062046275 -0.08550101 -0.14073177 -0.07972891 -0.052694034 -0.007354306 0.02794708 -0.02318851 0.022961225
0.02242218 -0.0258682 0.027811568 0.004238002 -0.002350632 0.033630166 0.009237293 0.033320043 0.026156384 0.033663686 0.012558743 0.0008535981 -0.018784883 -0.0031744225 -0.026137292 -0.038776923 -0.021087196 -0.03326915 0.013380587 -0.010995215 -0.019772578 0.020343471 -0.00525813 -0.01722616 0.029482435 -0.0074002966 -0.024042096 -0.025550673 -0.0071107745 -0.012860311 0.0013217404 0.02341814 -0.018227791 0.031337928 0.007728927 0.031185355 0.028920403 0.0038677815 0.054983385 0.038060065 0.06982092 -0.021408973 -0.028403101 0.043226745 -0.0086987885 0.022843458 0.10538873 0.054111447 0.12097265 0.13553706 0.11338758 0.024960183 -0.0044891834 0.033195715 0.003578335 0.0020235218 -0.023392852 -0.00889785 0.061649837 -0.025636176 -0.0063823573 0.0062053506 0.016487438 0.035469074 0.09563603 0.117183566 0.051810425 0.077223666 0.0020723 -0.03417169 -0.07673825 0.028015295 0.16831875 0.08257016 0.05940078 0.12860754 0.16537896 0.17142484 0.13465223 0.0836687 -0.0011505357 -0.009337383 -0.0016956218 0.026408613 0.028321031 -0.009931816 -0.032931633 -0.0057476712 0.0093154125 0.01128182 -0.053228375 -0.008866716 0.06624277 0.094675735 0.0025200555 0.054435898 -0.06838105 -0.09249305 -0.05060967 0.04316827 0.030406874 -0.027380537 0.064283095 0.008292498 -0.021145197 0.13465887 0.1406206 0.18677449 0.04707431 -0.1377492 0.032791667 -0.035599243 0.020800553 0.033849817 -0.04468642 0.012996045 -0.072494835 -0.103617355 -0.07766329 -0.0696902 -0.11761906 -0.076900765 -0.08985332 -0.14403366 -0.123096764 -0.14829601 -0.051226474 -0.009803421 0.019500723 -0.038826935 -0.002580695 0.106092624 0.06625277 0.064663835 0.041743383 -0.035509508 -0.11411052 -0.0887914 0.06283672 0.09119525 0.010464765 -0.031607307 0.060997102 0.10835587 -0.13094534 -0.16909276 -0.15173851 -0.030688256 -0.067318074 -0.011827701 -0.05989036 -0.12708405 -0.10701473 -0.07180411 0.01714219 0.01681653 -0.025642237 0.0351192 -0.0016756828 0.114656135 0.012894835 0.11093409 -0.0038224559 -0.03279241 -0.0091323275 -0.08517573 0.15576208 0.0484146 -0.013270762 0.003193237 0.05541185 0.07976861 -0.11338481 -0.07125643 -0.08353605 -0.023486918 -0.062355794 -0.09760213 -0.087403074 -0.12645838 -0.060820837 -0.01633528 0.018725602 0.05047169 0.045530718 0.016157787 0.06871474 0.041192837 0.04618116 0.0050119143 0.047123443 0.040292516 -0.005725314 0.0045710187 0.0022766031 0.1474161 0.020890895 -0.0025406599 -0.07326613 -0.05893342 -0.13763726 -0.092832014 0.02797589 0.013405936 -0.0142148305 -0.0672349 -0.12521319 -0.103453875 -0.053220186 0.0034909341 0.0014006579 0.041469604 -0.030650463 0.049341537 0.0639964 -2.9905408e-05 0.032782182 0.04734898 0.12465111 0.073438056 -0.09759563 -0.080678456 0.0042403014 0.091074176 0.02506493 -0.030110588 -0.053461045 -0.074789606 -0.10360293 -0.057844367 -0.0604594 -0.045136414 -0.045612432 -0.036034413 -0.056471925 0.023497 0.058550082 0.072596245 0.060553897 -0.038996253 -0.029174808 0.007025158 -0.019714808 -0.017564505 0.006952802 0.015647171 -0.070476115 -0.06481538 -0.06939194 -0.11991472 0.048355278 -0.044802014 0.0008785054 -0.012826963 0.046047144 0.03845279 -0.038836014 -0.10556514 -0.07840978 -0.072146736 -0.083790734 -0.02558916 -0.017345354 0.031205611 0.057333473 0.06397408 0.042370617 -0.015361087 -0.11408212 -0.120182864 -0.102877274 -0.042747214 -0.013431448 0.0061500566 -0.10268479 -0.040312573 -0.010199981 0.012902628 -0.11326355 -0.08452086 -0.006907681 0.0012465573 0.054833677 -0.0014920367 -0.0487431 -0.13322523 -0.13671479 -0.04919241 -0.06588637 0.014366802 -0.027302861 0.048829082 0.040194433 0.07432854 0.08460104 -0.008986509 -0.1399824 -0.0991067 0.014435124 0.017776271 0.04362952 0.085558526 -0.07088322 -0.0016807902 -0.03432426 -0.16488144 -0.031763125 -0.008842708 0.03441282 0.027106136 0.041467555 -0.026548771 -0.13982774 -0.13373072 -0.13682957 -0.020834235 0.04877873 0.10873467 -0.00031161786 -0.043086756 -0.030592307 0.08598608 0.13867956 -0.007406367 -0.13488583 -0.12079579 -0.042598784 -0.026456626 0.0393527 0.05223306 -0.0782836 -0.13251552 -0.020252345 -0.08363256 0.052112274 -0.0059971777 -0.013957595 -0.0046372805 0.059501626 0.02964281 -0.140394 -0.16561149 -0.064620346 0.02942142 0.056605063 0.13325983 -0.0075750058 0.010235579 -0.027230078 0.07116027 0.07919707 -0.0052138385 -0.024497982 -0.06755178 -0.07669619 -0.12429779 0.0028101534 0.054754633 0.04443929 -0.05794841 -0.03817274 -0.07001995 -0.08590609 -0.023723489 0.033157032 0.0023855323 0.016822252 -0.01911447 -0.20036027 -0.16381375 -0.104699045 -0.037911594 0.028983608 0.024001446 -0.03099163 -0.0542374 -0.00033829355 0.1024952 0.08926254 0.010153154 -0.040586136 -0.062041674 -0.0885188 -0.13018252 -0.05146722 -0.049465787 0.029960977 0.03251947 -0.022203084 -0.001703264 0.058391202 0.06312489 -0.011418324 0.001530353 -0.0060761557 -0.07527026 -0.17546459 -0.1047663 -0.14114822 -0.015185055 -0.034131546 -0.003811023 -0.021977961 -0.016251888 0.09743856 0.101513304 0.01870667 -0.06602597 -0.13158607 -0.08645729 -0.094558135 -0.09396254 -0.09248887 -0.019473458 -0.016502379 -0.08086638 -0.009468845 0.015805751 0.035167538 0.05890433 0.024195338 0.029163871 -0.053590287 -0.070212804 -0.18400866 -0.09786837 -0.15978298 0.0191474 0.038873445 0.029608289 -0.007023626 0.13101621 0.13559765 0.0030862142 -0.050142284 -0.13734706 -0.12951839 -0.08301093 -0.09790169 -0.096508615 -0.056510776 -0.030185847 -0.11716408 -0.11848826 -0.06941342 -0.057763662 -0.117254585 0.052179504 -0.0149761075 0.046804473 -0.03228092 -0.044215202 -0.07705564 -0.15576747 -0.24055909 -0.073043294 0.058832694 0.18428831 0.16441016 0.22904634 0.08490678 -0.07398537 -0.20348766 -0.17351961 -0.08341064 -0.07606001 -0.1179166 -0.07413928 -0.05771554 -0.031643424 -0.02612163 -0.027819445 -0.041962806 -0.12604761 0.0015717039 -0.036920134 -0.0068924725 -0.013980666 -0.024212303 0.048962533 -0.0397888 -0.20827208 -0.17792135 -0.085568294 0.062328044 0.25094357 0.3150874 0.21963856 0.040906675 -0.22469369 -0.24474528 -0.17272758 -0.15951866 -0.1234272 -0.03122424 -0.049074296 -0.00014884665 -0.011248054 0.06660557 -0.028348815 -0.13799049 -0.06308684 -0.053795848 -0.008202196 0.040407855 0.04031398 -0.07539232 0.0048273522 -0.097688295 -0.15814237 -0.18415156 -0.07186571 0.08037568 0.3003997 0.23495448 0.037435997 -0.15172647 -0.26871264 -0.21172675 -0.12567489 -0.13323498 -0.04894496 0.0020450656 -0.03286889 0.022519557 0.052466296 -0.0123169115 -0.022495845 -0.09963891 -0.020003835 -0.07148549 0.03444481 0.045879673 0.033189606 0.022219416 -0.0804676 -0.12428482 -0.17667858 -0.17018424 -0.041419223 0.1532512 0.23409206 0.19564754 0.015368113 -0.21387641 -0.21915653 -0.21860218 -0.15210661 -0.048759867 -0.022545068 -0.018440293 -0.037996273 0.037777185 0.11613925 0.032722 0.05593544 0.024643619 0.045260243 0.054528926 0.043346755 -0.033021763 0.05000268 0.016273964 -0.06560572 -0.081220895 -0.075802505 -0.14039354 -0.079459056 0.080637224 0.17986934 0.17047606 0.061407804 -0.08404723 -0.1748049 -0.074538544 -0.05673023 -0.0040948996 -0.0067795613 -0.0060471143 0.06589229 0.07259817 0.09529409 0.046393942 0.05260469 0.056494422 0.0008563223 0.01497313 0.05123783 0.06022123 -0.028936932 0.0055782413 -0.07263166 -0.10586734 -0.12675832 -0.06918745 -0.038974855 0.01800705 0.09202737 0.05893245 0.025579998 -0.00045065314 0.044996288 0.025390478 -0.033802167 -0.017578444 0.003746242 -0.0178698 0.058161628 0.068846464 0.045961965 0.027416974 0.048951425 0.08973587 -0.008958947 -0.00022431291 0.021255786 0.0639444 0.019905664 0.006206208 -0.052285247 -0.13827544 -0.038946874 -0.025728758 -0.03278237 -0.06901049 0.071552426 0.055453002 0.015867155 0.11483326 0.11499827 0.091888644 0.06965403 0.041584525 -0.0004142028 -0.048652317 0.037878018 0.045724317 0.0022919108 -0.012347503 0.017347032 -0.02188765 -0.012482297 -0.009848863 0.017996449 -0.020711308 -0.030724213 -0.001572134 -0.09668882 -0.11493475 -0.004895107 -0.035760894 -0.027774384 0.05092343 0.03626386 0.029660674 0.07600641 0.16657107 0.16323611 0.09757219 0.016638663 0.027815543 0.059101194 0.028489832 0.05438256 0.08473141 -0.10400899 -0.11145004 -0.06805261 -0.035363793 0.021260278 -0.031341255 0.028289873 -0.01866571 -0.006745551 -0.019371847 -0.06733504 -0.13967617 -0.060693044 -0.097047254 -0.026990054 0.008843775 0.051310748 0.061523784 0.09560939 0.18820103 0.12190523 0.05024951 0.07607015 0.05148257 0.015012626 0.035199787 -0.007008652 0.0031862238 -0.118812904 -0.17628442 -0.15386015 0.010074389 0.13140698 0.089518465 0.01758584 -0.03476893 0.0032424256 0.012407578 -0.046656907 -0.19172128 -0.18054779 -0.090689026 -0.06706411 -0.0060033216 0.04603547 0.14324526 0.12226402 0.16028172 0.06440415 -0.026898233 -0.1047129 -0.104119115 -0.04736432 -0.05849769 -0.06462659 -0.061356924 -0.11038809 -0.10945542 -0.055584703 -0.029211836 0.057387985 0.050102957 -0.023915574 0.024358299 -0.0103508495 -0.0031866357 0.021072125 -0.013449508 -0.098416165 -0.06492768 -0.01577177 -0.0490419 -0.14003895 -0.090350084 -0.099385604 -0.15453365 -0.10487414 -0.15369338 -0.043043476 -0.026882727 0.0027519627 -0.0885231 -0.1250385 -0.13232768 -0.040735964 0.06687276 0.016476061 0.030227702 -0.035209406 0.0012556687 0.034230966 0.011776168 0.023487505 -0.017620504 0.016332287 -0.024129257 0.020790502 -0.034934826 0.006181856 -0.014273587 0.024076717 0.027141409 -0.010164854 -0.0076047415 -0.068617605 -0.020881144 -0.037128106 -0.030507656 -0.05738398 -0.055878818 -0.02746405 0.05222478 0.09526829 0.043424465 0.027279224 -0.01502437 -0.026890714 -0.031014597 -0.022991514
0.02508121 0.02800015 -0.017351437 -0.033891037 -0.0052882824 0.0078090616 -0.0030365922 -0.006645726 -0.034018185 -0.020134693 0.0043366738 -0.03393572 -0.086599335 -0.09765332 0.022433788 -0.032644637 -0.004627552 -0.012479642 0.0037827976 0.008617494 -0.031400423 -0.03443861 0.032773603 0.017557021 -0.023737907 -0.013337595 0.02531932 -0.01498764 -0.03121159 0.024892047 0.0035550334 0.01090347 -0.0063225497 -0.055399004 -0.103392616 -0.09006181 -0.10297978 -0.114169836 -0.03463208 -0.060202193 -0.09645155 -0.11004902 -0.12338819 -0.026906423 -0.054164596 -0.03411398 -0.11961317 -0.07356685 -0.04503484 0.021394633 -0.06984492 -0.042530816 -0.022192355 -0.025750881 -0.020503834 -0.013464188 0.021360278 -0.011331217 -0.015158407 -0.03163483 -0.09344897 -0.119890355 -0.10452454 -0.11903443 -0.17523608 -0.1589513 -0.19420463 -0.2750821 -0.25543106 -0.30431503 -0.32698765 -0.16472495 -0.14804056 -0.1487646 -0.06373909 -0.14548771 -0.106100835 -0.04547254 -0.024226228 0.031624217 0.038622703 0.021649377 -0.023581821 0.015881717 0.029077474 0.018209133 -0.010852687 -0.04245852 -0.06508639 -0.08396674 -0.08762067 -0.033056006 0.034378495 -0.12253539 -0.14843892 -0.15512152 -0.19335957 -0.26082852 -0.34404594 -0.23615775 -0.19526061 -0.06340043 -0.042230707 -0.039037216 -0.03850535 -0.027469594 -0.02579422 -0.1118474 0.04384809 0.13876212 0.068263784 0.0039716884 -0.03272511 -0.033952437 -0.008096091 0.11346859 -0.0030818153 -0.06554895 -0.069032565 -0.08597018 -0.20189156 -0.23951255 -0.30720842 -0.27066404 -0.37926406 -0.45986137 -0.3838169 -0.21355519 -0.19523558 -0.0791008 0.015461001 -0.07562249 -0.11539675 0.014720624 0.074113995 0.16094898 0.18083835 0.21484138 0.12897156 -0.009787711 -0.011581268 0.011077888 -0.029116966 0.054730013 0.018653944 0.0113253165 -0.038580347 -0.062423233 -0.09882216 -0.12620416 -0.18530118 -0.23143204 -0.300642 -0.23246682 -0.22784758 -0.24661577 -0.16809614 -0.09558775 -0.030813398 0.0006142791 0.0629451 -0.04466926 -0.015161012 0.035922144 0.116870545 0.19408399 0.023783121 0.02015537 0.028589543 0.0337522 0.09170461 0.1659205 0.037017055 -0.028526567 0.045224585 0.0094316155 -0.0043621757 0.0752431 0.046382625 -0.037359513 -0.0771809 -0.01084226 -0.011297096 -0.046419077 -0.058671366 -0.02216912 -0.004376593 0.00672507 0.05475703 0.0866448 -0.007386312 -0.044624638 0.08839187 0.11906743 -0.010497582 0.0031299132 0.061174694 0.016112117 0.13103576 0.08766055 0.052335475 0.03710609 0.09257755 0.060229797 0.15284598 0.10924268 0.06813566 0.07129006 0.16945757 0.15686344 0.12766021 0.08576389 0.037663147 0.09390646 0.07678732 -0.010374247 0.03225705 0.065410726 -0.1118555 -0.24886784 -0.026266765 -0.05976091 -0.07841479 0.06607323 0.0173292 0.013233003 0.07864491 0.018252747 0.06793318 0.052498568 0.050116353 0.045343496 0.111765884 0.13621733 0.13454688 0.18252887 0.18943466 0.16866699 0.17027086 0.08537925 0.09259638 0.028163701 -0.020153232 -0.0054809465 0.0008644654 -0.08187574 -0.038971752 -0.22967109 -0.18203786 -0.18726204 -0.064668864 0.047813497 0.03907597 0.07210789 0.1167107 0.05910628 0.16544099 0.14065874 0.092505634 0.111925535 0.13496706 0.15473115 0.1735553 0.19000888 0.22548965 0.24266504 0.2598858 0.14340128 0.029880583 0.0046224436 -0.08198467 -0.039699033 -0.09605513 -0.12840788 -0.08940802 -0.21048616 -0.11824879 -0.08437996 0.019825114 0.12145153 0.03804038 0.02776705 -0.01766317 0.029863138 0.0389226 0.039630894 0.052070983 0.09413903 0.09649045 0.12007723 0.15779501 0.15645747 0.1366785 0.18634665 0.1372791 0.0148388 -0.015965385 -0.10779215 -0.121518485 -0.049310673 -0.069737 -0.073785424 -0.0941292 -0.13660228 -0.052915532 0.09597254 0.11414591 0.07121033 0.1005332 0.036220547 0.013806209 -0.02653965 0.0023891141 0.03132823 -0.0049424325 0.029139858 0.032628622 0.07422406 -0.041388143 0.058552425 -0.04511493 0.019238591 0.028316135 -0.059495553 -0.07788037 -0.041544553 0.0012844891 -0.08139291 -0.08807223 -0.11086093 -0.09735825 -0.025814502 -0.013995192 0.15348738 0.11147378 0.10130354 0.12838107 0.06620079 -0.012944005 -0.10591945 0.018890388 -0.05466491 -0.014025692 -0.10120322 -0.07066407 -0.12759608 -0.16921614 -0.13929173 -0.2221739 -0.047339067 0.04148023 0.01823419 -0.0067465976 -0.007613427 0.04710245 -0.047543067 -0.062411305 -0.095788956 -0.025459642 0.008226591 -0.030793386 0.21137191 0.1760407 0.07256847 -0.09930152 0.058401763 0.082807586 -0.13762595 -0.09433685 -0.1580071 -0.022286713 -0.13091262 -0.09874628 -0.109902725 -0.13997322 -0.14047392 -0.06264228 0.07295131 0.09786982 -0.047505528 -0.0008046174 0.049362384 0.04498015 -0.036755893 -0.012489476 -0.05352012 -0.123770066 0.011046049 0.14328052 0.10312472 0.11367314 -0.06968485 -0.05827235 0.028763236 0.092572875 -0.116440386 -0.1541774 -0.2568709 -0.12067007 -0.11152425 -0.11094472 -0.03087781 0.03128379 -0.026279246 0.07809109 0.09859391 0.04354237 0.02176866 -0.02254305 -0.011941512 0.016025718 0.034075018 0.022822484 -4.3255073e-05 -0.057181936 0.08236815 0.13420466 0.014980254 0.1265901 -0.016448671 -0.003131404 0.0059465915 -0.090420686 -0.1592736 -0.13172843 -0.10603546 -0.06788244 -0.022714516 0.042833075 0.10358044 0.1353944 0.14297079 0.13371597 0.117249385 0.011123394 0.014265974 -0.023415469 0.04077464 0.06412818 0.062035568 0.0949588 0.064102806 0.07132868 0.06555042 0.17430224 0.031057807 0.053963464 0.10455012 0.013594712 -0.0225894 -0.021403756 -0.2013235 -0.22181255 -0.14541864 -0.02179106 0.1263565 0.16123338 0.179233 0.21414399 0.115901195 0.12682259 0.038914688 -0.02015049 -0.11241104 -0.10318849 -0.07057313 0.07301108 0.11013712 0.031057378 0.108195074 0.055401158 0.017095236 0.12944463 0.061292976 0.124025844 0.17609735 0.014164176 -0.002756198 -0.09676712 -0.19133689 -0.25121474 -0.13472994 -0.03566863 0.07337302 0.1181351 0.06861178 0.11204755 0.07191868 0.121110015 0.03786809 -0.039679337 -0.056413338 -0.07416222 -0.025712932 -0.0004481802 0.08214254 0.08740055 0.030421272 0.03902736 0.079650514 0.02047065 0.010408436 0.07948885 0.14696692 0.059183538 0.021662157 -0.012064697 -0.089143254 -0.13268416 -0.1547636 -0.049690895 -0.070078194 -0.024751022 -0.07680389 -0.03203364 -0.0132701015 -0.12140787 -0.059729308 -0.07069061 -0.0822223 -0.023331122 0.057445124 0.0040894714 0.057606477 0.0583088 0.06268757 0.09621889 0.13360299 -0.045081012 0.03644408 0.20670071 0.05524666 0.006717082 0.09834706 0.04442547 -0.0810385 -0.18738052 -0.23188554 -0.2528947 -0.27044737 -0.23108488 -0.16514157 -0.21406396 -0.21237034 -0.15882511 -0.13416669 -0.059695717 -0.053651076 -0.027399944 0.03520991 0.06608619 0.081036255 0.07879265 0.10824935 0.11273241 0.043994468 -0.10213308 0.06952196 0.088578 -0.005111904 0.027352009 -0.05868105 -0.027644373 -0.053280536 -0.13753535 -0.17696734 -0.19922571 -0.26179898 -0.2812454 -0.19345228 -0.21693882 -0.23933962 -0.14085746 -0.086699344 -0.0196332 -0.0073100026 0.02403955 0.017770657 -0.023065893 0.06531697 0.040752944 0.0359779 -0.02689017 0.035153516 0.039397072 0.1422324 0.019103823 0.03091667 0.017401095 0.05228798 0.014616124 0.018358149 -0.1269396 -0.03795311 -0.044505022 -0.15206581 -0.19472356 -0.21457447 -0.14672256 -0.09058742 -0.00088041474 -0.018937586 -0.0061737066 0.012447865 0.031306796 -0.055460226 0.001998875 -0.013875246 -0.051658586 -0.10075312 -0.07395732 -0.12717988 -0.0012413294 0.07736014 0.020498533 0.00093754753 0.029025864 0.023845585 0.1355039 0.029571164 0.021081746 0.058167268 0.084201746 -0.049354233 -0.030372314 -0.099124074 0.0076688197 -0.008248498 0.039797388 -0.063240714 -0.019226957 -0.025872648 -0.061286133 -0.05886748 -0.11516733 -0.11652098 -0.12004999 -0.15819602 -0.12790082 -0.108054385 -0.04467805 0.011948496 -0.03010496 0.020151105 0.013819896 -0.022231853 0.08856823 0.04345144 0.12193169 0.061489165 0.09705156 0.06663629 0.045077622 0.056681894 0.07708903 0.08185354 0.07046133 -0.046900924 -0.035742175 -0.048685424 -0.14235446 -0.17804877 -0.17790255 -0.16569023 -0.20141889 -0.17042233 -0.0773074 -0.023145122 0.087929256 0.033863615 0.0017861855 0.028955277 -0.0021498203 0.026182938 0.0462217 0.1845743 0.1876968 0.052795496 0.046785902 0.10245186 0.08247217 0.07294087 0.124330476 0.094245836 0.02889547 -0.023399945 -0.029560624 -0.0657513 -0.17065135 -0.08047227 -0.14613211 -0.07550301 -0.013089312 -0.0033592344 -0.012574799 0.009596365 0.07631731 -0.006543315 0.06691157 -0.025947845 0.019344378 -0.03504812 0.0009962874 -0.0011974537 0.0026029306 -0.014891118 -0.005297946 0.059436362 0.29139513 0.16721433 0.0017615685 0.0055221333 0.09293107 0.06290342 0.017831678 0.0076149027 0.032797266 0.047455758 0.046241 0.18939531 0.070936255 0.15214477 0.119863406 0.084533714 0.16868804 0.08000863 0.009087926 0.004080832 -0.035292264 0.012446526 0.012446918 0.0013827934 -0.06942843 -0.112185866 -0.09579601 -0.051853504 0.08069351 0.14926699 0.15140557 0.10368274 0.046203468 0.20577464 0.2520419 0.24357405 0.23851137 0.13193962 0.17983434 0.32289332 0.30259252 0.17155391 0.21278478 0.12378866 0.05263981 0.08206919 -0.003990408 0.003832098 0.018370003 -0.02677457 0.019262608 0.014142863 0.073605634 0.15107684 0.039623924 0.056003675 0.026872072 0.12127867 0.11400462 0.07199157 0.06887676 0.24696 0.20020789 0.12982355 0.088263325 0.16502273 0.14077805 0.06811258 0.0039523686 0.06881148 0.06608208 0.11997864 -0.024691366 -0.027160011 0.010865085 -0.016297549
0.017254047 -0.0294353 0.02323743 -0.019519402 -0.028949564 -0.019433934 0.022779375 0.018682305 -0.030986778 -0.02486163 -0.029971903 0.02499928 0.028735511 0.0638735 -0.0015960438 0.022387447 0.023423575 0.01451835 -0.009844011 0.03134134 0.026107699 -0.029245408 0.028494779 0.027248312 0.0031090006 -0.008337729 -0.017514069 -0.029972367 0.015351459 -0.022581136 -0.020731349 0.013232037 0.032859806 0.054339904 0.10608803 0.07690352 0.073836945 0.06942552 0.09789228 0.13770886 0.14144446 0.09482424 -0.05574352 0.062465113 0.11548576 0.079386935 0.16526654 0.06800748 0.12575631 0.08857255 0.11084156 0.06343675 -0.030385504 0.026685808 0.034326266 -0.003065247 0.027560208 0.0025783181 0.03789119 -0.0031368227 0.07339022 0.07081219 0.071521066 0.119312294 0.1572007 0.043916434 0.121770784 0.18940522 0.15225486 0.084019326 0.04098091 0.092741296 0.095596336 0.09669017 0.08872448 0.12823829 0.08956413 0.16060883 0.11560621 0.10548812 -0.04369635 -0.052450348 -0.006992664 -0.027106404 -0.031684764 -0.007054908 -0.081578925 0.017355436 0.10453243 0.1849995 0.17990579 0.2084636 0.12719521 0.0849601 0.064821824 0.13315368 0.090687394 0.09423363 0.053889688 0.05518805 0.050507076 0.027832301 0.099536866 0.05753423 0.043519054 0.14048104 0.12829588 0.093964785 -0.024058973 -0.07311556 0.01381687 0.022653729 0.031769697 0.015948053 -0.060355984 -0.0910075 0.13407594 0.04514129 0.04650049 0.07480397 0.028794399 0.06826101 0.0546154 0.021227399 -0.03379806 -0.16588622 -0.13366543 -0.05386166 0.020330422 0.012518471 0.011119149 0.02616284 -0.0037502544 -0.04210702 -0.09949028 -0.06417171 -0.1405482 0.023202486 0.17481218 0.085776076 0.03549699 -0.006626116 0.06344784 -0.0035907002 0.06405464 -0.022947945 0.0952167 0.054657906 0.0014503133 -0.009056015 0.00889556 -0.109529726 -0.18238173 -0.086325794 -0.09082966 -0.08778075 -0.04116089 -0.015185401 -0.042418968 -0.014919458 -0.052513648 -0.054597802 -0.11192045 -0.066425085 -0.075811416 0.014153173 0.13649106 0.027186947 -0.004750477 0.04559867 -0.044421356 -0.09922244 0.06446161 0.126466 0.15714014 0.10885857 0.06276688 -0.060714412 -0.0500637 -0.08340284 -0.1055395 -0.09399859 -0.100937866 -0.057651147 -0.08318225 -0.0371402 -0.03375777 -0.05382154 -0.07883051 -0.06726334 -0.03307618 0.026350345 0.030763673 0.15765573 0.060468204 0.0611463 -0.021334568 0.050533194 -0.095571086 -0.06558983 0.08116359 0.09551529 0.020258497 0.028297843 -0.06741806 -0.047151174 -0.013454939 -0.059226885 -0.05481835 -0.053402025 -0.06058958 -0.04299393 -0.07422559 -0.028699024 0.018224241 -0.015380784 -0.044164933 -0.05191927 -0.07515789 0.06894034 0.08656245 0.057573903 -0.05347096 -0.0066584987 0.011421669 0.013408147 -0.062377773 -0.05250566 0.0010972836 -0.014189172 -0.03824491 -0.03837189 -0.062556945 -0.009360505 -0.026117494 -0.031118758 0.04318532 0.08543856 0.03413716 -0.06181861 -0.006557143 -0.01862724 -0.05989902 0.044425342 0.01764799 -0.016490577 -0.06263118 0.041704502 0.04381085 -0.03999755 -0.0385099 -0.009620324 0.02249279 0.0010703416 -0.086376764 0.009569219 0.065638706 -0.069303274 0.02029823 0.013601994 -0.009826558 -0.02167291 0.018427614 0.024514372 0.09227659 0.08378688 -0.017817842 -0.08153487 -0.06821011 -0.058449805 -0.10510807 -0.09336094 -0.07272423 -0.083873056 -0.04232863 0.032714687 0.19993913 0.110215075 -0.053730268 -0.11069095 0.0065360856 -0.03958819 0.032340437 0.07306637 0.0020145832 -0.026547119 -0.033044927 0.047960106 0.041434173 0.083452925 0.107159756 0.04002819 0.10495805 0.05857602 0.044436827 -0.028658217 -0.01579736 0.0074583273 -0.06618885 -0.10428104 -0.062775634 -0.024352731 -0.033383712 0.14524983 0.25057948 0.044246618 0.04653392 -0.07860908 -0.021208135 -0.06331242 0.032583673 0.017089717 -0.058943998 -0.043531273 -0.026567578 -0.018276734 0.0034691952 0.054422487 0.046406638 0.035040617 0.054074317 0.0072134417 -0.047265682 -0.050984543 0.055938132 0.074110396 0.07000872 -0.019746054 -0.029031307 -0.054045137 -0.039966963 0.12505917 0.25681412 0.037763666 0.05088932 -0.012950692 0.013265359 0.028434474 -0.05560694 -0.038487565 -0.112304926 -0.03548889 0.04784611 0.028521758 -0.0449575 0.022537675 0.057190467 0.032334585 -0.025495527 -0.024025809 -0.012132462 -0.026977701 0.0104780905 0.035823 0.07163735 -0.05492897 -0.059118282 -0.08606041 0.003113037 0.12006119 0.124489 -0.05507436 -0.12791699 -0.1436105 0.034899008 0.04378614 -0.04004249 -0.022859657 -0.05714629 -0.036820523 0.10199519 0.0074623334 -0.03607965 0.060279164 0.024218695 -0.038713515 -0.03505111 -0.018957442 0.014385789 0.02992856 0.031053768 -0.007696206 -0.018028881 -0.050940216 -0.07251256 -0.05129716 0.049965627 0.16572304 0.068388216 -0.043761656 -0.15658388 -0.08238784 0.04683317 0.08213315 -0.025728578 -0.008408833 -0.059596445 -0.013743399 -0.011570097 0.014474881 -0.035130426 0.036645517 -0.0049205064 0.025190989 0.023366768 -0.0050328327 0.030045118 0.02775934 0.0057259994 0.007874045 -0.021385318 -0.008953687 0.03163052 0.053062417 0.09617345 0.15503891 0.20167638 -0.03535203 -0.20104094 -0.088729724 -0.010028924 0.049715355 0.103129074 -0.02363515 -0.008115401 0.04643791 0.0026940922 0.030159237 0.004232155 -0.064695455 -0.08668936 -0.0603613 0.035690468 0.012408696 0.028518856 0.0058803447 -0.051964045 -0.04277876 -0.038994342 0.029208407 0.073125176 0.10839175 0.09328906 0.18813138 0.27244854 0.06479515 -0.2420774 -0.083356306 -0.025851965 -0.0004297062 0.08727366 0.08303265 -0.037607882 0.008660196 -0.01646786 0.040438127 -0.020827072 -0.016337493 -0.10448212 -0.00870731 0.00089108 0.04472085 0.04932504 -0.061033554 -0.11756124 -0.14766343 -0.082219884 0.09649498 0.112680234 0.095471226 0.082039244 0.113590896 0.1700004 0.041689645 -0.23084448 -0.08325072 0.0098691955 0.05553434 -0.028832082 0.086988375 -0.020446483 0.02445658 0.0036577748 0.02129999 -0.03121243 -0.038045302 -0.012217638 0.05188916 0.04516412 -0.034668945 -0.08287313 -0.19571912 -0.1098704 -0.0714269 0.03472105 0.09771836 0.14129162 0.07442531 0.10910767 0.09641131 0.029363293 -0.10592552 -0.20507003 -0.029971993 -0.0062676244 0.02763135 0.010592148 0.06278017 -0.07200461 -0.0033397535 0.021582302 0.036504462 -0.007144277 -0.104462564 0.026623743 0.060999792 0.064928874 -0.05788384 -0.17211713 -0.19893721 -0.06136639 0.04533587 0.10959297 0.11334382 0.108872116 -0.0034891192 -0.008525722 0.017232133 -0.06747423 -0.13869661 -0.13514654 -0.13412634 0.016675338 0.08550801 0.080066316 0.12192889 0.008009769 -0.0026227476 0.024381552 0.005145669 -0.00047289592 -0.02781485 0.03439117 0.12145718 0.1132392 -0.012341477 -0.16385637 -0.102296405 0.038577694 0.1356069 0.17148204 0.056116384 0.00070914254 -0.024663968 0.030738818 -0.0600947 -0.087836415 -0.17088144 -0.14706935 -0.11077216 0.017509118 0.058977306 0.04233151 0.061572034 0.054719526 -0.040627345 -0.08023216 -0.004438768 0.00781298 0.06084426 0.11869845 0.07764357 0.08530101 -0.028187813 -0.030293852 0.03634164 0.11951344 0.16291058 0.13334323 0.01664014 -0.021732317 -0.07799038 0.012956526 -0.07485714 -0.13461713 -0.22890921 -0.10005522 -0.0033570419 0.023336653 0.06819739 -0.034450203 -0.025578834 0.032603443 -0.11703875 -0.13395743 -0.08890349 -0.028664734 -0.06357746 -0.016743192 0.06396739 0.06229982 0.066737644 0.14000805 0.21069473 0.14813362 0.14238682 0.018788883 -0.056984983 -0.03338572 -0.07633924 -0.016710427 -0.19370337 -0.21825583 -0.16690506 -0.002939788 -0.010754342 0.037318856 -0.0096938545 0.046542708 -0.028501097 0.0107749915 -0.061980095 -0.21799159 -0.15690635 -0.12687786 -0.096116506 -0.13061324 0.014846102 0.08649783 0.11518389 0.1819663 0.21408743 0.21906847 0.08100833 -0.037031345 -0.02596126 -0.08591605 -0.14979662 -0.079433866 -0.1727472 -0.26227894 -0.13800524 0.018285459 0.054322645 -0.003472872 -0.027883966 0.03945824 -0.018139424 0.09987913 0.02640536 -0.101317585 -0.14739794 -0.15624365 -0.06923381 -0.023074947 0.020693036 0.11136244 0.14271782 0.12928797 0.14872582 0.023581916 -0.032779936 -0.08295091 -0.13741358 -0.18382825 -0.1791553 -0.14917637 -0.17170267 -0.1692422 -0.05798058 -0.0655005 -0.024159007 0.019301016 0.021861672 0.02390846 0.06490234 0.16915652 0.110153385 0.07661083 0.099445865 0.08213388 0.058262154 0.012585153 0.027431106 0.15996276 0.12458683 0.08952488 -0.039460357 -0.12673523 -0.18458396 -0.21692996 -0.32686284 -0.23233794 -0.20059124 -0.12035351 -0.11639034 -0.14750272 -0.09097103 -0.081647664 0.024464715 -0.009832667 -0.027704814 0.004163944 0.011979828 -0.017370075 -0.060150027 -0.007354395 0.05825036 0.124613024 0.11776293 0.020666381 -0.04020173 0.0035545137 0.0007540108 -0.08893645 -0.19946241 -0.25303063 -0.2381871 -0.25952804 -0.116373874 -0.16674475 -0.13493934 -0.094402805 -0.028762348 -0.08058365 -0.0059050294 0.006067572 0.007899813 0.024949472 -0.011575751 -0.0074211154 -0.03867639 -0.0314127 -0.09390413 -0.088878445 -0.0042527067 -0.08506198 -0.13897188 -0.051105868 0.022971602 -0.10491593 -0.15170616 -0.20453794 -0.15210009 -0.15029456 -0.17085584 -0.16680758 -0.113449395 -0.14060755 -0.1128964 -0.03435403 -0.043426853 0.014993604 -0.026187599 0.017456237 -0.028290644 -0.010310911 -0.0065587386 -0.00063123554 0.020274144 0.017181046 0.03991387 0.039182905 0.018768318 -0.013845533 -0.051989704 -0.09421139 0.013809338 -0.019062513 -0.02608164 0.020699972 -0.008074356 0.008011369 -0.023338577 -0.027346868 0.03578307 -0.0061305976 -0.04121004 -0.024599064 -0.013330048 -0.02503737 -0.029743392 -0.014530323 -0.0023871884
0.0016413033 -0.0355342 0.016226586 0.00872387 0.0015327968 0.03343765 -0.018851494 -0.02946242 -0.027708987 -0.023995895 0.03549562 0.023716997 -0.033048395 -0.02776641 0.03288765 0.02989364 -0.02413083 -0.0137247965 -0.025805946 -0.011914978 -0.0066980813 -0.0010077916 -0.016953325 0.022895709 -0.0012548268 -0.009160763 0.011735346 -0.013506383 -0.008795086 0.03384297 0.016190894 0.020721823 -0.01754028 0.00048340435 -0.114606984 -0.082972445 -0.009253654 -0.034297768 -0.013808825 -0.07212445 -0.082792245 -0.036582474 0.061521508 -0.14232242 -0.079098634 -0.044951044 0.0226423 -0.05094021 -0.07717381 -0.059396084 -0.076959655 -0.11089736 -0.010497464 0.007035926 0.0036099479 0.022367802 0.0070762523 -0.0028960519 -0.022217045 -0.11077262 -0.1255041 0.022913782 0.04149979 -0.00039570974 0.117260456 0.1541463 0.14247642 0.24619761 0.1085184 0.11466027 0.11088119 0.030169586 -0.0032967941 0.013555582 -0.029303337 -0.08301227 -0.0028338956 0.06558718 0.019241987 -0.044982605 -0.028968202 -0.07677456 0.0071616843 0.00531001 0.026507929 0.0035276823 -0.009909591 -0.13048649 -0.07018715 0.030001074 0.0052488116 0.04554716 -0.03662503 0.022066483 0.057934254 0.10530925 0.028915562 0.007716825 0.061793093 0.041087996 -0.031951163 -0.054405697 -0.16318744 -0.108564146 -0.16707052 -0.03892213 0.092850186 0.09145238 0.026666775 -0.032082792 0.044575736 -0.0007188283 -0.03104987 -0.042582575 -0.051844098 -0.18591128 0.013438123 0.15000437 0.052314032 0.070351906 0.11197698 0.08800131 0.046120904 0.04585577 0.15495478 0.18494189 0.12947714 0.053966217 0.062168486 0.014273718 -0.02086511 -0.022608044 -0.018676808 0.04349046 0.079576716 0.06685699 -0.000993195 -0.073885456 -0.05435021 0.08230512 0.026341017 -0.0016749576 -0.067221716 -0.020232113 0.091746904 0.0044315495 0.03209654 0.027963111 0.032804735 -0.018538151 0.018375596 -0.009695047 0.05229233 -0.03961568 0.064985335 -0.03467533 0.02661889 0.045392297 0.05109919 0.07361211 0.09642975 0.109336235 0.13292933 0.15460329 0.09069212 -0.03212641 -0.0067628645 0.0902312 -0.0012079775 0.07199223 -0.023337035 0.016975684 0.032958634 -0.058336757 -0.08703656 -0.058530957 -0.046538416 -0.024491264 -0.13670865 -0.09555453 -0.097207494 -0.056859326 -0.09861912 -0.08117152 -0.089339346 -0.10712389 -0.062240534 0.019063223 0.021832908 0.050419517 0.13946193 0.17655765 0.096424066 0.03700333 0.030530654 0.08684121 -0.0148430765 0.018830523 -0.02380599 0.0014566366 0.07856118 0.01455838 -0.09674107 -0.0748549 -0.06175095 -0.019158198 -0.04506556 -0.02928334 -0.045924123 -0.06902365 -0.068931065 -0.13571346 -0.103571266 -0.021082979 -0.069303304 0.004739729 -0.016989736 0.0484463 0.1177525 -0.002831515 0.06106671 -0.030166926 0.02796598 0.07156463 0.0052675973 -0.024152953 -0.02925332 -0.021814132 0.09795109 -0.008591956 -0.054790273 -0.013219756 -0.07371955 -0.0055131232 0.010033241 0.026793601 -0.039278 -0.03492513 -0.13362315 -0.15564676 -0.11723983 -0.045448713 -0.021601677 0.013303284 0.00088771665 0.0313758 -0.037013374 -0.06455982 -0.12247765 -0.08299638 -0.056989927 -0.050501812 -0.036767866 -0.09387912 0.010174376 -0.056894753 -0.06288853 -0.038355775 -0.0736068 -0.017486647 -0.026303787 -0.020495996 -0.043044355 -0.036052767 -0.049320314 -0.07010841 -0.17679568 -0.15064843 -0.018987253 -0.037777606 -0.022612084 0.04109196 0.08609085 0.02816606 -0.019483581 -0.068918325 -0.19202746 -0.19768177 -0.10560552 -0.1058647 -0.03887457 -0.026850756 -0.031488735 0.029039497 -0.03002954 -0.047454223 -0.09520531 -0.03747653 0.021448439 -0.038498953 -0.009566243 -0.047955822 -0.048858784 -0.18810135 -0.2627498 -0.117281795 0.0032911217 0.071634114 0.029771866 0.109081194 -0.009102037 -0.040301107 -0.074288994 -0.14845467 -0.1329919 -0.13816842 -0.16889633 -0.11714017 0.023135185 -0.029733691 -0.11240451 -0.044615388 -0.09781262 0.001517627 -0.05290649 -0.0066617485 -0.0017593144 0.0772816 0.055431325 -0.034577638 -0.0902276 -0.20468234 -0.23864187 -0.102687076 0.03173587 -0.0015295182 0.050663408 0.044153284 -0.07806377 -0.12714753 -0.091945164 -0.103860855 -0.18419401 -0.083770566 -0.1300301 -0.12872386 0.005517726 -0.043284323 -0.079064734 -0.057857644 -0.08096715 -0.060814053 -0.03406443 0.025225893 0.04162889 0.059006948 0.09031125 0.075226195 -0.013131559 -0.06433626 -0.13415955 -0.019450912 0.03045874 0.0024259458 0.018301658 -0.067698546 -0.062289316 -0.063057035 -0.050696436 -0.0902049 0.019213585 -0.10286183 -0.1834687 -0.10573648 -0.004685053 0.0064395554 -0.053963225 -0.043683205 -0.099436454 0.009221953 0.011445591 -0.0072915023 0.07030513 0.09936423 0.034726962 0.038997374 0.035393793 0.00051831716 -0.020260314 0.030617513 0.011343736 0.04828334 0.027133629 0.024815345 -0.051631104 0.051020097 0.0067626364 0.012990234 -0.013752705 -0.02491683 -0.04043309 0.053681754 -0.021100482 -0.0097575355 -0.044311915 -0.013016551 0.012997815 0.07636251 0.017819714 0.09722013 0.071754515 0.08681927 0.052665845 0.07275591 0.09542547 0.029254058 0.0458402 0.0013451396 0.05618437 0.054010153 0.016766112 0.026202576 0.014383321 0.057822097 0.029660344 -0.00958933 -0.023494817 0.14521241 -0.014273488 0.004373211 0.0161752 -0.07260913 0.1494541 0.12254712 0.07368512 0.010931305 0.0127992155 0.10027727 0.102218606 0.09304088 -0.012949846 0.058919135 0.0724293 0.082423635 0.053165346 0.036645826 0.074029915 0.057682723 -0.0014456643 0.0150524 -0.037112575 0.04701756 0.11443287 0.016409205 -0.11788253 0.08471118 0.16710651 0.067573495 -0.008113354 -0.01083155 0.054443546 0.10223909 0.03769328 0.027062897 0.074528836 0.1352635 0.0999431 0.049520336 0.01436411 0.047626097 -0.004158421 0.030292904 0.066335104 0.081521295 0.08774475 0.026257927 0.018545736 0.10697594 0.06406828 0.09097412 0.047131225 0.049463198 -0.0077865217 0.1765285 0.130511 -0.02795627 -0.020313472 -0.09572633 0.07570404 0.025081208 0.09224716 0.043374732 0.05242165 0.088522315 0.10048229 0.058966238 0.028338563 0.041525826 0.031794667 0.032418236 0.051802382 0.088736795 0.09422157 0.045081984 0.014691198 0.042870063 0.08800418 0.17167468 0.05170505 0.035049833 0.026134241 0.23490916 0.117388204 -0.09788999 -0.08486376 -0.029609187 0.011834964 0.08179058 0.14068559 0.10560057 0.015949836 0.105696335 0.06945122 0.004789535 -0.09762176 -0.043790374 0.061556034 0.08094523 0.03824579 0.06548425 0.0268651 -0.0328511 0.015848987 -0.013745081 0.08434896 0.087950386 0.05199419 0.07231241 0.06977084 0.11997141 -0.0053458745 0.05979017 0.037133567 -0.084646784 -0.07160532 0.110959075 0.10222842 0.047670003 0.078096926 0.13183968 0.049703795 -0.008195094 -0.046151027 -0.05912435 -0.05970816 0.009316315 0.018137446 0.03575529 0.037814226 -0.03096179 -0.04600001 -0.019010823 0.028324718 0.06442854 0.024065267 0.039664827 -0.059761085 -0.016035065 0.12197194 0.015216769 0.016282089 -0.08617295 0.009583643 0.17061792 0.12538464 0.02882155 -0.017158346 0.1113434 0.02156094 -0.0327079 -0.056895096 -0.08375441 -0.053616807 -0.027840562 -0.0033059577 0.029319493 0.05794172 0.009212866 0.0017490175 -0.014428051 0.06950639 0.09805911 0.02273746 -0.019905673 -0.092826 -0.18030493 0.112180166 -0.009756945 0.013161731 0.082058415 0.025036806 0.08412864 0.082124524 -0.03504677 -0.031550538 0.007146233 0.07631946 0.008418763 0.0019097204 -0.054091413 -0.038360745 0.052179486 0.025899107 0.066419564 0.056322027 0.014326481 -0.0070578805 0.024308931 0.088439606 0.022855215 0.120410204 0.14175674 -0.07095203 -0.12416268 -0.039092153 -0.009212024 0.060378168 0.07695657 0.081702136 0.11931641 0.08385894 0.1075819 0.05006818 0.0066372445 0.02219752 0.047089543 0.011352742 -0.0078566875 -0.028594365 0.00942476 -0.0538662 -0.0019253693 -0.051770054 -0.0417542 0.0015906435 0.054746345 0.0559364 0.10491572 0.062435955 0.06347906 -0.03954108 -0.071360804 -0.057033468 -0.04506765 -0.020347383 0.0037768297 0.05525456 0.07282381 0.024402555 -0.013901095 0.07399851 0.09459723 0.06296332 0.007662737 -0.038585465 -0.058409996 -0.04905112 -0.073947534 -0.015111198 -0.035005394 -0.06000016 -0.08514892 0.028336303 0.09828215 0.09412054 0.040168867 0.051293045 -0.05738943 -0.12470735 -0.09413472 -0.098627016 -0.022720814 0.016697284 0.012798861 0.010706078 -0.12718098 -0.028107027 -0.12241911 -0.13461195 -0.07581314 -0.03425899 -0.082989916 -0.075216495 -0.09189958 -0.09797127 -0.08523285 -0.01650588 -0.11264189 -0.026462654 -0.10581656 -0.070113346 -0.073422685 -0.123479255 -0.04858278 -0.09133914 -0.10814472 -0.04551045 0.04008075 0.0033028838 -0.026860412 -0.012666937 0.033245932 0.06689041 -0.020546349 -0.13435313 -0.2080601 -0.12744886 -0.118020184 -0.10045858 -0.13676557 -0.08047446 -0.09312266 -0.15005267 -0.08121889 -0.12483337 -0.04908812 -0.1169 -0.0989582 -0.13201475 -0.23096146 -0.1662572 -0.15111029 -0.11428447 -0.07696959 -0.15035038 0.0072418214 -0.000117490315 0.013160262 0.031179655 0.0024631731 0.029966112 -0.013407248 -0.0145762395 -0.10390497 -0.071868315 -0.12806554 -0.11346398 -0.1865584 -0.18839467 -0.14393346 -0.117264725 -0.1734026 -0.20212005 -0.10526261 -0.21065566 -0.25162736 -0.25166017 -0.23351954 -0.29491726 -0.2276019 -0.215898 -0.03325972 -0.030208314 0.0076300986 -0.0034008957 -0.001497332 -0.02067222 -0.0014648996 0.012440499 -0.010634584 0.020130605 -0.018083367 -0.021122793 -0.08700038 -0.041631494 -0.08042631 -0.114517555 -0.0931239 -0.11082414 -0.15208046 -0.20372383 -0.13257404 -0.14835957 -0.19712466 -0.14297451 -0.06038158 -0.006531404 -0.104833096 -0.08466253 -0.11660067 -0.0045627523 0.024305843 0.019713428 0.0055949576
-0.01541974 0.020212617 0.022106696 -0.0045200083 -0.011863871 -0.016147338 -0.013822909 0.0018154643 0.009394135 0.0106384605 0.010658078 0.03287105 0.0076790126 -0.020828092 0.026725395 0.0070716804 -0.032944344 -0.032104373 0.0034337267 0.01805551 -0.011128614 0.024835702 -0.016121317 -0.0070473123 0.029492904 0.03449599 -0.022109991 -0.014474945 -0.008190811 -0.00021132454 0.005717527 0.026961643 0.00087967515 -0.030141585 0.013485593 -0.007418749 0.0285128 0.006229586 -0.003526101 -0.07429696 -0.036704738 -0.095404275 -0.04361656 -0.15152924 -0.11102927 -0.07389191 -0.05921722 -0.082604796 -0.113851085 -0.053110745 -0.056801956 -0.023065502 -0.017456621 -0.0028683357 0.026815038 -0.010614937 -0.010250287 0.028593916 -0.037794095 -0.046660744 -0.04354575 -0.035189748 -0.0057831355 -0.020406436 -0.04108698 -0.017074807 -0.05366539 -0.016902098 -0.094578035 -0.17187405 -0.22869627 -0.10405153 -0.11607768 -0.034905944 -0.06861636 -0.028668711 -0.044147108 -0.07885354 -0.06205228 -0.07952354 -0.048299216 -0.032532256 0.002689261 0.030962814 0.014214374 -0.0126056895 -0.02075707 -0.040387932 -0.047052693 -0.06798208 -0.010243046 -0.020765105 -0.13779381 -0.116906196 -0.17693537 -0.16293919 -0.20875458 -0.2275653 -0.26543492 -0.35578033 -0.32338542 -0.18512942 -0.11302951 0.020252125 -0.045931973 -0.04558085 0.0020146794 0.008604885 -0.011768516 -0.09915769 -0.08446679 -0.028842654 0.015488617 -0.026297648 0.031628367 0.0829772 0.0084853275 -0.062021762 -0.06082191 -0.0500197 -0.07859382 -0.14018202 -0.1968471 -0.0549366 -0.043505102 -0.1244942 -0.25498566 -0.17383228 -0.14064951 -0.20069985 -0.17236967 -0.10084786 -0.1387212 0.014510629 0.03374541 0.027839188 -0.04751586 -0.1829882 -0.118428715 -0.060713336 -0.011421591 -0.03429734 -0.050968394 -0.006127578 -0.08407001 -0.09150708 0.015387707 0.06115038 0.13225076 -0.021454092 -0.074217044 -0.016758936 0.014515562 -0.08999526 -0.0538703 -0.014417246 -0.053360436 -0.17892426 -0.18696481 -0.21483354 -0.14616016 -0.040579468 -0.009300923 0.028039418 -0.018379336 -0.039538756 -0.13997813 0.022775127 0.024038833 -0.08987607 0.000102256476 0.0036114398 0.026964542 0.08114143 -0.01657499 0.068980046 0.046316385 0.059777886 0.0678336 0.11539741 0.071581416 0.010860271 -0.0069416533 -0.017025508 -0.059449684 -0.020678636 -0.10067278 -0.06306622 -0.07572629 0.031043576 0.07668854 0.014935519 0.039095618 -0.15425926 0.029376153 -0.027689353 0.005582477 -0.10178857 -0.04712 0.029748218 -0.03765352 0.027003417 0.062972575 -0.039703414 0.02106495 0.08558745 0.08282975 0.064195134 0.057957746 0.052273642 0.054529108 -0.07358048 0.0353883 0.024064003 -0.043652005 -0.025408927 -0.045528553 -0.02992618 0.010888574 0.047888573 0.07484173 -0.071663804 0.09967565 -0.03971072 -0.03855245 -0.00029062174 -0.081605695 0.005470092 -0.015051093 0.018605202 0.024245381 0.039312277 0.10028912 0.050666817 0.04696722 0.06994633 0.009293338 -0.0067999167 0.008534925 0.005552125 -0.07064464 -0.03413618 -0.0015233884 -0.08297956 -0.12062533 -0.062258147 -0.049196515 0.028026711 0.09146949 0.072899826 -0.05304758 -0.05400625 0.028690584 0.06880542 0.0048135957 -0.046179265 -0.09939235 0.00015400717 -0.004516844 0.06325551 0.051502258 -0.0009739348 -0.023590866 0.0565442 0.060005136 0.023620086 0.06410792 0.067810245 -0.05308433 -0.039725624 -0.0005045451 -0.0626403 -0.042432353 -0.027773827 0.030426035 -0.028163506 0.06768405 0.03601645 0.09600043 0.12321178 0.018105851 0.009597607 0.04013664 -0.072930254 -0.08400473 0.056953736 0.020453855 -0.020627573 0.021139968 -0.029709836 -0.06365898 -0.00711599 0.07442437 0.12049353 0.13200253 0.13483025 -0.013474394 -0.040519774 -0.0831647 -0.032604355 -0.025492996 0.026327271 0.0047302437 -0.041268922 0.13216989 0.2713112 0.03313053 0.011710723 0.0543552 0.04587238 0.031848695 0.075483166 -0.13166942 -0.07593816 -0.041384105 0.059599467 0.07839035 -0.0153944595 0.024183746 0.08193222 0.04363015 0.03242379 0.16521432 0.11166439 0.10172332 -0.00069006585 -0.067772076 -0.049010083 0.026643485 0.08791975 0.026329244 -0.08016908 0.017007822 0.13538766 -0.03735794 0.023458852 0.02903962 -0.02069426 0.042279646 0.07026587 -0.10064616 -0.16337286 -0.027220681 0.06775682 0.06893487 0.007248978 0.068054736 0.101053245 0.04806037 0.07328478 0.105705574 0.17881587 0.112448454 0.005053549 0.024207715 0.0024844024 0.035914157 0.06755666 0.012209596 -0.045621168 0.02247778 0.02156567 0.030236458 0.0923409 -0.047501184 0.038110018 0.008248831 0.05242628 -0.06649835 -0.10008928 0.050523624 0.17216565 0.06950095 0.035823513 0.116965614 0.043817908 -0.026611025 0.06816785 0.13288614 0.18466786 0.109515555 0.050298084 0.044927422 -0.018560795 0.12928583 0.08567026 0.0039004493 -0.08919594 -0.10284984 0.0011316821 -0.1442244 -0.084253244 0.02056602 0.015805678 -0.03131146 -0.018672077 -0.004181187 0.01149792 0.039918106 0.08199474 0.055395108 0.100673236 0.05409331 0.017068285 0.0034951144 0.028194016 0.07814117 0.18512957 0.16794752 0.071612924 0.097840324 0.06850007 0.09628928 0.07891181 0.108947024 0.050584964 -0.08248486 -0.040649783 -0.15552332 -0.08148611 0.028205635 0.022680093 -0.06847522 0.014846809 0.002231608 0.072200224 0.01845133 0.043160602 0.037682086 0.06708531 0.053767424 0.063521214 0.06609557 0.009602014 0.106309235 0.14978132 0.15720935 0.19293605 0.087055966 -0.05787011 -0.0057439883 0.11845664 0.13854755 0.092088975 -0.109199576 -0.07790182 -0.050071657 -0.048781194 -0.014721895 0.010940029 -0.090339795 0.005388437 0.1091982 0.07757074 -0.05199504 -0.06731568 -0.041337933 -0.024436198 -0.01269176 0.030763721 -0.0016636637 -0.011914186 0.022072969 0.15181483 0.12953405 0.10278187 -0.031172395 -0.05763961 -0.025651839 -0.029512625 -0.03701812 -0.07699028 -0.22140966 -0.2360633 -0.18733801 -0.039722376 0.031623874 0.0357268 -0.014168859 0.028164616 0.06929006 0.09625254 -0.020337539 -0.15560067 -0.08210199 -0.02994852 -0.059178047 -0.11779341 -0.108510114 -0.05018372 0.08796443 0.100507654 0.06768708 -0.041105054 -0.16930969 -0.14487731 -0.0756838 -0.112158634 -0.16870989 -0.07983269 -0.111644186 -0.02241469 -0.10510897 -0.06364298 0.06568136 -0.000687062 -0.07415462 -0.038929462 0.060441714 0.009160865 -0.099038616 -0.18772763 -0.23374414 -0.23062229 -0.2139613 -0.23317695 -0.19218336 0.0014046928 0.047393735 0.013055695 -0.083344616 -0.2323566 -0.27978858 -0.21081021 -0.16374749 -0.20376804 -0.21608786 -0.14540516 -0.10714926 0.05922916 0.0647463 0.10778333 0.0011366957 0.0129275285 -0.036727842 -0.016240984 0.07105764 -0.094465286 -0.1762461 -0.2483054 -0.33804908 -0.30511013 -0.3048461 -0.2087109 -0.148036 0.028360032 0.06484708 -0.03302652 -0.09030008 -0.27447474 -0.30757847 -0.33398193 -0.18186378 -0.21124533 -0.24705623 -0.2801416 -0.10056039 0.062883854 0.02217121 0.10915634 -0.028528925 0.035800308 -0.027617736 -0.16993126 -0.100213714 -0.055801485 -0.16815531 -0.25121924 -0.26739633 -0.29540768 -0.20523992 -0.14334676 -0.044730294 0.04303262 -0.015607623 -0.051422425 -0.13485822 -0.26109278 -0.24449103 -0.27713647 -0.2515783 -0.19715567 -0.1798557 -0.22024238 -0.14988388 0.015030003 -0.0300913 -0.030792136 0.019357895 -0.021484539 -0.04451221 -0.20712855 -0.07200175 -0.05918337 -0.18076167 -0.14527062 -0.08605087 -0.05180251 -0.0429471 -0.042166855 0.03817532 -0.04482923 -0.094293855 -0.13442835 -0.16015087 -0.16140549 -0.11178412 -0.1887384 -0.21209383 -0.11588245 -0.17547682 -0.15809797 -0.059684567 0.022719795 -0.085998826 0.021291833 0.01815532 0.0065227677 -0.092094205 -0.05898458 -0.10547075 -0.15772913 -0.14599013 -0.052324146 0.0539549 0.038651478 0.13478991 0.011526839 -0.01343513 -0.10517073 -0.10257226 -0.067675605 -0.112884596 -0.07396011 -0.056344673 -0.06022811 -0.101705976 -0.061804727 -0.060184844 -0.083580814 -0.00829796 0.0045847464 0.054596636 -0.001674708 -0.01809786 -0.034905925 -0.1480454 -0.05013448 -0.15399203 -0.22186893 -0.14755313 0.015647748 0.053003155 0.13048314 0.1344619 0.051417377 0.004904962 -0.06288055 -0.028248986 -0.069364205 -0.067967445 -0.03658527 0.014917385 0.0019637013 -0.07821776 -0.0068526105 -0.037247453 0.07284775 0.03672154 -0.0066668517 0.1323064 0.01221624 -0.034018613 -0.012010111 -0.08334541 -0.13496731 -0.16328195 -0.085373126 -0.08548148 0.02121376 0.06658814 0.085930355 0.058096047 -0.016120965 -0.08059133 -0.025703266 -0.03920738 -0.106499255 -0.08552864 -0.038143557 -0.005304081 0.015859485 0.07387379 0.028641162 0.10174371 0.1384558 0.065928884 0.10284809 0.10404759 0.002759248 -0.023202702 0.024265185 0.035399675 0.043364294 0.033485398 -0.029807137 -0.16105178 -0.08193301 0.022864906 0.0015301493 -0.003916228 0.0490045 -0.011823184 -0.03733542 -0.016538007 -0.050696414 -0.054486517 -0.09852699 -0.042583898 -0.13014287 -0.013600306 0.027745925 0.05253171 0.06205022 0.018249292 0.03241274 -0.026446834 0.03407238 0.0029483438 -0.010691294 0.028967146 -0.0031014592 0.04274318 0.0047055916 0.051575616 0.05677432 0.039456423 0.19959413 0.14585137 0.047305357 0.04768761 0.04832506 0.074564695 0.15855806 0.038362183 -0.0022265601 -0.032026093 0.024890963 0.042838156 -0.006230716 0.030952293 -0.048786525 0.0068804794 0.0660509 0.023892302 -0.029747846 -0.00202474 0.027788293 0.030628216 0.018977892 0.07538298 0.15089202 0.02186143 -0.022383545 -0.051005375 0.023274269 0.16245979 0.003268004 0.010785254 0.0025889128 -0.11249077 -0.024899323 -0.035249237 0.04119358 -0.011886498 -0.042780366 0.022715189 0.10637911 0.054426212 -0.0057495837 -0.031750575 0.011779383 -0.020546455 -0.02171365
-0.00010769442 -0.015541142 0.03513218 -0.016083518 0.008983418 -0.008860014 0.02279092 -0.008244464 0.016355839 -0.029528722 0.016474448 0.026770364 0.03161229 -0.0018368624 -0.028654492 0.023949847 -0.025261935 0.03393228 0.016907282 0.028771412 -0.030978033 -0.02454378 -0.014666975 -0.014027059 0.015284963 -0.009715676 -0.019934928 0.006417647 0.024100643 0.0016561523 0.0003591515 -0.031127233 -0.017840344 0.027685422 0.024280218 -0.026565297 -0.012083985 -0.030992346 0.00027236188 0.014899939 -0.027388478 -0.04008922 -0.03662324 -0.020459747 0.015907064 -0.03220156 0.01942834 0.012705832 -0.02024993 0.025501493 0.01201921 -0.005204303 -0.02050287 0.02595048 0.035004657 -0.0041419566 0.017964076 0.013548203 -0.012525989 -0.0071003437 -0.008807255 -0.003923358 -0.028316705 -0.07449958 -0.05141669 -0.12056284 0.007744019 0.031977773 -0.023284327 -0.1653975 -0.1841281 -0.1408836 -0.056440175 0.0098410575 0.12574908 0.0896439 0.10993627 0.017476022 -0.014595155 0.025516104 0.0044532614 0.012690354 -0.0349011 -0.032367904 -0.016122192 -0.020705745 -0.0192708 0.002253011 0.034518234 0.09364665 0.09855093 0.0035615976 0.0037949686 -0.1737351 -0.07159217 -0.02765379 0.03725811 -0.07678542 -0.12642719 -0.11844707 -0.034408797 -0.08098215 -0.072081566 -0.14739227 -0.09689332 -0.020570919 -0.061681513 -0.0022820558 0.10445447 -0.0145576 0.022415353 0.0019246712 0.006178934 0.04230857 0.006834355 0.15642403 0.10555619 -0.038580433 -0.0068711927 -0.00026631518 -0.024128677 0.042150654 -0.0044119293 0.040815454 -0.05408451 -0.11621321 -0.013177821 0.0440967 0.0074284244 -0.009290483 0.013263739 -0.022157982 0.00030102837 0.062402334 0.044977486 0.0053570303 0.0070800656 0.15759814 0.04699931 0.0021122175 0.00463444 -0.0016163811 0.07380787 0.039040476 0.1070063 0.062081315 0.034557763 -0.030886507 -0.022407586 -0.043755215 0.041212007 0.028123336 0.03316133 0.04140096 -0.075402975 -0.041532513 0.023168895 0.04506406 -0.002859669 -0.01822973 0.008396699 -0.03104245 -0.05143596 0.016244195 -0.021542478 0.22280508 -0.03557292 0.01184831 -0.024771402 0.042640835 0.041515686 0.035812873 0.051358078 0.099429995 -0.0081772385 -0.03560437 0.014041509 0.023983508 0.07858786 0.010565012 0.0054466357 0.0073273974 -0.00415543 0.008705418 0.073518276 0.058935773 0.01880807 -0.091975205 -0.043751203 -0.029701391 -0.037309565 -0.022580087 0.068544626 0.16801316 0.067660496 -0.0147512555 0.0075931256 0.09113372 0.0824476 -0.022626227 0.025216889 0.07686887 0.06969953 0.0010782717 0.029912936 -0.030057563 -0.013421355 -0.05562359 -0.040351275 0.030244626 0.06626806 0.007955909 0.052846957 0.07998112 0.032337308 -0.027641168 0.03869001 0.0152025875 -0.08460277 -0.09683706 0.1466255 0.18714505 0.068644434 0.00991013 -0.031433262 -0.014332289 0.023449844 -0.0264071 -0.043106396 0.027303983 0.050986454 -0.049601723 0.06667775 0.03569711 -0.041373905 -0.06769727 -0.033107497 0.04435395 0.0532976 0.06296871 0.059766736 0.052452236 0.046426125 0.063225456 -0.020923987 0.034041356 0.011282342 -0.08923464 0.04047363 -0.00025669485 0.0023445468 0.039033074 -0.029860454 -0.05504247 0.07039186 0.008874724 -0.07145934 -0.07055638 0.018511394 0.050770253 0.11472541 0.07473292 0.051226944 0.039940905 0.0068622245 0.018760629 -0.022040578 0.010026645 -0.019573588 -0.006418333 -0.034544975 -0.12297556 -0.00827325 -0.02959004 0.07164734 -0.06023568 -0.1250663 0.010153873 -0.08767667 0.000473738 -0.037922587 -0.08614051 -0.051435288 0.07671818 -0.007980698 -0.024777008 0.01320362 0.013312463 0.12732965 0.037686195 0.002388125 -0.016762285 0.010066894 -0.094460465 -0.12971997 -0.12998751 -0.09270669 -0.049611095 -0.038153507 -0.119470894 0.018482376 0.005742467 0.010441468 -0.049006015 -0.0613657 0.06491325 -0.0023293186 -0.031050641 0.0031770207 -0.07030227 -0.17282796 -0.06803245 -0.028466932 0.053075414 0.077402785 0.05355851 0.16209239 0.03697366 -0.04254242 -0.07440358 -0.05282001 -0.101956405 -0.003271788 -0.0232901 0.036695432 0.032818776 -0.04856333 -0.045714255 0.054678906 0.0019790535 -0.00074209506 0.088932596 0.03303312 -0.008126762 0.103270985 -0.09865169 -0.0023427785 -0.06352234 -0.10447615 -0.26274258 -0.02455281 0.035295982 0.110481605 0.070867166 0.07832519 0.053921897 0.12562326 0.07032358 0.032707907 0.05227756 0.10699561 0.007178856 -0.04531087 -0.043978125 0.046518296 0.015551509 0.15658711 0.09547392 0.1178264 0.23854728 -0.08191979 -0.091202706 -0.0077608824 -0.07829548 -0.0075028623 -0.0147312805 -0.15600422 -0.22112331 -0.09131468 0.040107943 0.0371274 0.07294311 0.09341891 0.091958836 0.11795089 0.13350247 0.12615845 0.18937856 0.13440576 0.017151756 0.015688065 -0.008442648 -0.05117098 -0.028763944 0.0053771944 0.09791012 0.08176673 0.15598741 0.11580586 -0.093456395 -0.18820356 -0.10711252 -0.033391014 0.04049516 -0.120289244 -0.15149908 -0.15524806 -0.062612854 0.069442265 0.030805586 0.084022984 0.107350565 0.13945997 0.14111966 0.19363755 0.21942334 0.17792198 0.102408096 0.077802844 0.030127464 -0.05970853 -0.17541572 -0.066761635 0.023881761 0.06607198 0.10739128 0.105248846 -0.16233562 -0.13106179 -0.11290616 0.0042704875 0.06740124 0.042132832 -0.0906582 -0.24675009 -0.21716475 -0.11549594 -0.1319528 -0.06929871 0.06980222 0.23346439 0.24210235 0.24927334 0.22685643 0.13145925 0.06497421 0.028604005 0.052508906 0.026246754 -0.06834727 -0.039805964 0.027121315 0.01135868 0.11443001 0.11423489 -0.1843113 0.10491176 -0.06322908 -0.048396647 0.091046385 0.12112935 -0.061765794 -0.39045838 -0.4352511 -0.4033605 -0.31883705 -0.33543304 -0.16167206 -0.023177827 0.1281677 0.2330339 0.19468984 0.055670425 0.00886157 0.010756009 -0.005547754 0.023856223 -0.02332004 -0.11478128 -0.096616134 0.014981029 0.045738 0.17864992 -0.19549362 -0.12161641 -0.08204415 -0.028818348 0.093967654 0.12660588 -0.08844587 -0.3975419 -0.4195359 -0.40535456 -0.32113436 -0.41416356 -0.49043226 -0.39781055 -0.23448916 -0.14886256 -0.094998226 -0.13485117 0.009334735 -0.049928866 -0.027674785 -0.02204846 -0.03909416 -0.0555918 0.018359898 -0.041024126 0.013644453 0.026279561 -0.12640195 -0.071468346 -0.05394463 0.123708464 0.054487012 0.0762422 0.0017482454 -0.18295921 -0.31803524 -0.3435285 -0.35279903 -0.46395975 -0.55461633 -0.4877224 -0.49896383 -0.48930556 -0.3914887 -0.2669496 -0.0848913 3.4486544e-05 -0.025032476 -0.009465572 -0.010705484 0.019536164 0.015891492 -0.013297037 -0.037749 -0.04971214 -0.078251794 0.07154061 -0.01192113 -0.028284095 -0.10226881 0.06431218 0.18451907 -0.0042221635 -0.091826774 -0.09202183 -0.24461512 -0.3074994 -0.27852637 -0.27233982 -0.28727803 -0.37463695 -0.37478274 -0.18860099 -0.09342738 -0.014954339 -0.018228102 0.036545176 0.028303193 0.05136968 0.024649825 -0.10824036 -0.020135842 -0.02788727 0.07115299 -0.047389332 -0.00076764455 0.010747358 0.0928591 -0.0038749704 0.18843809 0.09056546 0.08449545 0.03678465 -0.040534098 0.012661143 0.0026012196 0.036347266 0.00077490474 -0.08182493 -0.036463827 0.0027495478 -0.015670657 0.0022047558 0.027228866 0.073350355 0.01844867 0.046623833 -0.045461524 -0.026891 -0.008435392 0.0023692928 0.0091273505 -0.014516009 0.032985713 -0.0058427677 0.09115713 0.04497977 0.106726736 0.218772 0.22102468 0.16039795 0.16614458 0.14129241 0.11686403 0.15121816 0.12587361 0.1504805 0.094211474 -0.014664106 -0.0028171467 -0.040414844 -0.059477847 0.056103814 0.05014627 0.049123183 -0.012751526 -0.13629128 -0.08027959 -0.07241469 -0.10729011 -0.0587475 0.0040428303 -0.01577099 0.06574841 -0.034439094 0.16350435 0.28718248 0.17180465 0.016302338 0.08315718 0.07023879 0.034687463 0.1700931 0.17754792 0.08101623 0.02244343 0.0013704953 -0.028333804 0.00090309343 0.009111344 0.015767844 0.0797386 0.06692427 -0.08450447 -0.110740796 -0.068391025 -0.13960962 -0.16607852 -0.061736345 -0.0035702623 -0.009819342 0.0114711 0.14127912 0.28002706 0.34622493 0.22496492 0.11701839 0.08138868 0.07509072 0.06086627 0.13838123 0.096280985 0.010699848 0.04372134 0.03298476 -0.069777176 -0.07265357 -0.038776748 0.0001680436 0.01241434 -0.014516667 -0.14869173 -0.25218475 -0.19573209 -0.022720061 -0.07372647 -0.012924212 -0.012904746 -0.01663294 0.029570129 0.05396422 0.25355798 0.34406555 0.2533301 0.23036915 0.14965002 0.09401523 0.108483024 0.1762674 0.09466623 0.04417656 0.06606427 0.010347108 -0.021387372 -0.1105997 -0.01430236 -0.114731304 -0.15384102 -0.024320405 0.005034467 -0.1300634 0.021235907 -0.021593481 -0.08594988 -0.0052706935 0.022549614 0.0243599 0.002583176 0.062314555 -0.077261284 0.056577466 0.22173992 0.2679833 0.24429841 0.1704645 0.11168502 0.06462306 0.030483149 0.07273964 0.1133629 -0.0348366 -0.07853021 -0.035363313 -0.06921034 -0.1702184 -0.08428929 0.01246658 0.18344344 0.10386849 0.23092838 0.20531939 -0.028415374 -0.01656231 0.013266601 -0.034725357 0.018318769 0.01799037 0.05284821 0.09926172 0.2089171 0.22194481 0.03956475 0.044076677 0.14521208 0.1922825 0.09933213 0.03642948 0.10369804 0.2230183 0.14424576 0.16966854 0.10516656 0.011685517 -0.058727425 0.10104242 0.105872765 0.060208898 0.059163097 0.011940048 -0.027492486 -0.018218838 -0.031368345 0.009113453 0.009607896 -0.004849242 0.010675669 -0.023500485 -0.005520423 -0.049019653 -0.07291645 -0.1175753 -0.020110216 0.004522018 0.13865213 0.045877013 -0.05025854 0.1660041 0.12649651 -0.054223843 -0.13246264 -0.0961217 0.02037883 0.018375937 -0.075495586 -0.08792943 0.024127357 0.0148945 -0.030413995 -0.032630164 -0.0032589734
-0.007987291 0.033642422 0.028074626 0.018163424 -0.03009692 0.00013232231 0.029961709 -0.02228811 -0.029878886 0.016511694 0.0014466457 0.005635403 0.093125485 0.11636389 -0.02402349 -0.003782964 0.002687756 -0.026095022 0.03225294 0.024061427 -0.006434109 0.033067252 0.010512076 -0.017699042 0.00087821484 -0.005415065 -0.0055228136 0.022745777 -0.004253261 -0.019931514 -0.023572296 -0.0008295104 -0.0022402902 0.045445308 0.028523486 -0.027142333 0.042561755 0.06646792 0.08197056 0.0011458993 -0.0029768413 -0.0025342605 0.037458804 0.042906582 -0.09164933 -0.05325602 0.20454572 0.08837928 0.104490586 0.16380951 0.084768265 0.060077418 -0.013515614 -0.02704357 0.012032334 0.020521674 -0.030920908 -0.024081912 0.071969055 -0.074416526 -0.028513594 0.0884708 0.051343653 0.076082274 0.056241974 0.062439445 0.23127839 0.24027449 0.17274836 0.17216004 0.31807473 0.39097553 0.1808686 0.13905916 0.109164365 0.14643107 0.09251408 0.11239061 0.11800542 0.051778093 0.021364853 0.008646736 -0.011607451 -0.0012939237 0.01463788 -0.012811674 -0.02855031 -0.10273495 -0.04589556 0.06089343 0.12239474 0.12578027 0.03743627 0.07614935 0.0016708951 0.049266957 0.07027306 0.058568485 0.07940342 0.1138256 0.12173001 0.006598026 0.010317526 0.060975384 -0.055970367 0.039758276 0.012448006 0.06750022 0.04092817 -0.056040026 0.009351995 -0.016930666 0.026185926 -0.00911283 0.025588423 0.020153707 0.19965853 0.124957025 0.080676615 0.033692863 0.13899173 0.056967672 -0.0029709854 0.022336004 0.062043108 -0.01280933 0.006881799 -0.016671903 -0.045543272 -0.01829292 -0.051759966 -0.019405166 -0.0050964346 -0.021082964 -0.038869843 -0.107299715 -0.0790795 -0.055161767 0.023306401 0.04094009 -0.010967664 0.03396755 0.10190876 -0.050965883 0.1595369 0.11756323 0.11755353 0.14168285 0.071982406 0.051939644 -0.06354616 -0.028931003 0.1030418 0.033500344 0.06071769 0.023868792 -0.042115595 -0.0791136 -0.099384606 -0.07053049 -0.09257829 -0.061950263 -0.15593983 -0.057784315 -0.052079864 -0.005951622 0.0706207 0.046120573 -0.018633299 0.01302428 -0.044603113 0.13255699 0.123231746 -0.03300882 0.029309077 0.045197092 0.051452592 0.08598989 -0.028346308 0.06185988 0.07591917 0.07016155 0.01834241 0.08256517 0.054840133 0.013020991 -0.022862649 -0.03102305 -0.06342047 -0.074137464 -0.12851015 -0.011763979 0.014360812 -0.018015673 0.025592517 0.15247017 0.041276198 0.007277898 0.028301693 0.13132043 0.063710414 -0.072012834 -0.043646213 -0.063365735 0.0015151242 0.038273018 0.03923233 -0.0027404558 0.05839395 0.02276549 0.023963366 0.06953577 -0.009406174 0.0052343057 -0.029112466 -0.024771975 -0.07197372 -0.025726605 0.010306638 -0.018188283 -0.017924272 0.035506085 0.14170502 0.06462196 -0.0198685 0.08792614 0.04092249 0.12138051 0.11426478 0.01951663 -0.0004985908 0.036952592 0.03372339 0.058639064 0.012616436 0.04624107 -0.017354561 0.0060393144 0.018920833 -0.020976692 -0.12240848 -0.09316922 -0.0036607238 -0.022957198 -0.06786531 -0.009376368 0.030471236 -0.035248246 -0.03913235 -0.007950405 0.14531268 0.08122815 0.0071190363 0.092951804 -0.014585638 0.12810314 0.03398325 0.01549532 0.039323818 0.0491557 0.08906437 0.038054697 0.024978334 -0.038621124 -0.025454953 -0.036350258 -0.0028699243 -0.07574005 -0.09227676 -0.11146275 -0.031175125 0.0019146048 0.03131842 0.050362162 0.06848456 0.0117475 -0.115201145 -0.08376092 0.02147111 -0.030449549 0.05105259 0.052650165 -0.024956765 0.060951672 -0.0008122927 0.037190486 0.015807215 0.085382864 0.052149355 0.027502554 0.025815018 -0.06280693 -0.03135586 -0.11613746 -0.07504754 -0.08042605 -0.07604811 -0.12983035 -0.050931066 -0.0013208415 0.008337593 -0.024952065 0.013310005 0.008147756 -0.097791515 -0.11673527 -0.09116623 0.01001403 0.0074231005 -0.03558705 0.08267223 0.16984418 0.08271589 0.109255165 0.03851071 0.104794845 0.0998048 0.09250387 0.015944932 -0.0457411 -0.086294785 -0.071729146 -0.003895247 -0.008374606 -0.017646816 -0.04642794 0.040505838 0.03307437 0.060909793 0.001666526 0.03879023 0.052930452 0.032664157 -0.015760818 0.010640663 0.12318904 -0.008044759 0.056649253 0.10423058 0.13562296 0.09517667 0.08514018 0.0066483514 0.09723519 0.036943637 -0.012516614 -0.06503875 -0.09374566 -0.09862712 -0.034424823 0.036599215 0.08104729 0.09847901 0.02763223 0.031142427 0.050381623 -0.016055614 0.031385772 0.030599281 0.12811936 0.0999712 0.049523484 -0.057855424 0.11619831 -0.059907053 0.040634286 0.06378034 0.051766295 0.0016009468 0.07892637 0.004931435 0.008348341 0.011616618 -0.013760325 -0.07182757 -0.039949596 -0.023827514 0.077353366 0.1118929 0.22587 0.1874055 0.040499665 0.04830392 0.07030222 0.10786141 0.044951256 0.068686485 0.096187055 0.04892165 0.05852619 -0.035659865 0.07624977 -0.029198792 0.051282853 -0.051793046 0.14370078 -0.021130985 -0.013812288 -0.022993393 -0.043219373 -0.014285641 -0.042959247 0.00357691 0.03036472 0.028961834 0.11805239 0.20134045 0.1875067 0.1344417 0.090311155 0.08269782 0.09340494 0.02891128 0.05954576 0.081131816 -0.0019646175 -0.06466799 0.05275881 0.07724154 0.039327264 -0.024608694 -0.025335616 -0.09648521 0.11100751 -0.13307081 -0.073369764 -0.045325555 -0.069781266 -0.011252881 -0.004340863 -0.008839734 0.042939942 0.062333368 0.0875893 0.21026623 0.15945244 0.1203861 0.1250342 0.037903517 0.04842989 0.05931627 0.052249927 0.1291866 0.0296089 -0.12516955 0.0006245279 0.081091724 0.10097301 0.016826168 -0.017369417 -0.016066208 0.0021901447 -0.053725146 -0.050734136 -0.00066492986 0.004745935 0.026055964 -0.025550852 0.013987778 -0.0075108656 -0.020062584 0.029141974 0.11413735 0.1475625 0.10554146 0.06645076 0.040673472 0.0048782867 0.025136068 0.019366702 0.03726828 0.04690565 -0.0030993843 0.07683276 0.09726258 0.032782406 -0.030031607 0.012653795 0.07328764 -0.09224564 -0.1099048 -0.11621311 -0.044992708 0.041607615 0.037141196 -0.03201917 -0.043993104 -0.06880944 -0.11248963 -0.012642234 0.07101029 0.14221527 0.13008827 0.041922584 0.0603618 -0.02165904 -0.03543026 0.04714935 -0.0042834175 0.051621363 0.005227427 0.07766423 0.13051696 -0.018835207 0.055733893 0.06993765 0.0798396 -0.0362647 -0.101785965 -0.09710126 -0.03794146 0.04234941 -0.062205754 -0.08838315 -0.07373765 -0.12481749 -0.12020585 -0.012459827 0.045521233 0.052788112 0.11450939 0.06312339 0.0068047387 -0.004563065 -0.035016283 0.014324574 0.0014819303 0.0063966583 -0.0025853447 0.11490117 0.18096568 0.12635076 -0.033300377 -0.042752318 -0.008948191 -0.08030631 -0.10196585 -0.08018435 -0.11586847 -0.038169645 -0.023931898 0.0011303354 -0.013368184 -0.09687059 -0.114319496 -0.021757232 0.054496005 0.054216824 0.08852363 0.028228197 -0.00053844386 -0.0346371 -0.016959706 -0.020689907 -0.003837871 0.021571215 -0.001772075 0.10944795 0.042413548 0.058721267 -0.011842724 0.015866319 -0.050934426 -0.0993192 -0.023528125 -0.10854617 -0.13097258 -0.024890091 -0.051769055 -0.03260394 -0.011924466 -0.060969505 -0.035572637 -0.02752508 0.016597705 0.04321468 -0.03319186 -0.045269836 -0.00981859 -0.01755833 -0.024753321 -0.011663277 0.0010120118 -0.06294065 0.018054055 -0.045579176 -0.04792338 -0.0026709032 -0.0222406 0.063306004 -0.042416908 0.076981194 0.033157203 0.008561347 -0.03244099 -0.021304373 0.048090983 0.07068267 0.012234515 -0.029063951 0.014652378 0.010178798 0.040566348 -0.010284643 -0.08178575 -0.036586013 -0.048652768 -0.029685173 -0.045355767 -0.036512148 -0.03343882 -0.031546056 -0.021946823 -0.107308485 -0.1675791 0.011463637 -0.070770025 0.037070222 -0.02097119 -0.026500406 0.1035122 0.060534198 -0.010193401 0.037598245 0.018987259 -0.0012645512 0.017062703 -0.0077104 -0.044298716 -0.078975 -0.07778348 -0.061600655 -0.14203747 -0.09701004 -0.072524615 -0.059179988 -0.050651416 -0.010564719 -0.077475294 -0.12070245 0.032574616 -0.09016892 -0.18065885 -0.020189347 0.017713811 -0.005523894 -0.12841097 -0.046727654 0.032830518 0.025454368 0.05126585 0.04647011 -0.015415512 -0.026572203 -0.045909956 -0.097779155 -0.043714132 -0.056166016 -0.092713706 -0.10555816 -0.118790515 -0.0795355 -0.023141 0.038901478 0.03726216 0.030098239 -0.05542333 -0.058038794 -0.035336204 -0.06296747 -0.10279467 -0.033949308 0.008508258 0.025522456 0.030670712 0.0044677327 0.05291791 0.12915708 0.16166568 0.059815962 -0.041042753 -0.014564336 0.04886365 0.05067693 -0.06037323 -0.09514185 -0.051264316 -0.081703104 -0.1037116 -0.08526256 -0.053508278 -0.0004075984 0.08137626 -0.022542715 -0.09267189 -0.045647927 -0.09297906 -0.078364015 -0.06325097 0.015540559 -0.023856789 -0.00660849 -0.055655707 0.039071675 0.067351535 0.14195241 0.08378073 0.010655726 0.07542996 0.07179644 0.09616145 0.107349046 0.10391249 0.023636345 0.1547676 0.025366843 -0.03759211 -0.03690613 0.0010906382 -0.06510724 -0.0002272346 -0.0439563 -0.071329534 -0.09478061 -0.09069566 -0.03347372 -0.070088774 -0.010557018 -0.01333631 0.012957681 0.0036835298 0.03634956 -0.059419688 -0.0035422496 -0.032967176 0.08399067 0.15982005 0.20703456 0.117442176 0.092333496 0.02224548 0.11922237 0.17034307 0.04604857 -0.035121635 0.040246915 0.08031003 -0.023952065 0.008601544 0.057149883 0.06367377 0.11312665 0.046449214 0.056368824 -0.033176225 -0.025043625 0.026689332 0.004779186 -0.013437271 0.0118683465 0.0255217 0.1008397 0.08930499 0.09996226 0.09681131 0.035584807 0.032354683 -0.03187784 -0.060959034 -0.0037007304 0.06635621 0.11516579 0.08815822 0.1468669 0.1503975 0.19092783 0.1605611 0.17889951 0.078756414 0.016637208 0.01043332 0.014480248 -0.0095365215 -0.014856067
-0.031876575 -0.025140435 0.023511045 -0.023027383 -0.013749225 -0.005636083 0.02331774 -0.021311395 0.027786348 0.02626276 -0.026537478 0.013888326 0.053511363 0.036405634 -0.011565913 -0.019295255 0.015204433 0.014970858 -0.029317474 0.029924821 -0.009296805 0.018859897 0.021264989 -0.0010097064 -0.026962051 0.031047363 0.020349067 -0.009295924 -0.0011481047 0.03270254 -0.019125547 -0.0049877856 0.028862722 0.034168974 0.07643615 0.088288546 0.10931842 0.08747145 0.1023078 0.061350893 0.08355303 0.08591778 -0.018874856 -0.048230074 0.0050819553 0.016732829 0.1049316 0.13022868 0.14807256 0.14061037 0.08702408 0.10437108 0.0050318427 -0.007821139 0.033557694 -0.018019775 0.03498329 0.0044293776 0.048052568 -0.116438024 -0.041319646 0.08080218 0.07304558 0.15042442 0.20112817 0.278253 0.28058583 0.31125423 0.16860944 0.09782351 0.16735496 0.13368215 0.033429224 0.0612588 0.0723039 -0.008025533 0.09786176 0.17886305 0.11339828 0.08210185 0.094561584 0.05279784 0.010091975 0.023755416 0.011471853 -0.00842048 -0.10584167 -0.101278685 -0.06115843 0.074885815 0.13173698 0.13753337 0.047905512 0.13772368 0.107462205 0.16296583 0.08058792 0.0350654 0.062465467 0.008230359 0.03584094 0.01686729 -0.018625515 -0.07497715 -0.13722216 0.0022145621 0.091504745 0.1135191 0.062465157 -0.058656316 -0.017752843 -0.00016388297 0.029603984 -0.012677221 -0.11331941 -0.17150822 -0.03388204 0.12242733 0.0971312 0.12848663 0.11395461 0.122980915 0.14087091 0.061994273 0.051262714 0.042805552 0.039033208 -0.040048312 0.022653984 0.014096689 -0.020904541 -0.024199171 -0.063356794 -0.053552933 -0.018671628 -0.039568994 -0.11215372 -0.11288723 0.04796263 0.09249311 -0.024493217 -0.019784434 0.008582747 -0.037895624 0.05723374 -0.116957664 -0.0018900847 0.0076965624 0.06651968 -0.0007466292 0.037734114 0.03965847 0.10386002 0.030486202 0.07477698 0.047168884 0.07644823 0.026073629 0.017800331 0.030950492 0.05173027 0.046886686 0.010215462 -0.0037882887 -0.010736624 -0.026857486 0.08448195 0.04435431 -0.0307305 0.030709743 -0.07817369 -0.050793692 0.032334693 -0.08250428 -0.016873363 -0.011981189 -0.0004830201 -0.00015514843 0.011003061 0.04206802 0.009131153 0.032854445 -0.013290143 0.01993642 -0.034403663 -0.028144997 0.012619051 0.0036228688 -0.029129416 -0.009530172 -0.025400182 -0.03385422 -0.05575127 0.0398093 -0.04004153 0.054024763 0.017901577 0.0060622157 -0.035862073 -0.021913731 0.08599327 0.00785199 -0.065957345 -0.07297727 0.016948028 -0.025268052 -0.023777064 -0.0014308181 -0.009881305 0.00376364 -0.041893255 -0.0048195804 -0.060360204 -0.093750075 -0.028697 -0.0322652 -0.03976434 0.03908176 0.05273287 -0.074690826 -0.06968737 -0.028392317 0.013920633 0.05655213 -0.05060076 -0.06825247 -0.12035494 0.037897587 0.1059627 -0.008762243 -0.036420215 -0.018238112 -0.03492341 -0.06339621 -0.007010677 -0.0353273 -0.031971842 0.011227209 -0.06957644 -0.04957633 -0.082919165 -0.07319818 -0.0720867 0.022919146 -0.01423021 -0.023934484 -0.01640811 -0.06464411 -0.112541676 -0.11851751 0.032919366 0.015450277 -0.028304443 -0.12766321 0.037857022 0.08444364 0.024454601 -0.011870904 -0.059283942 -0.0065578157 -0.06689336 -0.1024178 -0.07844956 -0.08969247 -0.013457059 0.023851307 -0.051840022 -0.038426246 -0.06241804 -0.07820274 -0.032902107 -0.0073711146 0.029841917 -0.008423798 0.010116167 -0.06363844 -0.16726713 -0.18780118 -0.16084577 -0.09608084 -0.011216478 -0.093598254 -0.05960592 0.008474337 0.010864242 0.043901768 0.04245257 0.015205791 -0.0898042 -0.11045064 -0.048071016 -0.009989279 0.005261147 -0.046689164 -0.09137052 -0.141432 -0.14211081 -0.048284717 -0.04260468 -0.03752072 -0.019592758 -0.020288402 -0.058242623 -0.029081637 -0.16071504 -0.18515058 -0.1913496 -0.1309266 -0.07010086 -0.096052185 -0.12031254 -0.016478702 -0.04121995 0.11429987 0.050677665 0.024300283 -0.0027150312 0.02524961 0.013318077 0.013995011 0.035156503 -0.07482536 -0.14501074 -0.1339416 -0.074748516 -0.07755946 -0.05130596 -0.0021708235 -0.01275388 0.014313971 -0.039287787 -0.034597624 -0.09936714 -0.08458554 -0.12644958 -0.12221114 -0.04716285 -0.06101373 -0.063176714 0.0057343184 0.016935539 0.028485792 -0.02043675 0.023031235 -0.0017296696 0.025057869 -0.03267197 -0.016169474 -0.018972576 -0.05430091 -0.13107303 -0.082489856 0.017364103 0.011610637 -0.07924347 -0.028349977 -0.0065279463 0.057834387 0.015719976 0.04514862 0.13296592 -0.006605714 -0.14586109 -0.07916651 0.037036143 -0.036205765 -0.06751878 0.014092148 -0.013246548 0.06097597 0.028494837 -0.036595035 0.008435389 0.043445215 -0.0057552224 -0.030898143 -0.014309788 0.027785484 0.04785102 0.10941911 0.0449849 0.052272018 0.07497672 0.07142342 0.04246467 0.063125096 0.041529223 0.123168096 0.07156263 0.028598208 0.07634999 0.092867956 -9.8100136e-05 -0.040317245 -0.14371093 0.012290789 0.014166517 0.0060274513 0.022941161 0.021390228 0.053223215 0.045699917 0.018641181 0.11790934 0.06322326 0.10868382 0.08823437 0.049258355 0.09770957 0.026800185 0.097601496 0.10194308 0.056638412 0.010000021 0.07335952 -0.031128347 -0.095764935 0.20891048 0.17295295 0.07052535 -0.031890348 -0.037579395 -0.049471956 0.051100332 -0.027044823 -0.027041782 0.015176036 0.0410573 0.0682379 0.08112141 0.055860475 0.08309745 0.052659933 0.11957546 0.17017548 0.070570655 0.11463627 0.026977079 0.0012831695 0.06053051 0.018762827 0.0034777687 0.029518321 -0.12317952 -0.06884704 0.19189782 0.16999885 0.15324892 0.017926339 -0.019915037 -0.03540683 0.03221027 -0.022569682 0.013505065 0.05859834 0.055605084 0.063193016 0.07487515 0.07688419 0.116674535 0.10057704 0.04218208 0.15830523 0.06524337 0.061952427 0.07241752 0.03323232 0.030563168 -0.040872227 0.008382494 -0.030587634 -0.055761017 -0.01195144 0.32487243 0.1812093 0.07762231 0.011280116 -0.0737882 0.039559193 -0.011229816 -0.019697662 0.013034707 -0.022142427 0.03515913 0.09977761 0.027900973 0.049656067 0.049751777 0.026685903 0.0817767 0.07793968 0.00395895 0.041685693 0.034888886 0.036700863 0.074722886 -0.041962855 -0.0020307463 -0.043416854 -0.017105466 -0.08497925 0.24781425 0.052225318 -0.0660325 -0.048693556 -0.020970788 -0.015852472 0.06315817 0.019154837 -0.03212085 0.0062857615 0.071062334 0.01513054 -0.011447664 -0.051618014 -0.09482893 0.06752923 0.100395836 0.08570543 0.01548578 0.031452104 0.03619982 0.012959408 0.02952058 -0.05814849 0.017635759 -0.05830404 0.053900927 0.023406213 0.15269685 -0.0021933133 0.15878786 -0.0009240538 -0.10410298 -0.14810793 -0.08331892 0.05385551 -0.02077221 -0.010735208 0.04285139 0.008055108 -0.0065541137 -0.0014020099 0.008968132 0.039723225 0.056969263 0.091152884 0.032672342 0.025937153 0.034297816 0.04668185 -0.008652189 -0.029289614 0.020589266 0.10373566 0.1325627 -0.04851229 -0.013466984 0.13877359 0.060006313 0.005699359 -0.10142154 0.032297015 0.05985599 0.07507645 -0.0071497876 -0.011503282 0.07213889 -0.047644883 0.010953354 0.005618267 -0.009097932 0.07006374 0.03512872 0.052669913 0.083853476 0.043549996 0.013279311 0.022678396 0.006799042 0.08267075 0.09491525 0.09210921 0.1186005 -0.016113376 -0.052211657 0.09282959 -0.051897608 0.011101164 0.08362959 0.08633403 0.072720975 0.0043642344 -0.06337812 0.008378612 0.0676154 0.008508866 0.061998185 0.0010233647 0.078352645 0.0136537505 0.054922283 0.1153853 -0.005769268 0.021537984 0.04719161 0.059215855 0.04157004 -0.02450767 -0.002447951 0.08487282 0.16754194 -0.040757407 -0.04570437 -0.07084517 -0.019828206 -0.020606468 0.059439737 0.036236916 0.06922946 -0.015713688 -0.025261747 0.04217234 0.09328981 0.07468761 0.07127481 0.1137496 0.08416478 0.026013052 0.025005456 -0.03162696 0.026225707 -0.039559096 0.021904733 -0.005967283 0.02556331 0.06262308 0.06703364 0.08278926 0.099741146 0.01571022 -0.02544385 -0.08762366 0.008330926 0.008994877 -0.0012027062 -0.003567263 0.009253871 -0.087417185 -0.14054182 -0.052018594 0.03323978 0.10765098 0.030515758 -0.008055717 -0.0155401835 0.032456577 0.03130344 -0.03384252 -0.029135589 -0.0273312 0.03505649 0.068400934 0.11830909 0.09417646 0.13640824 0.17677096 0.08706189 -0.070501104 -0.04597716 -0.167039 0.0008098297 0.012598354 0.014990896 -0.09771491 -0.15224452 -0.25319412 -0.30080312 -0.16201782 -0.12227155 -0.05986415 -0.03558536 -0.08573128 -0.026130399 -0.029923001 -0.04470507 -0.068968035 0.008057381 0.053937435 -0.046955712 0.047819953 0.07479718 0.02345684 0.07608035 0.06467654 0.06240922 0.038514547 0.07315465 0.0072472366 0.01818131 0.024450555 -0.027434729 0.071628325 -0.12639017 -0.1634909 -0.15080424 -0.124899834 -0.14696278 -0.1950043 -0.25511155 -0.18445918 -0.14999229 -0.180664 -0.041793536 -0.022098849 -0.014410071 -0.044009697 0.03294584 -0.012672855 -0.09358653 -0.026099792 -0.04451961 -0.06910419 -0.11097448 -0.19471426 0.036733404 0.041829452 0.0030739717 -0.00048897415 0.026194181 -0.0012268536 -0.02312501 0.15998507 0.11698285 0.09376189 -0.07132285 -0.009394465 -0.19908272 -0.16645135 -0.034365747 0.088082455 0.0017056831 0.020554872 -0.07236062 -0.10305708 -0.108287744 -0.06268735 -0.16496053 -0.123599775 -0.03665189 -0.06446961 0.04248488 0.024500703 -0.09311042 -0.0014085844 0.0136057325 0.010467134 -0.033852205 -0.014238741 -0.008573273 -0.09230749 -0.13137147 0.04298173 -0.018303461 -0.00896193 0.022829348 -0.13420989 0.02379141 0.06658635 0.03579063 0.005232798 -0.030511908 -0.05327585 -0.02881892 0.023201905 0.075897805 0.09613373 0.04946169 -0.05705183 -0.10969104 0.023183703 0.034335855 0.025659967 0.003885068
