-2
-3
1
-15
-3
1
-5
-3
-9
-2
-1
-13
-15
-8
1
-5
-1
-10
-12
-5
-15
-2
-8
0
-12
-2
-10
0
-3
-6
2
-8
-14
-1
1
-4
-14
-2
-8
-10
0
-10
-4
-3
-5
2
-7
-3
0
-5
-10
0
3
-3
-15
1
-12
-6
-10
-9
0
-4
-7
-9
-6
-3
-9
-7
-3
0
2
-14
-4
-10
-1
-15
-13
2
-2
-14
-9
-5
3
-10
0
-10
0
-7
-13
-2
-7
-5
-11
-1
-2
1
1
-6
-11
-8
3
-1
-1
-2
-13
-13
-11
0
2
-3
-11
1
-6
-11
-4
1
-2
-10
-13
0
-10
-12
-11
0
-3
-14
-15
-14
-10
1
-15
-13
-15
-11
-2
0
-11
-10
-5
-9
-4
-7
2
-10
-7
-1
-10
-15
-12
3
0
0
3
-4
-13
-13
1
0
-7
0
-4
-10
-12
-10
-11
2
-7
-9
-15
-1
-6
-13
-5
1
-7
-6
-15
1
-3
-3
-9
-4
-11
-3
3
0
2
-15
-12
-5
1
-8
-13
0
0
1
-15
4
7
3
-1
-12
0
-10
-3
-11
-8
-2
0
3
-11
-3
-14
-14
-8
-13
0
-10
0
0
-13
0
-7
2
3
2
-6
0
-1
3
-3
1
-1
-11
-9
-12
-3
0
-15
-2
-6
1
-3
0
-6
2
-15
-7
-7
-9
-12
0
-4
-8
-10
-4
-13
0
0
0
-9
-3
0
0
-6
-10
-5
-2
-13
-3
-14
-6
-3
-1
-3
2
0
-14
-9
-2
2
-9
1
-3
-11
-14
-4
-9
-5
2
-7
-5
-5
-11
2
-8
-7
-12
-14
0
1
3
-2
-9
-4
-5
-11
0
-13
-6
-2
-12
-7
3
0
2
-1
1
-14
-9
3
0
2
-14
1
-3
3
-9
-5
0
-14
0
-2
-4
0
-12
3
-2
-14
-8
-14
-15
-3
0
-11
-2
-7
-11
1
3
-2
9
3
-8
-13
-14
-11
-6
-4
-2
-10
-11
-4
-8
-4
0
-13
-12
1
0
3
-14
-11
-6
-12
7
4
9
2
-8
0
-1
2
-2
-12
-14
-3
1
-2
-1
3
-2
1
1
1
-12
-11
-10
-2
-10
-12
-2
1
0
-8
-5
-15
-4
0
-5
-9
1
-14
-2
-10
-4
-13
-3
-4
-15
-11
-8
-8
2
-1
-4
-14
0
-6
-15
0
-14
-10
-9
-7
-3
-1
-13
-12
-12
-7
-2
-3
-14
-8
-1
-1
-5
1
-11
-13
-15
-3
-1
-9
-8
0
2
0
-11
-1
0
1
-7
-6
-2
-3
-12
-2
3
0
-15
-9
-4
-14
-4
-12
2
-9
-2
-2
-9
1
2
-5
-3
-10
-12
-8
-5
-6
-4
-12
-11
-1
-8
-15
1
-15
-13
-12
1
-5
-12
1
-12
-14
0
3
0
-3
-12
-8
-1
0
-3
3
-7
0
0
-12
0
-3
0
-12
-14
-5
-9
-5
3
-11
-9
-2
-12
-9
-3
-2
-8
-15
-14
-12
2
3
-11
-8
-4
-15
-12
-9
-2
-5
-8
0
1
5
1
-12
-7
-7
2
-14
-11
0
-4
-15
-9
-1
2
1
-6
-7
-14
-13
-13
0
-8
-3
-1
-5
2
-14
-4
0
-15
-14
-10
-5
-6
1
0
-11
-10
-8
1
-7
-6
1
-8
0
-7
2
1
-2
0
-15
-2
-8
-1
2
-4
-1
-15
-4
-13
-8
1
2
-2
-13
-13
-10
2
-12
-11
-2
-10
2
-6
-3
-10
0
1
-12
-8
2
-14
-10
0
-9
-4
-8
-1
-5
0
-15
-9
0
-13
-6
-13
2
-6
-3
-10
-10
-11
1
2
-5
-4
-5
-2
-13
2
-15
-11
-8
-11
-7
-6
-12
-12
-4
-2
2
0
-9
2
3
-1
-8
-3
-15
0
0
1
3
-9
-9
-1
-8
-5
-7
-15
-7
0
-6
2
-14
-3
-6
-5
-11
-7
-13
-15
1
-6
-13
-2
0
-3
3
-9
1
-12
-12
-10
1
-5
-8
-9
-13
-8
-3
-6
0
1
1
0
-11
-12
-11
-4
1
-6
-7
-7
-4
-6
-9
-7
-9
-12
-13
-12
-13
-11
-5
-9
-10
-8
-15
-9
-7
-8
0
-11
-9
-3
-3
-12
-1
0
-12
-14
-3
-12
2
-7
-6
-3
-10
-6
-8
-13
3
-15
-10
-9
1
-6
0
-8
-5
-5
-12
-10
-4
-8
-15
-9
-6
-1
-4
0
1
-7
-13
-5
-11
-4
-3
0
-6
-7
-14
-6
-4
2
0
-8
-4
-3
-5
-14
-9
-6
-5
0
0
-6
-14
-4
-5
0
-15
-1
-10
0
-8
-3
0
-6
-4
1
-4
-9
1
-14
-8
3
-9
-11
-2
-11
1
-6
2
-4
-9
-13
-14
3
-8
-9
-1
-4
-7
-3
-7
2
-2
-6
-10
-11
-13
-15
-11
-9
-5
-15
3
-2
-1
2
-10
-13
-10
-14
2
2
-5
-2
-13
-5
-13
-15
-9
-5
-3
-2
3
-6
-1
-3
2
-7
-4
-15
-6
0
-15
-15
0
0
-4
-4
-14
-15
-14
0
-3
-1
-5
1
-13
-3
-3
-14
-5
-11
-4
-7
-14
-6
-1
-4
-5
-11
-12
-4
-14
-3
-11
-7
-4
2
3
-2
-9
-2
-1
-2
0
-9
-6
-4
-12
-4
-8
-10
-11
-4
-10
-14
-3
-10
-9
-13
-6
0
0
0
3
0
0
-12
-15
-3
-9
-2
-14
-3
-4
-10
-5
-1
-11
-10
-13
-12
-4
-3
-15
-8
-14
-1
-10
-9
2
1
1
-14
-11
1
-5
-5
0
-9
-2
-9
-6
-5
-1
-6
-6
-9
-1
0
-8
-14
-5
-1
-15
-1
-9
-10
-1
-12
-4
-11
-1
-6
0
-7
-7
-10
-14
-11
-13
-7
2
-4
-6
3
-3
-1
-13
-9
-13
-5
-6
0
0
-6
-13
3
0
3
-6
-8
-7
-2
-12
-14
-11
-1
-10
-8
3
-15
-15
-9
1
-1
-15
1
-3
-11
-11
-14
-14
-11
-15
-2
1
-15
-8
-15
-12
-1
0
-10
1
-4
-9
-6
-2
-1
3
2
-12
-12
-14
3
-6
2
-11
-9
-3
-3
0
-12
2
-7
-13
-9
-2
-13
-2
1
-5
-11
-2
0
-11
0
-3
-7
-6
-10
-9
-3
-8
-2
-13
-9
-2
-4
-4
-14
2
3
-9
-5
-14
-5
-5
-1
0
3
-14
-5
-5
2
0
-5
-10
-14
-7
-13
-14
-3
-10
-4
-1
-14
-3
-8
0
3
-10
-3
-13
-10
-1
-4
-3
-8
-10
-2
-7
-5
-4
2
-6
-12
-3
-8
1
0
-3
-11
-7
0
-12
0
-4
-8
-15
-12
-4
-5
-11
-13
-9
-7
-1
-13
0
3
-15
-11
-3
-9
0
-2
0
-8
-7
-10
0
-8
0
-10
-5
0
-3
-3
-11
-12
-13
-4
-1
-8
3
-4
-12
-7
-4
-4
-4
0
-2
-7
-2
-13
-2
-2
-6
-2
-15
-6
-15
-10
-15
-7
-1
-4
-11
-15
-14
-10
-9
-13
2
-11
-1
3
1
1
-14
-10
-7
3
0
-7
-7
-2
-2
-4
-8
-2
0
3
-15
-8
-15
-10
-4
-11
-1
2
-6
-10
-2
-7
-3
-7
-15
-6
-2
-13
-13
1
1
-7
-1
-1
0
-13
-6
2
-10
-6
-9
-3
-12
-4
-6
2
0
-8
-5
-14
-11
-12
2
-15
-1
-8
-15
-4
-2
-6
-6
-1
-8
-13
-12
-2
-4
-5
-6
-9
-2
-8
-4
-10
-10
0
0
2
2
1
-4
-14
-8
-9
0
-4
-13
1
-13
3
-1
-11
2
-6
0
-3
-14
-11
-11
-15
0
-7
-10
-8
-6
-13
0
-4
-2
-10
-14
-9
-15
-7
-1
-4
0
3
-14
-4
-3
3
-5
-8
-15
-3
-8
-9
-9
-1
-13
-12
-13
-3
-14
-10
1
-2
-2
-8
-2
-13
2
3
-11
-4
-13
-14
-7
-7
-8
-3
-11
-4
-10
-7
-2
2
2
-6
-2
2
-8
0
-13
1
3
-1
0
-5
2
1
-7
-13
-13
-12
-10
-10
-4
-6
-1
-8
-7
-15
-6
0
-5
-1
2
-9
-14
-12
-15
-9
-10
0
-15
-11
3
0
-8
-8
-2
3
-9
-5
-3
-6
-10
-14
-10
-14
-6
-11
-14
-3
-14
-15
-5
1
-9
-3
0
-5
-12
-13
-5
-9
-12
-13
-9
-6
-4
0
2
-1
0
0
-1
2
-5
1
-13
0
-7
-1
-1
1
-10
-7
0
-8
3
0
0
-9
-9
-2
-12
2
-6
-4
-4
-11
1
1
-9
-14
0
-7
-3
3
0
-8
0
-3
-5
-13
-3
-3
-12
-3
-12
-11
-12
-12
-7
-4
-11
-11
-9
0
-15
-4
-2
1
-5
1
-10
-2
-9
-4
-9
-15
0
-12
3
-4
-10
-13
-3
-11
0
-3
-9
-8
-2
-14
0
-6
-5
-3
-1
-4
-1
0
-6
-8
-1
-11
-7
-10
-5
-15
0
-8
-2
1
-12
0
-1
-9
-5
-7
-1
-12
1
-2
-11
-7
-4
-14
-12
2
1
0
-10
-1
-4
-15
-10
1
-5
0
-14
0
-12
1
2
-10
-3
-5
2
-7
3
-6
-13
-14
1
0
0
-6
-6
0
-14
-15
0
1
-13
-8
-7
-4
-9
-6
2
0
-6
-7
-7
-4
-14
-6
-9
-2
-4
-5
3
0
-13
-9
-6
3
3
1
-3
-10
-12
0
-1
-8
3
0
-13
-1
-13
0
-13
-9
0
0
0
1
-6
1
-6
-10
-8
-9
-6
-6
-9
-5
-15
-9
-4
-10
2
-6
0
-2
0
-12
-6
-12
-8
-14
-1
0
3
-15
-10
-12
-8
-7
-6
-12
-15
0
-8
-7
0
2
2
-15
-13
-4
-9
-4
3
-11
-11
-5
0
0
-4
0
1
0
-10
0
1
0
-11
-7
-2
-3
0
0
-2
-4
-5
-4
-5
-11
-8
-4
-11
-11
-15
-8
2
-8
2
-8
0
-8
-3
-14
-5
0
-10
-4
-8
-11
-11
1
0
-12
-13
-7
-3
0
3
-10
-13
-6
-11
0
-14
0
-7
-14
-12
3
-12
-2
-6
-10
-4
-1
-4
-11
-4
0
3
-5
-9
2
-11
-1
0
-7
0
-2
-2
0
-4
-14
-6
0
-12
-4
-7
-11
-15
0
-8
0
-12
-12
0
2
2
0
-11
-7
-9
-5
1
-12
-1
-6
-15
-4
-6
3
-8
-10
3
-15
-12
2
-12
-10
-14
3
-3
-3
-3
-8
-15
-3
-2
-11
-5
-11
-4
-4
0
-2
-1
0
0
-1
3
-10
-3
0
-10
-2
1
-2
-1
-8
-2
-9
-10
0
-12
-6
-8
-15
-4
2
-10
-9
-3
-8
-2
-8
-14
-14
-15
-1
-15
-1
1
-6
-13
-7
-15
1
-7
-13
-3
-12
2
0
-4
-11
-10
-5
1
0
-4
-8
-12
0
0
-13
-3
-3
-13
0
-9
-10
-3
-15
-5
-15
-13
-14
-7
-2
0
-1
2
-2
-5
2
-5
-12
-14
-1
-8
-8
-4
0
-1
-11
-15
-10
-6
-12
-7
0
-10
2
0
0
-14
0
-8
-4
3
-10
1
-14
0
0
-8
-14
-13
-5
-7
-15
0
-5
-15
-7
0
0
-13
-6
-6
-9
-3
3
0
2
-11
-14
-14
-6
-4
-5
-3
-11
-10
-14
0
-5
-8
4
8
-5
7
-7
8
-3
7
1
-1
-1
7
0
5
7
-9
-2
-6
8
5
4
0
8
1
6
-2
6
6
0
0
8
-3
9
8
-5
0
-1
-7
-10
-6
9
7
3
0
2
2
-9
0
9
6
-3
6
8
-3
3
2
2
-3
1
9
0
0
6
-4
-8
-6
3
-8
3
6
9
-9
-9
-8
1
4
-1
0
-4
-1
-6
7
-1
-3
-1
-6
0
-9
5
0
3
-7
6
-4
0
-3
0
-4
4
2
-6
5
-5
5
-1
0
-6
0
7
-4
-2
-6
0
-4
-11
0
-5
8
0
-2
-9
-6
4
-9
1
0
-5
-9
-3
0
9
7
2
0
6
7
1
-2
5
-5
-1
-9
9
0
5
-5
0
0
7
-3
2
6
-4
-2
-2
7
3
-5
2
-5
6
-5
-1
4
3
-6
4
-1
-15
4
1
6
-8
-8
-4
-14
-12
-11
-3
6
-9
7
4
5
4
4
0
-5
7
8
-3
-4
8
-5
0
-5
8
-3
-1
-12
-9
7
-3
-6
1
0
7
7
0
8
1
-1
1
7
-1
9
6
8
3
9
-7
-5
-3
-15
0
-3
5
-5
4
6
-2
5
-3
-5
7
0
2
-3
-2
9
5
9
0
-9
-2
6
-3
-6
-3
0
-6
0
-4
0
2
-1
-13
1
2
9
-6
5
3
-9
2
-8
2
9
6
3
-9
-8
-1
4
-15
0
4
0
8
-7
-9
6
0
5
1
-3
-9
8
6
8
-7
1
-8
0
0
-9
1
0
-14
-5
9
6
-1
-3
0
-7
7
8
9
0
0
8
-7
2
5
9
3
-8
-5
-1
-2
-1
5
-4
-5
-5
-4
5
-7
4
6
2
2
3
5
-2
-4
0
-5
-6
7
-5
9
-1
8
-3
5
-1
8
-6
-3
5
5
-4
3
0
-3
-9
1
9
8
-4
8
0
6
8
-9
-1
-4
4
0
-7
-12
0
-7
3
0
6
-10
-1
8
0
0
1
2
-8
-9
9
-5
4
4
8
3
-6
-7
0
3
0
1
9
0
6
8
0
-2
-2
-4
3
6
-8
-3
-6
-2
0
5
7
-6
-3
9
-3
-5
-3
-4
7
-2
8
2
0
6
9
0
-7
-2
1
5
1
-9
-3
-5
0
7
-4
9
-7
-6
7
6
8
9
1
8
8
0
-1
-9
6
-4
-1
-5
-4
6
7
-8
-7
8
-4
-1
6
3
0
3
2
6
-14
-5
-7
-2
-8
-1
-12
4
-6
-8
4
-6
-10
0
2
6
-1
2
2
-5
6
5
-2
5
5
-5
5
-2
-8
-9
-6
-8
-9
1
-2
9
-3
-5
-8
4
0
-5
1
-1
3
-7
5
-3
-9
0
-8
-4
-1
8
-1
-5
-5
-7
-14
3
-6
-1
5
-2
2
-4
1
-8
5
4
-8
-3
5
4
-4
6
7
4
-3
7
8
-11
-4
6
-2
-2
3
0
2
-10
-8
-6
0
-5
-3
-9
-9
6
-9
6
4
-4
-2
-4
-4
-6
-5
2
1
-15
-6
-13
-9
-3
0
-8
-5
-9
-8
7
7
0
3
7
0
7
0
0
-4
-8
-2
1
7
0
2
3
2
0
-6
1
-6
0
-8
7
-7
6
-7
0
-2
-1
-3
4
-2
5
0
0
2
7
6
1
1
-5
-2
-7
-11
-5
-3
-7
-4
-6
5
-2
8
-5
-1
8
7
-9
5
-7
2
1
0
9
1
0
0
-3
-4
-4
-2
5
8
-2
4
-9
3
0
-8
-5
-9
-2
4
8
3
-2
2
-5
-8
4
-1
-1
-5
5
0
-2
0
6
-5
1
1
4
9
0
-3
-1
-7
-3
-2
2
-7
0
8
-4
-4
0
2
1
8
-7
-8
6
4
7
3
9
0
0
-6
-2
-5
2
3
0
2
2
8
-7
-6
3
6
0
2
9
6
3
0
9
2
8
0
2
-3
-3
-3
0
-9
-6
-4
8
0
-6
7
-1
-5
-9
-7
3
0
-14
-6
1
1
2
9
-6
7
2
9
-1
-2
-1
-2
2
-2
-5
-4
9
5
8
4
1
-7
1
6
-12
2
1
-5
1
2
6
-9
-6
3
7
0
-3
2
-5
-8
1
7
-2
7
7
4
-8
8
-1
2
3
0
2
-13
-5
-9
-3
9
0
-1
-5
5
9
-7
-1
-4
3
6
3
-8
0
-2
-5
-6
8
3
1
8
3
0
-10
-1
-8
3
-9
5
9
8
1
4
-4
2
-3
-9
-1
-6
-5
-6
7
-8
6
7
0
-7
-2
-5
3
-12
0
8
4
0
8
-6
-2
-7
4
-1
9
-2
4
-2
0
4
-5
-5
8
1
7
7
0
9
-8
-6
4
-5
0
7
-7
8
6
4
-7
3
2
7
-4
8
-2
-7
-4
-5
-6
9
2
6
-2
8
7
1
3
-12
6
9
0
-7
-13
0
-3
6
-5
3
-6
5
5
-9
0
-2
0
5
5
6
4
-2
-1
4
2
3
-9
-12
1
-6
1
-8
-4
1
-8
-1
-6
9
-9
-9
-3
3
7
0
6
-1
-9
-2
-6
-6
-6
5
8
-5
2
7
8
-8
3
-1
4
1
0
-5
-6
6
5
5
1
-5
-11
6
7
6
-8
0
-5
4
6
8
-1
-5
-2
1
0
-8
9
-2
8
-1
0
8
-3
-10
-7
-11
-1
-1
0
-4
3
5
3
-1
6
1
-9
8
8
-5
2
1
9
1
5
0
1
8
3
-1
2
-11
-12
-2
0
-12
0
4
5
7
-8
7
-5
-6
-7
-4
-4
7
-1
-6
0
9
5
-1
-8
-13
-12
-7
-4
-13
3
3
-7
2
-6
-4
-7
9
-6
7
-9
1
0
0
3
0
0
6
-5
-3
-5
7
9
2
-13
1
-7
7
-6
0
-5
2
0
-3
2
-5
-3
5
0
-1
-5
-8
1
-1
0
6
0
-6
-9
-9
-9
0
3
5
1
4
-11
0
-6
9
4
4
-7
4
6
7
-2
-5
-2
-6
-6
-9
-4
-4
-4
-2
-7
0
2
0
8
-3
2
-5
-14
7
9
-4
5
0
2
3
-2
8
4
7
-3
-9
-8
6
-5
-4
-5
0
9
-2
5
-3
-4
-7
-14
6
9
-9
4
-9
3
3
0
2
1
0
-9
-8
0
-14
5
8
-8
4
2
-2
0
2
-7
0
-8
-6
-6
-9
-1
5
3
2
-9
-1
0
4
3
-4
-3
1
-15
-10
-15
-6
-7
-5
-8
5
8
5
-3
-4
6
5
6
-8
-9
-8
-2
-3
-3
1
-1
-3
-4
0
-10
-15
-9
0
-7
-7
0
-7
-1
-3
6
7
2
-7
-8
7
2
1
-1
-9
1
9
1
-2
5
-6
2
-11
-8
5
-8
8
8
-2
-4
8
-4
1
0
8
7
-6
4
-7
-2
8
5
-3
-9
-8
2
5
5
-8
0
-8
-14
0
-15
-11
0
-10
-5
-6
8
8
0
-8
7
-7
-2
7
-8
-9
5
-8
-7
6
-2
5
2
4
-9
0
6
-1
8
6
6
-9
-5
6
-8
6
0
0
4
-12
-2
-6
-10
0
2
-13
1
-1
1
2
-8
0
-10
1
2
-9
-10
3
-5
-11
-1
-4
-4
-7
-9
-14
-12
-5
-7
-14
-2
-12
-11
-1
-4
0
-10
0
0
0
-2
-10
-13
-1
-8
-7
-14
-6
-11
-4
-5
-5
-1
-1
-5
-10
-1
-6
2
-11
-12
-11
-4
-13
-10
-15
-7
-7
-1
-2
-15
-12
-8
0
-14
-8
-9
-11
-15
0
0
-10
-3
1
-10
-1
-3
-13
-1
-7
3
1
-11
-13
-4
-15
-9
-10
2
-6
-15
0
-15
1
-8
-15
-3
-3
-12
0
-9
-2
-2
-5
-13
0
-4
-15
1
-6
-8
-3
-13
0
-4
-2
-5
0
-4
-12
0
-10
-10
-15
0
-14
-7
-12
2
-8
3
-11
-13
0
2
-10
-3
-6
-4
0
0
2
0
-8
-9
-6
0
-1
0
-2
-14
-14
-8
-13
0
3
-3
3
-12
0
-2
-5
-11
-13
-3
2
-4
0
-6
0
-12
-13
-9
-14
-2
1
-12
-11
-7
-13
-6
-9
3
-12
-5
-1
-8
-10
-10
-5
-11
-15
-5
-2
-12
-11
0
-12
-1
1
-3
3
0
-4
-5
-15
2
0
-14
-15
-7
3
-8
-11
0
0
-4
-11
-12
0
-3
1
0
-9
-4
-3
-8
-6
1
-14
-5
-6
-4
-8
-8
-3
-11
2
-13
1
2
-8
3
-8
-9
-5
-3
2
-6
-8
-3
2
-1
1
-15
-7
-13
0
-1
-2
2
3
-8
-1
-14
-5
-1
-2
-15
0
0
0
-5
-14
-11
-2
-1
-1
0
-6
-13
3
-1
-15
-8
2
-6
-3
-15
-7
-15
0
-11
-10
-13
2
-14
-1
0
-13
-6
-6
-14
-8
-2
-3
-5
-7
-4
0
-13
-4
0
3
-10
-13
-6
-1
-9
1
-7
0
-6
-1
-7
3
-3
-5
-9
-14
-5
-1
-12
1
-13
-11
-1
2
-6
-7
-5
-4
-1
-8
-4
-2
-6
-3
-1
-11
-7
-9
1
0
-11
-13
2
-10
-14
0
1
-10
-11
-15
0
-13
-15
-12
-4
-14
1
2
-14
1
-5
-7
0
-13
-11
0
-11
-13
-12
-13
-11
-2
0
-11
-9
-2
-1
-9
0
-4
0
-14
-3
-7
-3
-2
-3
-14
-7
-9
-4
-9
0
-13
2
-4
2
-3
-8
-1
-14
-3
-5
-10
2
-15
-14
-6
-4
-7
-6
-13
-1
-9
0
-10
-14
-2
-3
-14
-9
-6
-5
-15
-4
0
-11
-9
-11
0
-9
-14
1
0
0
-8
2
-6
-6
-5
-14
-7
-6
-12
-4
-15
-14
-9
-10
-10
0
-13
-4
-8
1
0
-12
0
-10
-7
-6
-5
-12
-12
-5
-3
-15
-5
-2
-8
-5
-5
-14
-1
0
-7
-6
0
-6
-6
0
0
3
-12
-9
-2
-2
-7
-1
-13
0
2
2
-5
3
-5
-1
-4
-12
0
-1
1
0
-8
-3
2
-15
-13
1
-13
-6
-1
2
-7
-3
-5
-7
1
0
0
-8
-6
-8
-13
-6
-6
-1
-6
-7
-15
-9
0
-9
-1
1
-15
2
-2
-14
-13
-5
-5
-9
-15
-1
-7
-10
3
-11
-3
0
-1
0
0
-3
0
0
-2
0
-13
0
2
-8
-2
0
0
-12
-13
-14
3
-15
0
-11
-11
-15
2
-3
-9
0
-9
-10
-5
-7
-9
1
-11
-2
-4
-10
-12
-11
-6
-11
-2
-8
0
-2
-10
1
-4
-11
-14
-6
0
0
-1
1
0
-12
1
-10
0
-3
-11
-13
-10
-4
-13
-11
-12
-9
-2
-12
-10
0
-1
-9
2
0
-3
-13
2
-13
-14
-6
2
1
-2
-2
-3
-10
1
3
1
-7
3
-8
-9
-10
2
-2
-7
-15
0
-8
-7
0
-11
-10
0
-12
-9
-5
-1
2
3
-4
2
-11
-3
0
-1
-14
-14
1
-4
0
-14
0
-10
-9
-8
2
-12
2
-12
1
3
-2
-10
-2
-12
-3
-7
3
-7
1
1
-14
1
-10
-13
-5
-11
-12
-11
1
-5
-2
-6
-12
-10
-14
-13
-11
2
-4
-12
-1
0
-14
-14
3
-2
-3
-9
-15
-4
-10
1
-4
0
-12
3
-15
-6
-5
-9
-12
-4
-13
1
0
-6
-11
-2
-13
-6
-8
-1
-9
-12
-2
-2
-4
-15
0
3
-9
2
-9
-3
-5
-10
-2
2
-8
-1
3
-14
0
-15
-11
-4
3
3
-11
-4
-15
-8
-14
-14
-2
-6
-7
-9
1
-9
-5
-12
-5
-10
0
-1
-9
0
-14
0
-6
-3
-3
3
-3
-13
-14
-9
-6
1
-14
-5
-1
0
0
-9
-13
1
1
0
-2
-2
-14
-8
2
-8
-4
3
2
2
1
-6
-6
1
-14
-12
-6
-15
-10
-14
-15
-14
-7
-9
-4
-3
-14
-6
-12
-14
-3
-3
1
-4
-1
-9
-5
-5
-7
-11
-11
0
-7
-12
-8
-7
-6
-14
-5
-11
-14
0
-6
0
-2
2
-9
8
1
-14
0
-10
3
0
-4
-14
-9
0
-8
-14
-11
-4
-13
-4
-9
-8
-8
-2
-12
-6
-11
0
2
-5
3
-6
3
-10
-13
-12
-10
-2
-8
-1
-9
3
2
-13
-2
-7
-5
-10
0
-15
-1
-10
1
-5
2
-1
-7
-10
-4
-5
-5
-14
-8
-8
-4
-2
-7
-12
-2
-3
-1
0
-15
1
0
-10
-5
0
6
1
-12
1
-14
-14
3
-8
-13
-1
-15
-10
-8
-7
-3
2
0
-13
2
-3
2
3
-8
0
1
0
1
-3
-3
-12
-5
-2
-15
-4
-11
-8
-13
3
1
-3
-7
-4
-2
-2
0
-12
0
-6
-5
7
-9
-2
0
3
5
-5
-8
-12
2
0
-5
-10
-12
-4
-4
-5
1
0
-2
-3
2
-2
-15
-8
-11
1
9
-5
-9
4
7
-8
-15
-10
-6
0
-10
-12
-6
-10
-4
-3
0
-7
-9
-7
-11
-6
-5
-12
1
-11
-6
0
-8
-9
-8
0
-5
-13
-1
-7
-1
-4
1
2
2
0
-6
-6
3
-6
-13
-4
1
-15
-4
-9
-1
-12
0
-1
-13
-2
0
1
2
-1
-2
1
-10
1
-9
-6
3
-3
-9
-7
-5
2
-13
-11
3
2
-13
0
-7
0
2
-12
-12
-6
-3
-3
-1
-8
-3
-7
0
-2
-14
3
1
-4
-8
-12
-10
-9
2
0
-15
-5
-6
-4
-5
-12
0
0
-11
-9
-13
-5
3
-7
1
2
-15
0
-12
-2
-13
-12
-14
-8
-12
0
-7
0
0
-8
0
-7
-9
0
-5
-14
-15
-3
-9
-9
-11
-2
0
1
-13
0
1
-10
3
-15
0
-14
0
-13
-1
-12
-3
-10
-9
-9
-6
-1
-4
-15
-11
-15
3
-4
0
0
-13
-4
-4
-15
1
-5
-2
-7
-4
0
1
-8
-11
-12
-8
-14
-7
-4
-7
-14
-8
-12
-4
-9
-6
-14
3
-6
-5
1
-11
-13
3
-11
-15
1
-7
-11
0
-5
-7
-13
-15
-10
-9
-7
-8
-11
-9
-5
0
0
-9
-8
-10
-13
-9
-6
-15
2
-11
-1
-9
0
-11
-14
-1
-10
-6
-10
-1
-13
2
-9
3
-2
-7
-6
-11
-3
-5
-8
-11
-10
0
-2
-8
1
-2
0
-10
-15
0
-1
-5
-7
-8
-9
-7
-13
-4
-11
-11
-3
-9
0
-14
-11
-3
-14
-11
-1
-10
-12
-6
-10
-12
-7
-5
-1
-2
-6
-14
-1
-12
0
-3
-5
-13
-9
-6
-9
-10
1
-12
-15
-13
0
0
-7
-15
-12
-12
-10
3
-12
-7
-14
-14
-6
-8
-13
3
0
1
-7
3
-3
-7
-13
-11
-14
1
-3
0
-1
-1
-12
1
-3
-1
-3
-13
-14
0
0
1
-10
-10
-4
-14
-15
0
2
1
3
-8
1
-14
-1
-13
2
0
2
-14
-4
-10
-4
0
-15
3
-5
-7
-3
-7
-4
-14
-7
-11
-4
-14
-10
2
-1
-6
-5
-11
2
-6
-3
-11
-13
-14
-4
-3
-5
-2
-5
-6
-13
-5
-15
-3
-4
-3
-5
-3
-9
-13
-4
3
0
-9
0
0
2
-12
-2
-9
-1
-14
1
-7
-14
-5
-10
-10
-12
2
-5
-8
-8
3
-14
3
0
-8
1
-11
-1
-14
-11
-14
-14
-5
-9
-9
0
1
3
-7
-5
-14
-5
-14
2
-3
-7
-3
-10
-5
-9
0
-3
-13
-6
0
-4
-8
-8
-9
3
0
-8
-10
2
-8
-15
1
-12
-5
-2
0
-3
0
1
-2
2
-4
-11
-12
3
0
-5
-1
-3
-4
-10
-11
-13
0
-8
-9
-11
1
-13
2
-10
-15
-9
-7
-10
-12
1
-15
-9
-5
0
-6
-8
0
3
-5
-2
-15
2
-3
-11
-12
0
-6
0
-4
2
-15
-12
-14
-6
-4
-11
-9
-14
0
-11
-4
1
-9
-13
-15
-6
-7
0
-10
-5
-12
-2
-15
-9
-9
-5
0
-9
-7
-7
0
-5
-5
-6
2
-13
-14
-9
-15
0
-13
-15
2
-6
2
-10
-12
-3
-12
-2
0
-13
-3
-2
-9
-9
-2
3
-12
-6
-15
-7
-6
0
0
-2
3
-7
-5
-8
-13
-13
-2
-14
2
-4
-13
-8
0
2
-6
-1
-4
-10
-10
-8
-13
1
-8
-5
-1
-12
-8
-12
1
-10
-8
-6
-6
-5
-5
0
-14
0
-4
1
-11
3
-3
-12
-10
-8
-10
-15
-2
0
-8
-2
-6
2
3
-11
-7
-13
-7
-8
-11
-8
-9
-11
-7
0
0
-9
-2
-9
-12
-2
2
-14
-4
-1
-3
3
0
1
-11
-2
-12
1
-1
-9
-15
2
0
2
3
-1
-8
-8
-4
-6
-5
0
3
0
-14
1
-15
-11
-7
-12
1
0
-11
0
-10
2
-3
-12
-11
3
3
-9
0
-9
-2
-11
-11
-10
-9
1
-8
-15
2
1
-14
2
-1
-11
0
-10
-4
-5
-1
-7
0
-6
-4
1
-2
-5
-6
-7
-13
2
-12
-6
3
-11
-6
-15
-11
-13
-15
-7
-14
-8
-4
-3
-6
-6
1
-3
-1
-15
-11
3
1
-4
3
-13
-14
-1
-6
-4
0
0
-11
-2
-14
-4
-14
2
-9
-6
-12
-12
-14
-7
-1
-4
2
-14
0
-11
-6
-11
-13
-9
0
-13
3
-10
-4
-15
3
0
-15
-6
-12
3
3
-11
0
1
-2
0
0
-9
0
-15
1
-15
-11
-8
-4
-12
-5
-15
-14
1
1
1
3
-3
-10
-14
-3
-10
-4
-1
-7
-15
3
1
-2
-10
-10
-10
3
-8
-5
1
-9
-4
-3
-12
-15
-7
0
-4
3
-11
-2
-1
3
-12
0
-5
2
-5
-11
-9
-15
1
3
0
0
-2
-14
-10
-3
-2
-12
-2
3
-14
-4
-6
-11
-9
-8
0
-2
0
-13
-8
3
-15
-11
-10
2
-5
-10
-9
-13
-10
-15
2
-15
0
-12
-9
-1
-14
-13
-6
-15
-6
3
-7
0
-12
1
-14
-1
-7
2
0
-2
-7
0
-11
-12
-12
-11
2
-4
0
-14
2
-3
-15
-9
-6
0
-11
-4
-3
-4
-12
-10
3
-15
-12
-14
-14
2
-7
-10
0
-3
-2
-12
-10
0
-12
-5
3
-8
1
-3
-2
-5
-7
7
-7
-7
-7
2
-6
6
-9
-2
0
9
-5
-7
8
-7
9
-2
-8
5
3
1
8
-8
7
-7
0
4
7
5
-15
-7
0
-14
1
7
-9
4
-1
-6
7
-7
5
-3
-4
3
0
9
5
-5
6
2
8
0
-3
3
7
2
0
-7
3
-14
6
-1
3
-4
-1
-4
8
-2
3
3
6
4
-6
6
7
-3
0
3
-4
0
-13
-15
-6
-12
-14
-6
0
0
-9
1
8
-5
1
0
-3
7
7
-3
-4
1
2
-6
7
-5
8
-11
8
-14
-10
-13
-3
3
-11
-10
-14
-2
4
7
7
2
-3
9
2
8
-3
4
-8
-4
1
-7
8
-3
-13
-5
-6
-1
-15
-6
-13
-1
4
0
2
-5
6
9
6
5
-7
-4
1
-6
1
-2
6
-1
9
-3
-11
2
-11
3
0
-13
1
-10
-2
-14
-4
-12
1
-10
-7
8
-9
-9
1
8
8
-9
5
0
0
-9
-2
-1
-5
-5
1
0
-11
-6
-6
-3
3
-8
0
-3
-5
-2
-6
-2
-2
2
1
-8
3
-8
-2
2
-9
1
-2
1
-5
-15
3
-12
-10
-15
-4
-13
0
-5
-6
-4
0
-4
5
6
-7
0
1
-8
-13
0
-10
-1
-1
-7
-5
0
3
-13
-11
0
-4
-8
-8
-8
-8
-6
-1
-9
2
4
0
-3
-4
-8
-11
0
0
-13
-15
-1
-11
-3
-7
-1
0
2
-3
4
0
-9
-2
3
-9
5
-7
-7
-2
-8
-7
-2
-14
-14
0
2
-10
-14
-15
-11
-8
-6
-6
-6
7
3
-8
1
-6
7
-7
9
2
7
-7
-1
-11
-4
-8
-5
-12
-9
2
-15
-9
-11
-5
-4
-3
-7
8
9
-6
3
-4
-6
-7
7
0
-4
-4
8
0
-7
2
-13
-5
-8
3
0
-14
-7
-6
2
3
5
-8
-9
1
4
-8
-1
-6
-3
9
-9
7
-10
-12
-5
-12
0
-2
0
-5
-7
-15
-3
-7
2
-6
-4
-3
6
-7
2
9
0
-6
-1
-5
-3
4
-7
3
-3
7
0
1
-9
-3
-15
-12
-6
-5
3
-10
-3
8
8
0
-8
-7
-4
8
-2
2
2
-8
-2
9
0
3
6
-12
-1
-8
-3
3
3
0
-10
-10
-7
-9
7
2
-4
-1
1
-1
0
5
7
-5
-8
0
-10
0
-11
0
-7
0
-3
0
-10
-9
2
0
-5
4
0
0
-5
-6
8
5
9
4
4
3
-2
-7
-6
-13
-1
-13
-10
0
-15
0
1
-5
-12
-9
-7
-6
-7
-5
2
0
4
-7
3
6
8
8
-8
-7
0
-7
-13
-10
-7
-13
-6
0
0
-11
-8
-13
-7
-5
0
-9
7
0
6
5
-5
0
9
0
-14
-15
-10
2
-8
-7
0
0
-3
-15
0
-11
1
0
-1
0
-9
-4
-9
5
6
4
6
-4
-4
-7
3
-14
-7
-15
-15
3
-14
3
-10
0
-10
-5
-6
-5
-7
1
4
0
-2
0
8
9
-8
0
-2
-2
-1
-7
-5
0
-12
-8
-9
-3
-4
-5
-7
0
0
-9
-6
-7
-7
4
7
5
6
-6
-3
8
6
-8
-1
-9
1
8
0
-1
6
-7
8
8
6
-7
-7
-5
1
-9
-3
-1
9
-8
0
-7
6
9
2
7
-2
-5
2
3
1
0
3
-1
0
-7
-9
-3
-7
-6
-7
-3
-3
3
1
-4
-6
1
2
4
-8
-8
-3
6
-3
-1
-1
-3
-5
-8
-3
7
5
-2
-1
-8
-4
-5
-8
3
9
-2
3
7
-4
-7
5
-8
8
-3
7
4
8
-1
-1
-1
2
6
7
-2
-9
0
8
9
1
-5
6
-5
0
9
3
-7
3
2
0
-2
0
-8
9
3
9
3
5
-6
7
6
-1
-5
-8
1
0
-7
-8
8
0
2
-9
-3
1
8
4
0
-2
-5
3
0
-6
-1
0
9
0
-6
3
8
-1
-3
-3
-3
1
0
5
5
-3
3
-8
-9
2
-9
-5
9
0
-4
-2
-8
9
1
-5
7
9
4
-3
6
5
7
0
1
1
-4
-6
6
7
-8
-5
4
-6
-8
-2
8
-9
0
-7
-5
5
-8
5
6
4
9
-7
1
5
7
4
-9
-7
9
-9
1
8
-7
2
-1
2
-6
-5
-12
-15
1
1
-2
-7
1
2
5
-5
0
-5
6
-7
1
-2
-7
0
-7
-9
-7
6
-1
-5
6
-11
-12
-9
-6
-3
-2
-7
9
0
-8
-7
8
0
7
9
-7
-4
0
-3
-1
-5
3
-2
3
-13
5
-5
-4
-8
1
-12
3
0
5
-4
9
0
6
-2
2
-9
4
-7
-8
0
9
8
2
-8
-4
2
-4
-6
-6
-15
-15
-15
-13
0
-4
6
5
7
6
-3
-7
-8
2
6
2
3
0
4
5
-3
7
0
-7
1
1
-10
-7
0
-10
-8
0
-13
2
-2
-1
-7
-5
-7
3
-7
-4
7
-8
-6
4
-8
0
-1
0
-8
-1
-5
-2
-11
1
-4
-14
-4
5
-5
0
4
-1
-4
8
6
-9
0
0
4
-9
4
4
-7
-1
-9
-4
0
-6
1
3
2
5
0
3
-4
0
2
1
-4
9
9
0
9
0
4
-3
-7
0
-8
0
6
1
5
0
1
5
2
-9
8
-5
-3
-9
5
-8
-9
1
7
-5
-8
-8
9
-1
4
-1
-1
-4
3
-5
-10
0
0
-1
-6
6
-7
-8
5
7
2
8
-7
-3
-2
-7
-2
8
-15
-15
-8
-15
-6
-12
-7
0
2
-11
-2
5
3
-8
-5
-1
9
-7
1
4
1
5
-8
5
6
7
-3
0
0
0
0
-5
-9
-6
-3
-14
-5
-7
-4
-4
7
5
-4
9
7
3
5
6
-7
2
-8
7
-3
7
-1
1
5
1
2
-9
0
7
-14
1
-4
-1
7
0
-3
1
-2
1
6
-6
-2
1
1
6
3
8
-6
1
7
-8
-4
3
-13
-9
-9
-11
-13
-9
-9
9
-4
-3
-9
-3
-6
0
2
-3
2
0
-8
6
5
-3
2
-2
-11
-11
-7
3
0
-12
0
-5
-3
3
-8
1
-8
-5
-8
6
-6
-3
-9
-7
4
-2
0
6
0
-7
9
0
-2
-4
1
2
-2
5
5
8
-3
6
0
-5
-1
5
8
5
0
0
2
-6
-2
0
-4
-8
-7
-13
9
0
-7
-13
-4
-6
-6
1
-8
1
-2
6
5
2
-9
0
0
2
5
-2
-6
-15
-3
2
-3
-10
-13
-12
-14
0
0
9
-7
-6
-9
-7
-3
1
-1
-8
2
-6
0
5
-5
-2
-1
0
-1
-12
-1
1
-9
1
-15
-7
7
-7
-3
0
5
8
0
9
6
-7
-6
-6
3
1
-8
-6
-12
-1
-8
0
-8
6
7
3
9
2
1
4
0
-6
-2
-7
-3
7
9
-3
7
0
8
-4
-1
7
1
0
-13
1
-2
0
-4
-8
-8
0
-13
-9
0
5
9
2
-3
7
5
6
4
-1
-9
8
2
-6
-7
6
4
6
-6
-4
1
-1
-9
-9
0
2
-4
8
8
3
1
-6
0
1
1
-5
0
-2
-9
9
-7
-6
-5
3
6
0
-2
-2
3
2
4
0
-4
-6
4
8
-9
4
8
-5
4
-2
-8
9
-4
-1
5
-3
7
6
-2
7
-3
-2
-5
-8
-7
-3
-5
4
-7
7
2
6
6
3
6
2
-4
-4
-1
0
2
7
0
-6
2
0
0
1
9
0
-2
0
1
7
-3
-5
9
9
-9
4
-9
4
-2
-7
7
4
-8
-1
-5
0
-14
-7
4
0
0
4
-7
4
9
-6
0
-3
8
4
6
-7
-1
0
9
3
0
2
1
-6
-9
-3
3
2
-3
2
-2
-9
0
-9
0
1
3
2
-5
-1
7
-1
-6
-8
-7
0
-6
0
3
5
-14
2
6
-7
-13
-15
-5
-7
-2
4
-4
8
4
6
7
-9
-8
-1
5
-5
5
4
9
-9
6
-10
-15
-4
-3
-13
1
-9
-3
-4
-6
-8
-6
-3
4
-7
-9
-5
0
4
2
3
-5
-3
1
-7
0
0
-7
6
-9
-3
7
3
0
-10
2
-1
-8
-7
6
-5
1
-4
2
0
7
9
7
-3
-5
6
1
-12
-1
-12
3
2
-2
-6
-4
-7
0
0
-4
-4
-5
-5
8
-2
1
0
0
1
-4
-5
-9
-4
-2
-7
0
-3
-6
1
-5
-4
-12
-8
-3
1
-5
1
4
-6
7
2
9
-9
-6
8
1
-6
-3
1
-13
-6
0
-9
-8
1
-7
-15
3
-8
6
-7
0
0
-7
0
-2
2
-5
-5
-8
3
3
5
-11
-13
-10
-15
0
0
3
1
-7
-4
1
5
-1
0
5
7
1
-9
0
4
9
0
-4
6
6
-5
-6
2
-6
-11
-9
-14
-11
-12
-13
-5
-6
1
-2
4
6
2
5
-9
0
1
2
-4
2
4
0
9
1
0
-10
0
-8
-3
-1
1
-14
0
-3
0
-1
-3
0
7
5
0
-3
-1
-3
9
5
-1
7
8
-7
-6
-8
1
2
-10
-9
-14
2
-10
-4
1
-1
-3
-2
-3
3
-9
-3
0
-9
-4
4
5
2
1
6
1
0
-3
-7
-5
-2
3
-14
-10
-11
-14
-9
4
4
-4
-9
9
-4
8
-9
4
-9
9
-5
-9
5
-4
-8
3
0
0
2
-1
-13
5
5
-8
-13
9
-9
-5
6
-4
-7
4
-7
4
-2
-8
2
1
-15
-9
-2
-9
6
-4
-6
-9
-6
0
5
-5
-2
-8
4
9
-9
3
1
8
2
5
5
-8
-2
-13
-6
-7
0
7
2
4
2
3
-3
1
9
2
-9
9
-2
-9
7
-3
7
-1
4
-4
-8
9
3
-11
-2
-12
-8
-11
9
6
-1
0
-4
9
-7
-10
-4
0
7
-3
-8
-2
-1
-6
4
-8
-8
8
7
-14
2
-5
-2
-3
2
-14
-5
-8
-3
2
-11
-5
-8
4
-8
0
-2
1
0
2
3
2
0
-4
-1
-4
-14
-12
-2
-15
-12
2
-1
-12
-6
1
-1
-1
5
-3
5
-2
9
0
0
-7
-8
-9
-7
9
-5
-2
-5
5
2
-12
-2
-3
2
8
-9
-1
-2
-4
-5
5
4
5
8
5
-4
7
1
-5
8
0
-7
-1
6
-3
7
-5
-5
-11
-2
-11
-9
-7
-10
-14
6
3
-9
7
0
-3
-3
-7
-7
1
-3
6
7
9
6
3
-5
9
8
2
-2
4
-7
-6
-4
-8
2
4
-3
-8
0
-2
5
-9
0
7
-4
6
9
5
8
-6
-3
-8
0
-3
7
5
-5
-7
5
0
-5
1
-4
0
3
0
3
-6
2
-15
-10
-2
-9
-13
-14
-14
-4
-11
-10
2
-3
-6
-14
0
-2
-13
-10
-7
-5
-1
-2
-5
-4
-11
-9
-9
0
-3
1
-10
1
-6
-15
-13
-3
-6
-4
-14
-9
-5
0
3
-1
-4
2
-15
0
3
-11
-14
-8
0
-11
-12
-4
-1
-4
0
-15
-11
0
0
0
-8
-1
-8
-3
-13
-2
-13
-15
-7
2
-6
0
-8
2
-6
-1
-11
-5
3
-6
2
-9
0
2
-6
-7
-6
-10
-15
0
0
-6
0
-12
-2
-7
-15
-1
-8
-1
2
-13
-14
-3
-7
-8
3
-9
-3
0
-1
-5
-11
-9
-12
-15
2
-2
-12
-2
-11
-1
-2
-13
-5
-4
-11
-8
-1
-11
-8
0
2
0
-14
2
-4
-13
-3
-11
-8
-1
-13
1
3
-9
2
-3
-5
-9
-8
0
-2
1
-11
1
-8
-8
-9
-2
-6
-8
-12
-9
2
-5
-6
-7
-1
0
-12
-8
-5
-11
-5
0
-6
-5
-14
-13
-1
-10
-11
0
0
-3
-13
-6
1
-5
-3
3
-6
-6
-15
-8
-9
-4
-4
-8
-4
-9
-14
-2
-1
-14
-15
-14
-11
-3
-10
-14
1
-2
-14
-12
0
-10
2
-9
-9
-1
-12
-1
-12
3
0
-2
-13
-2
-1
-4
-15
-8
-14
-11
-2
-8
-9
-10
-6
-12
0
-7
-15
-8
-14
-14
-5
0
-15
-7
-7
-15
-3
2
-15
-8
0
-7
-14
-13
-4
0
-7
-9
-14
-1
-15
-5
-13
-7
1
-13
-12
0
-1
-12
-15
0
0
-12
-8
-9
-1
-11
-9
-14
-7
3
-13
-15
-13
-11
-6
-2
-2
-4
0
-3
-13
-8
0
-5
-4
-15
2
-14
-3
-11
-6
-7
-10
-9
-3
0
-2
2
-10
-14
-7
-5
-8
0
0
-14
0
-10
-2
-13
-3
-2
-11
2
-7
-13
3
1
-4
1
-3
-13
3
-13
3
2
-12
1
0
-9
-10
2
-9
-13
-8
-12
-3
-8
1
-7
-7
-15
0
-3
-7
-14
-9
-10
-13
0
-6
1
0
-8
0
-4
-10
-4
-14
1
0
1
-4
-14
-3
0
2
-2
1
1
-5
-8
-5
-9
0
1
-4
0
2
-8
0
-13
-11
-5
0
-9
-10
-10
-4
-15
-5
-4
-6
-7
-4
-4
0
-8
-5
-9
-10
-4
0
-9
2
-3
-9
-4
-1
-14
-3
-3
-8
-10
1
-13
-6
-11
-7
3
-5
-12
-4
-6
-14
-13
1
-5
-8
0
0
-12
-10
-1
2
-13
-7
-3
-8
-2
-12
-4
-1
-1
-8
-1
2
-8
-8
-15
-9
-8
-13
-12
-12
-13
-12
-4
2
-1
-6
1
-4
-13
-6
-4
-13
-5
-2
2
-11
-1
0
-15
-5
-13
-10
-12
-11
-1
0
3
-6
-7
3
-5
-1
-2
0
-8
3
-5
-2
-15
2
-14
0
-11
-12
-13
-9
-13
-8
-9
-15
-2
-2
-15
-12
-1
2
-6
0
0
-6
-15
-3
-8
-5
2
-3
-13
-8
-15
-15
-8
-6
-13
-11
-13
-13
-14
-8
-5
-10
-1
2
-5
-3
-11
-4
-12
-4
-12
-13
-6
-1
-15
-3
-8
1
3
-1
-1
-9
-4
0
1
3
-10
-8
-15
-11
-5
-12
-4
-8
-15
0
-13
0
-5
0
-14
-15
3
0
-8
-14
1
0
-15
-2
-1
1
-15
-5
3
-10
-4
-7
-10
-1
-3
-7
-14
0
1
-2
3
3
-10
-10
-7
-15
0
-7
-10
-5
-1
-15
-14
1
1
1
-9
1
-13
-13
0
-12
0
-6
-2
-8
1
3
-14
-13
-6
-9
-4
-6
-3
-7
-13
-15
3
0
-7
-15
0
-2
-2
-15
-10
-12
-14
-2
0
2
2
-6
5
-8
3
-1
-5
6
5
-1
9
5
-3
9
-4
9
-3
6
-2
3
-8
7
-3
-5
-1
6
-6
-2
2
9
-9
7
-1
-4
-3
-9
-7
-1
-6
-13
3
-9
3
-7
6
-4
-8
2
7
3
-5
-7
1
0
2
2
8
9
2
-2
-2
9
-8
-6
0
-14
2
-14
-11
-2
-7
3
-8
6
-3
6
-5
0
-7
8
-5
2
-9
0
1
1
5
0
5
8
1
0
-4
-1
-11
0
3
-14
8
-6
7
-3
-7
2
9
-8
-6
6
3
8
-1
3
-5
-7
-3
2
-9
1
-9
-1
-14
-2
3
-10
7
-8
-9
0
-6
2
0
3
6
-5
-1
-9
-1
-6
4
9
-9
-14
-6
1
-3
-11
-6
-14
-7
-7
0
0
5
-2
-3
-5
-5
-9
1
-6
0
4
-3
-7
6
-5
3
-11
-7
-3
-11
-1
-6
-1
-13
-2
-1
-10
0
-9
-5
-14
-1
2
-5
-1
-8
-2
-5
0
-7
-2
-9
0
-12
-7
-3
1
-6
-7
-9
-2
1
-14
0
-14
0
0
2
-3
7
4
-1
1
5
-4
0
-5
-3
3
0
-5
-8
-8
-6
-8
-9
-12
-2
1
-1
-9
-3
-2
-8
-7
-8
9
-3
1
-8
-1
-1
-6
3
3
-9
-13
-15
-8
4
-8
-8
-4
-8
1
-6
-3
6
-9
6
6
4
0
-2
-8
-8
0
8
-4
-6
-1
-8
-8
-3
-8
4
-2
-2
-4
-6
7
-4
0
9
-5
0
9
-8
-4
7
0
-11
-5
0
-5
2
-7
-5
1
-6
-12
-4
-7
-1
-9
-4
3
-7
-5
-8
-3
-7
-3
-4
7
-4
-2
8
-5
-7
0
-11
-2
-7
2
-2
0
-4
-9
-1
7
-3
3
7
0
5
-9
-5
7
9
7
1
2
0
-1
1
-8
2
-4
3
-1
-7
-10
-8
-8
-2
-8
-1
1
-9
-8
-5
5
1
0
2
-1
4
-4
-2
2
-2
7
2
-4
-3
0
0
-2
-8
1
0
-9
-7
-5
2
-6
3
-5
5
1
-7
0
-8
-5
0
-9
9
1
-4
1
-7
-10
-13
-15
-11
0
-1
0
-12
-5
-2
-3
1
-6
-9
-1
3
2
-4
4
-14
-13
-7
-3
-8
2
-1
1
-14
-10
-8
-4
-9
-5
0
2
-3
-3
8
-7
9
5
-7
-1
-3
-9
3
-15
-8
-13
-7
-10
-2
-4
-6
3
-2
-13
-8
-13
-10
-7
-2
-4
-6
-3
1
1
0
3
-9
-8
-15
-3
-11
-9
0
-10
-3
-12
-6
-1
-2
2
-4
-2
-1
-7
2
3
6
-7
4
-4
0
1
1
9
-2
-8
-6
0
-2
-15
1
-9
-4
-7
-13
0
0
0
-6
0
0
2
2
-5
-8
4
-9
7
0
0
-5
-8
-4
1
-5
-14
-4
0
-7
0
-9
-9
-8
0
-9
7
3
7
3
-9
6
7
1
3
9
8
7
-5
0
-2
-4
-9
-6
1
-15
-9
-9
9
0
-13
-8
3
3
-7
1
-1
7
-6
9
4
8
-9
-5
-1
8
5
-3
-4
-12
-14
2
-1
-7
-1
-14
0
4
-6
2
6
-5
0
8
-3
6
2
8
-6
1
-6
-7
-5
-7
-2
8
7
-8
-2
-7
-3
-4
0
-4
-3
9
3
-3
-5
0
9
8
-5
0
-7
-8
5
-3
9
-2
7
-5
-9
-8
6
-1
9
0
5
9
-2
-2
-9
4
-5
3
-3
-6
-3
-6
-6
0
7
-8
5
3
-2
-4
0
-6
-1
-2
0
6
8
4
8
-5
8
-8
6
4
-7
6
-7
-9
7
-8
-1
5
0
-1
3
9
8
7
-1
-6
4
3
-8
5
-7
-6
4
7
0
5
-9
5
0
0
0
-1
-2
-8
-6
8
3
-6
0
-4
-2
4
6
-4
2
-9
5
8
1
0
7
3
-6
-3
0
7
0
-6
4
-8
0
5
0
-9
-1
-5
-1
4
3
-4
4
-3
-9
1
-1
-2
-2
0
-4
-9
0
2
5
-4
-4
-2
-3
-9
0
-8
5
-2
6
-6
-8
4
-4
5
-2
-6
4
-6
0
-2
8
9
-9
1
-4
3
2
-7
-9
-4
-8
-13
7
7
6
6
-9
-2
5
1
0
-2
5
5
-1
2
9
0
6
8
9
-7
-9
3
2
6
3
1
-7
-3
0
-15
-6
8
-8
1
-4
-5
0
0
9
-8
1
-3
-1
-1
8
-5
0
1
5
-8
3
-11
-14
0
2
-15
0
7
-5
8
-1
6
-6
0
-5
-5
1
9
1
-4
3
2
0
-5
-5
2
-4
4
0
-1
-9
-12
7
-5
3
-5
-9
-2
-8
0
1
-5
6
-2
-8
8
5
6
3
-4
-1
1
-6
2
-8
-15
-8
-8
-9
-2
-3
-3
0
2
2
-4
-3
-4
4
-8
8
-9
-1
8
3
-2
0
0
-2
1
-15
0
1
-8
-5
-15
5
4
1
-1
-4
3
1
7
4
4
5
4
0
2
-8
-6
-3
-12
-14
-4
-8
2
0
0
-13
-7
-9
2
-5
-9
1
6
0
4
7
3
-3
-7
2
2
-2
0
-5
-4
-15
8
-4
-8
5
-9
-13
-2
-7
6
0
3
6
4
4
-7
-3
6
2
6
-6
-7
0
-2
-6
-14
2
0
-8
-4
2
0
-13
-4
-9
-4
-2
0
-2
4
0
1
7
-6
0
-6
-4
1
-9
7
-14
-6
-4
-9
-4
2
-8
-6
-5
2
4
-8
-2
4
-6
-3
-7
-8
1
8
1
-2
2
-9
-6
-6
-1
-4
-6
4
6
-9
-8
-3
-1
-5
-9
7
-6
7
-3
-4
8
-4
-4
-1
8
1
-9
6
-4
0
-2
0
9
-3
-3
-5
-5
2
1
5
-9
7
5
-1
-2
-1
8
5
0
4
2
-9
0
2
-5
-3
0
0
-2
-14
-2
-14
-6
-8
-7
-9
-8
3
-8
-8
-8
7
-1
6
5
0
4
8
-9
3
-2
1
-2
7
2
-12
3
-3
-3
0
9
-15
-8
3
-3
3
2
6
-6
5
-2
7
-2
0
5
-2
1
5
0
4
-7
-7
-3
-2
-7
4
4
-14
-10
-5
-9
6
2
-7
8
7
7
1
3
6
7
-2
0
7
0
3
8
-10
0
1
1
6
0
-1
0
4
5
4
4
-8
-5
-9
-3
4
9
-8
5
-15
-5
-4
-2
6
-7
1
-9
6
-2
8
0
-7
2
8
0
-8
-6
-1
6
8
3
-3
-5
3
-5
-14
-15
-9
-9
2
-9
3
1
-7
-6
3
-14
0
1
7
-5
7
-3
4
-6
0
-2
-8
8
-9
0
2
-8
-1
0
2
-4
-3
0
0
-3
-8
-11
1
0
-4
-4
5
7
-2
4
-8
-4
5
0
3
-9
6
-13
-9
3
8
8
-7
-5
-8
-5
-4
0
-10
8
7
8
7
3
4
9
6
8
-5
-3
2
9
0
-7
-9
-3
-5
9
-2
-5
-2
7
6
-7
1
1
6
-3
-5
6
6
-6
2
4
-5
-7
0
-4
3
2
6
4
-2
3
-1
-4
5
9
5
7
1
0
-2
0
-8
5
-9
3
6
-10
-12
-9
-5
-13
-5
0
0
0
-5
1
-7
-6
-9
1
-15
-7
-10
2
-7
-7
-1
-7
0
0
-8
3
-13
-4
-9
-5
-9
-6
-11
0
-11
-10
-6
-7
-12
2
-10
-10
-14
-13
-8
-8
-7
-15
-3
-1
1
-7
-6
-9
0
-14
-8
-12
-9
-7
-2
-3
-5
-8
-4
-3
2
-3
3
-10
-15
-14
-6
-11
0
-1
-12
-6
-12
-2
-13
-7
-6
-13
-9
-14
3
-9
-4
-9
-3
-15
-1
-12
-6
-13
-4
-15
0
-9
-3
-15
1
1
0
-7
-4
-14
0
-4
1
0
-14
-9
0
-4
-7
-8
-11
-4
-6
-14
-10
1
-1
-8
-13
-12
0
0
-15
-12
0
-12
-10
3
-13
-9
-6
-1
-13
-2
-6
-4
-12
-15
-5
-2
-5
-4
0
-14
-13
2
3
-15
-13
-11
-6
-4
-5
-14
-6
-12
0
-11
-13
-11
-4
-6
-13
3
-13
-5
-13
2
-3
-13
0
-14
-7
-10
-4
0
-7
3
-6
-8
-5
-3
1
-1
-6
-3
-14
-7
-11
-11
-6
-7
-4
-7
1
-15
1
-13
2
-6
-15
-8
-4
-1
-9
-12
-10
-8
-8
-11
-2
-2
-10
2
-10
0
-7
-15
-15
-14
-2
3
-5
-8
-9
-12
-6
-14
-3
3
-2
-13
-15
0
-15
-7
-10
-14
-10
-10
-2
-11
-4
-11
1
-12
-5
-12
-7
2
0
1
-8
-2
2
-3
-2
-7
-4
-11
-13
-14
3
-3
-4
-14
-11
-2
-12
-9
-2
-15
-7
-6
-7
1
-4
-11
-7
0
-4
-9
-4
0
-8
-3
-10
-2
0
-2
-7
-2
-11
-3
0
-14
-15
-14
0
0
-6
0
-2
-9
2
2
-12
-14
-7
-13
-12
-6
0
-14
-9
-7
-10
-8
-6
-1
-10
-15
-1
-6
-6
-3
0
0
2
-2
-3
-2
-11
0
-15
-9
0
2
-7
-1
0
-11
-6
-14
-6
-5
-4
-2
-5
-10
-11
-2
-3
-10
-8
3
-15
0
-4
0
-7
0
-8
-4
-14
-15
-3
-5
0
-11
-3
-5
-1
-5
-3
-7
-11
-9
-13
-5
-13
-13
-11
-6
2
-8
-10
-8
-15
-8
-9
-3
-9
-6
-4
-11
1
-10
-8
-8
-14
-1
-4
-4
-6
2
2
-13
-8
-6
-1
-13
-11
-8
-8
-8
-6
-4
-5
-11
-7
-5
-14
-2
-11
-11
-3
-5
-5
-14
-8
-15
0
0
-13
3
0
-6
-8
-8
-11
-6
2
-3
2
0
0
-2
-7
-13
-3
-7
-7
-8
-3
-7
-1
-13
-8
-12
-6
-10
-1
-2
-3
-13
-3
2
-14
0
1
-8
-15
-14
-12
-9
-2
0
0
-5
-1
-2
3
-12
-6
-10
0
-1
-7
2
0
-10
-14
-5
-1
-12
-15
-14
1
-7
2
-11
-8
-14
-5
-9
-11
1
-3
-12
-5
-10
-1
-3
-7
-1
0
1
-7
-2
3
-13
-11
-7
-1
-15
-8
-14
-1
3
-14
2
-14
-6
0
-1
-3
2
-9
-8
-10
-5
-3
-9
-5
-13
-8
-14
-10
-8
0
-1
-15
-13
-15
-15
0
-8
-7
-3
2
0
0
-10
-7
-2
-13
-2
2
-2
-5
0
-14
-13
-7
0
-8
-4
-2
1
-10
-5
1
-5
-6
-9
-15
-13
-8
-15
-13
-14
-1
-12
-8
-5
-11
-15
-4
-15
0
-12
1
-6
2
0
-6
-13
-7
-11
-7
-8
-12
-12
0
-3
-3
-10
2
-1
0
-9
-11
-5
-11
-13
3
-14
-15
-5
0
-5
-13
-9
-14
-3
-15
-3
-3
-5
-2
2
-9
-14
-10
-11
0
-4
-3
-1
-8
-12
-7
-5
2
-5
0
-13
-3
-8
-8
3
-9
0
-4
2
0
-2
1
1
-5
1
-1
-12
-9
-12
-13
3
-10
-3
-7
0
0
-10
-6
-13
-9
-8
-15
-8
-3
-15
-9
-3
2
2
1
-2
-13
2
1
-9
-9
-5
-6
-3
-13
3
-5
0
-2
-5
-7
-13
-15
2
-6
0
-14
-5
-13
-1
-10
-7
-6
-15
-12
-3
-15
-13
2
-5
-9
-8
-5
-8
-4
-4
0
-3
0
-9
-7
-11
0
-4
3
-15
-5
-7
-14
-5
-5
-8
3
0
-9
0
-3
1
-15
-11
0
-15
0
-4
-1
1
-10
-8
-2
-1
0
-10
-5
-9
3
-6
0
2
-10
0
-9
1
2
-3
-12
-5
-13
-2
-9
0
-1
-9
-14
2
-11
2
-5
0
-9
-9
-15
-11
1
-4
-11
3
-12
-14
-15
-15
-12
-8
-11
-15
-9
-10
-13
-6
2
-10
3
-2
-6
-1
-5
-12
-5
-11
-13
-6
-14
2
2
-4
-15
-5
-14
0
0
0
-11
0
1
-10
1
-2
-15
-14
-9
-1
-11
0
-7
-10
1
-10
1
-3
-1
-10
-12
3
-15
-2
-8
-11
3
1
3
-1
-1
-13
2
-14
2
-8
-2
-8
-2
-4
-15
-10
-2
-15
-3
0
1
0
0
-8
-14
3
-14
-5
3
-3
-12
-9
-13
-11
-13
-3
-6
-13
-15
-13
-10
-4
3
-7
-15
-10
0
1
-12
-8
3
-13
-11
0
-7
0
0
2
-2
-10
-4
-3
-8
3
3
-5
-6
1
-7
-14
-10
2
-11
1
-2
-8
3
-14
-10
-1
-2
-15
0
0
-10
-9
-9
-1
-6
-3
-13
-1
-9
-8
-14
-7
2
-8
-1
-4
-4
-14
1
-6
-11
-11
-7
0
-15
1
-10
0
0
1
-12
-10
-1
-2
3
-5
-11
-4
-8
0
-14
3
-11
-13
3
-6
-11
-5
-15
-5
0
-12
-14
-10
-13
1
0
-11
-3
1
-13
-4
-3
-4
-3
2
3
-15
-4
-13
-14
-2
-11
0
-7
-14
-3
-3
-5
-7
-15
-6
-1
-12
-1
2
0
-10
-13
-2
-4
-10
-7
2
-13
2
-9
-3
-4
1
0
-7
1
-2
-13
-3
1
-15
-2
0
-11
-6
0
-11
-11
-2
-15
-11
-6
-12
-11
-3
-14
-12
1
-6
0
-9
-3
-14
-10
-2
0
-1
-1
-14
-12
2
-15
-11
2
-7
-1
-12
-3
-5
-10
-2
1
-11
-1
-3
1
-2
-6
-1
-5
1
-13
1
-8
3
2
2
-6
-5
-12
-11
-14
0
1
0
-1
-6
-7
-12
-3
-1
3
-6
-6
-12
0
-11
0
-6
-12
-10
-9
-2
3
-12
-4
-15
-13
2
-9
2
-8
-9
-11
0
0
1
-3
1
0
-8
-14
-8
-5
-4
-15
1
0
-14
-2
1
-1
-4
-8
0
1
-14
-3
0
-8
-13
-14
-6
-14
-9
-1
-9
-6
2
-1
-14
-13
3
-3
0
2
1
-15
-11
3
3
-1
3
-8
-14
-3
1
-13
-15
-8
-4
1
-14
-12
-15
-10
-13
-5
-13
-6
-12
1
1
0
0
-3
-10
-11
-8
-4
-13
-12
0
-6
3
0
1
0
-8
-11
-8
-15
-15
-14
-6
0
-15
1
-14
-14
-1
2
-11
0
1
-1
-12
1
-8
-6
3
-10
0
-8
-13
-4
0
-1
-3
-15
-5
-5
-8
-6
1
-5
-3
-7
-14
-12
-2
3
1
-11
-7
-3
2
-11
-7
-2
0
-6
0
-10
-8
-13
-3
-7
-6
-10
3
1
-2
-13
-9
-4
0
1
-1
-8
-7
-8
-15
-6
-13
-15
-10
-6
-6
-1
-14
-4
0
-11
-10
-6
-13
-15
1
-2
-1
-6
0
-7
-3
0
-11
3
-10
-5
-6
-9
0
-9
1
11
-4
13
-3
0
15
0
0
-2
-1
-1
-1
28
3
13
14
15
15
23
12
-4
-6
-4
11
0
-3
2
4
-2
-2
10
1
15
24
4
9
14
-10
3
-25
-4
23
3
-36
20
26
-11
-5
-3
3
3
-2
11
-1
8
10
-4
0
-5
1
-8
37
4
-26
-39
-24
-1
39
0
8
12
26
13
6
-10
0
-5
4
7
-3
9
-8
-7
15
27
-9
-44
-17
-14
-30
8
-3
11
68
-36
-13
55
0
-27
33
50
16
8
-3
10
-2
-2
-6
-11
9
13
-16
3
82
92
93
99
57
95
41
-40
-82
-71
-2
-14
-39
28
33
5
12
8
-2
-30
18
-17
-10
20
15
-3
51
179
181
198
160
93
-4
-2
-57
-99
-89
-27
-13
-30
-8
20
13
-3
-19
-15
5
6
-8
-14
7
45
60
37
170
154
31
89
-69
-73
-143
-82
-106
-44
-23
-22
-15
-3
4
-6
-15
-21
-25
-15
-19
1
14
-8
-56
-73
-58
-12
-149
-134
-53
-26
-88
-53
-68
-73
-11
12
-9
-20
7
-5
-12
-4
-19
-13
-25
8
-41
-52
-157
-203
-248
-234
-172
-217
-55
26
-16
-7
56
-28
-37
24
10
1
-2
-8
6
7
14
5
15
-52
-95
-207
-208
-248
-323
-192
-77
-45
-80
61
75
19
44
2
2
0
11
0
0
6
5
8
32
-3
-20
-55
-114
-186
-197
-296
-419
-156
-23
62
65
-46
50
-25
91
11
48
48
6
0
5
19
15
6
15
13
26
-24
-56
-170
-245
-234
-311
-262
-16
66
97
60
8
9
21
67
-15
35
30
1
10
14
11
24
27
57
29
95
41
-16
-125
-280
-102
17
97
107
-15
39
-4
128
54
53
17
31
51
7
8
3
20
38
73
115
155
188
136
83
92
-10
-66
66
100
66
11
47
50
4
55
77
55
44
37
-2
-1
-7
28
36
118
193
190
172
311
349
359
291
228
156
14
71
36
77
86
67
-3
55
59
32
26
-13
0
3
28
42
108
178
216
265
343
428
567
570
323
191
95
58
56
73
147
94
-9
13
15
-3
28
8
6
-4
31
31
90
168
217
267
326
399
520
509
290
173
97
10
79
74
58
66
-3
39
-10
-15
25
14
14
-12
18
16
95
196
151
243
313
370
470
479
337
109
160
110
96
40
81
-34
-7
-1
0
-26
23
21
14
-25
9
23
21
117
125
162
292
318
379
243
226
167
205
129
105
73
103
1
-65
-45
-6
-6
9
0
10
-2
-23
4
-27
0
77
103
176
183
139
87
96
219
310
246
83
3
100
22
8
-40
-21
0
6
-4
7
-1
-14
-11
-20
-67
-29
-25
-89
-33
8
84
84
207
321
318
116
2
-16
-10
0
7
-42
-17
2
5
12
10
1
-39
5
-38
-94
-62
-110
-72
-119
-60
-49
33
103
130
91
73
-41
-46
-23
-12
1
-6
-14
-2
2
1
-2
-5
-27
-49
-47
-107
-128
-138
5
-43
-16
-11
13
53
32
-13
-17
16
5
2
4
-4
9
-6
10
-7
-2
4
5
-26
-24
-47
-58
-88
-128
-65
-82
-78
-7
31
19
0
-33
-12
0
5
11
3
11
11
0
11
-2
4
4
9
-4
-20
-2
-35
-53
-44
-52
-20
-29
36
46
-5
-1
8
10
-4
10
0
4
13
-3
-4
3
-5
-3
8
3
7
-15
2
25
10
-8
-23
-18
21
28
34
22
4
3
2
0
-7
-1
-6
0
3
-4
0
11
9
-1
1
2
13
6
9
50
35
12
16
13
14
15
8
3
5
3
0
5
10
1
1
8
-2
14
-6
11
9
8
-4
-4
31
25
30
33
10
35
9
11
-20
-11
-7
6
2
0
13
7
1
-4
8
12
12
43
17
7
21
0
16
54
31
25
30
3
69
28
-48
10
6
-4
10
3
7
1
13
9
15
11
23
53
10
24
15
8
19
18
46
29
22
38
65
30
-29
18
17
0
-10
-4
7
13
12
0
10
-9
37
8
10
14
45
16
-10
57
10
36
22
42
45
-3
22
22
9
-6
1
-5
1
1
-6
-1
-5
14
16
14
-14
9
49
28
24
35
29
7
13
26
21
35
46
24
38
20
0
2
-1
9
-15
16
-3
24
-17
63
9
13
20
-10
16
23
-9
-18
8
20
-9
13
33
18
11
-3
5
10
8
-6
1
7
38
18
-8
38
-16
-19
-11
-6
3
22
-24
-36
-17
-2
-31
9
17
27
8
-34
-9
7
8
1
7
37
31
5
4
58
-1
-12
-16
-33
-2
-1
-20
-17
-41
-1
-38
-13
12
-1
-20
-42
-16
1
7
-5
16
15
33
-9
-2
20
-25
-22
-27
-48
-23
6
-19
-25
-24
-21
-51
-26
-6
-33
-58
-33
-7
0
-3
-7
15
7
-5
-33
-16
5
-40
-6
-22
-20
17
-19
-19
-65
-20
-29
-12
-47
-52
-67
-79
-36
-13
-2
-3
8
-11
-46
-29
-27
-31
-14
-22
33
0
13
50
1
-19
-32
-22
-25
-13
-32
-59
-67
-46
-34
-29
-11
3
12
-27
-82
-46
-36
-23
-31
-10
-11
-15
15
58
3
2
0
-23
-9
-25
-53
-46
-20
10
-20
-23
-1
8
2
-15
-62
-46
-97
-76
-106
-15
-33
-5
16
41
21
22
11
-7
-19
-34
-19
-38
8
13
0
-35
13
12
4
3
-41
-68
-149
-140
-127
-100
-86
-48
-5
32
-7
-14
-24
6
-18
-40
-21
-11
39
6
5
-17
8
9
8
15
-24
-79
-129
-136
-164
-117
-145
-93
-38
-15
-12
-27
0
-16
-5
-25
-20
-2
39
-1
27
20
11
13
3
0
-9
-101
-99
-129
-170
-134
-132
-154
-73
-98
-78
-59
-10
7
11
-14
-10
-31
41
-2
22
0
-1
17
2
11
8
-83
-16
-94
-145
-126
-139
-153
-104
-127
-88
-95
8
1
11
13
8
-12
26
29
39
6
10
17
5
4
35
-48
-21
-24
-131
-54
-66
-99
-87
-114
-78
-78
7
-5
-9
12
19
-6
22
8
10
8
6
1
-1
1
47
-12
-22
0
-41
-17
-19
-38
-46
-88
-65
-53
-8
-15
8
45
28
33
9
10
19
14
4
15
3
5
66
8
-1
2
-14
14
3
5
-37
-50
-26
-25
8
-24
37
59
12
52
9
2
-10
0
10
8
-7
-2
47
0
-3
-13
11
27
17
36
-12
-41
0
10
0
-35
46
55
26
65
2
13
0
0
14
10
7
7
35
3
13
-30
35
51
18
34
13
0
13
2
4
-28
22
7
31
17
-6
14
-11
2
8
3
-3
9
21
-1
-3
-33
53
59
29
36
32
36
34
-10
-1
-55
-48
15
38
7
-1
20
10
13
8
1
4
11
18
6
-12
-27
66
36
23
24
38
59
60
6
9
-17
-71
-19
40
13
-2
11
-3
0
-5
6
0
-2
11
3
-4
-4
16
10
-27
16
0
41
-33
27
-3
-29
-34
6
5
8
-4
3
11
0
-3
2
3
-1
-9
1
-6
0
-5
-7
-4
-4
9
10
48
57
44
44
46
41
41
39
-11
-10
-8
-1
-1
7
-3
-6
0
-3
6
8
33
59
45
27
16
19
7
3
18
43
22
15
11
38
-15
-82
-59
-24
-5
7
2
0
0
-2
8
33
43
53
40
31
37
-10
-12
11
38
52
22
6
0
-13
-24
-58
-45
-41
-9
5
3
-6
0
-3
-11
-8
-33
-52
-43
2
12
28
23
37
24
23
13
-15
-8
9
-4
36
126
97
11
-2
7
0
-9
-25
-29
-15
-1
-7
-24
10
37
1
-5
-19
-18
-40
-75
-84
-65
-20
19
40
49
91
71
13
-5
-14
-27
-21
22
8
43
76
123
136
73
13
-26
-57
-84
-125
-129
-77
-68
-66
-45
-26
-29
-7
39
52
5
-6
17
76
65
49
5
45
14
5
-25
-26
-21
-102
-134
-130
-101
-84
-83
-75
-88
-39
2
2
8
8
-13
24
40
33
14
27
66
94
137
111
40
-57
-59
-60
-63
-43
-110
-103
-104
-94
-42
-22
0
-6
-35
-21
4
-12
13
44
46
0
6
77
85
46
-2
-27
-71
-64
-78
-61
-38
-28
-62
5
-1
-76
-15
30
48
28
0
0
-18
-37
-91
-66
-51
-54
-25
46
82
-1
-71
-35
-3
1
66
90
68
51
44
4
54
45
11
24
2
-12
-61
-71
-55
-16
5
16
75
141
123
66
52
64
132
101
44
81
95
52
75
50
102
71
19
15
-8
-14
-26
4
49
68
6
-16
-25
-46
-4
26
84
159
177
72
65
65
44
57
103
82
59
90
59
12
2
9
8
41
39
13
-19
8
-36
-34
-22
31
61
69
62
60
43
35
25
36
5
2
16
67
58
-12
0
20
21
56
17
-24
-9
-45
-30
-53
-92
-54
4
63
34
-49
-127
-69
-4
49
63
81
86
52
8
4
5
7
24
56
62
5
-37
-50
-42
-54
-127
-148
-90
-50
-115
-124
-116
-57
-11
-23
-2
60
11
2
-12
-42
-2
4
30
63
63
135
129
189
245
168
3
-77
-67
22
10
-51
-55
-7
38
-15
-60
-20
-13
22
41
-2
-1
-12
14
39
119
157
192
204
261
200
143
113
46
138
111
40
39
35
18
34
35
-22
-11
48
48
17
-6
4
19
63
133
169
208
208
233
234
218
267
230
174
133
79
47
43
48
25
18
17
10
13
38
29
3
-22
19
99
168
232
231
233
208
181
256
300
229
127
121
51
63
62
36
-40
-27
15
23
-20
2
4
-4
-2
41
96
193
222
253
218
231
220
194
127
94
61
-3
-12
-20
-18
49
29
-40
-103
-100
8
25
4
10
-8
8
88
161
241
161
155
181
178
125
83
45
-3
6
13
-15
-46
7
50
-29
-71
-82
-50
-22
7
-10
-4
15
27
28
30
119
117
161
116
40
-10
-59
-24
10
39
46
-9
-121
-92
-39
-41
-48
-13
0
-5
5
3
-17
12
25
17
112
119
99
64
85
96
40
16
-38
-9
-10
-38
-31
-1
-5
7
1
-6
-9
-5
-10
-3
-4
-4
-5
9
16
38
56
50
110
207
226
96
58
26
-49
-44
-5
10
7
11
6
10
3
-2
0
0
5
-1
-10
-9
-10
-19
-15
-22
9
35
28
40
29
24
57
9
2
-2
-6
6
1
-3
-2
-2
-2
5
-11
3
0
-5
-10
-9
-1
-12
-8
-5
0
-1
18
24
2
5
-2
-4
2
0
-2
-6
4
3
8
1
-6
-14
3
-77
-137
-160
-108
-71
-19
-66
121
-81
128
57
-4
-66
56
-42
-75
-61
-71
-42
-2
0
0
0
31
20
22
-5
13
17
-90
29
54
48
42
10
120
103
52
13
45
61
-73
-145
-100
-75
-36
-23
2
39
-7
89
88
46
34
49
26
47
35
39
111
105
150
125
78
61
73
83
-44
-67
-93
-62
-7
-4
-6
22
69
40
137
134
88
-13
12
75
29
0
41
-11
37
117
69
67
68
55
-29
45
82
-34
-64
-33
-4
-6
52
0
9
17
47
-63
0
44
51
52
61
66
74
95
81
89
87
74
38
16
44
15
22
119
60
-129
-9
-2
42
11
-21
-19
-30
-10
16
26
61
96
75
46
59
33
56
54
23
18
77
59
32
48
7
-96
-14
-68
-10
-35
-41
-25
-3
50
71
73
69
96
93
57
54
24
32
0
19
60
-5
9
92
53
3
-61
30
-94
44
36
50
85
41
18
57
58
54
96
109
31
3
-9
-3
-27
-13
62
25
-5
-20
24
0
-79
39
22
21
-48
-20
43
-5
-13
20
14
61
57
38
10
11
-10
4
-18
-30
-2
-25
-42
0
-25
-85
-56
96
57
14
-41
-20
57
2
-40
0
-20
-13
36
43
53
40
-1
-18
6
-75
-3
-16
-24
-53
-53
-68
-94
-12
10
-87
-94
-71
20
-55
0
-13
-50
-23
17
37
39
62
27
-2
17
-52
-18
3
-33
-1
35
-72
-118
-28
-28
-138
-132
-106
-61
-103
-62
-82
-77
2
56
40
60
103
63
30
12
-39
-66
0
61
-25
12
-21
-102
-49
-156
-238
-170
-81
-76
-56
-19
-52
-10
24
120
89
87
47
18
10
-12
-18
-35
58
112
-72
-95
14
-28
-34
-131
-125
-207
-184
-200
-117
-99
-93
0
45
106
97
66
50
34
-36
-39
19
23
65
118
5
-63
32
88
-7
-88
-150
-225
-250
-247
-167
-173
-141
-12
104
126
86
26
-1
-10
-19
-30
36
86
117
165
-36
-148
56
61
33
-41
-105
-206
-236
-303
-271
-246
-148
-22
71
80
45
6
-8
-8
14
4
125
147
146
156
-122
-78
16
37
86
16
-109
-118
-213
-255
-258
-223
-122
-86
13
62
15
-6
-14
-11
37
28
131
172
145
143
-51
-122
1
-14
46
34
-81
-106
-115
-156
-151
-132
-67
-35
-28
9
15
37
7
29
34
45
120
104
72
141
47
-55
49
-6
42
74
-77
-114
-69
-102
-63
-47
-16
0
-51
30
12
66
62
82
39
86
149
156
108
131
78
-13
-12
-24
-4
59
-20
-56
-45
-47
-38
17
0
52
8
49
66
80
55
96
52
67
111
94
65
144
118
-35
6
-17
-15
22
-19
-93
-75
-41
-20
-8
16
31
10
68
85
40
35
98
54
49
89
103
101
83
4
9
-10
30
-16
27
12
-3
-27
-18
-5
1
53
73
54
51
66
26
22
78
33
16
19
-31
-56
33
-4
28
9
-4
-12
66
19
-10
-66
-107
-32
16
30
22
10
28
8
-4
18
0
-25
10
77
-23
21
-58
-75
-18
-3
55
38
80
51
72
37
5
40
37
13
27
50
49
22
11
14
12
-68
-63
-27
-164
-106
-15
-60
-29
2
13
46
85
37
-3
-33
-22
36
9
26
14
-20
31
-22
9
35
-34
-154
-86
-56
-65
23
-14
-52
-15
-1
3
-29
-10
42
25
-5
61
185
87
-9
25
122
172
9
19
-26
-205
-143
8
-17
-24
85
64
0
-3
35
32
33
34
26
42
29
36
35
39
44
24
42
28
11
28
21
24
40
42
32
26
39
31
42
40
34
32
35
30
2
-9
-18
2
37
27
26
22
78
59
-19
-24
24
32
32
38
30
39
50
37
31
41
41
25
25
29
11
-52
-73
-29
75
41
72
152
-32
-55
-136
-141
-151
-35
0
8
43
37
32
42
29
48
75
54
52
48
56
40
97
23
84
52
40
16
-29
89
-128
-21
-111
-198
-189
-171
-131
-82
28
32
21
45
84
102
115
88
51
95
231
236
152
61
145
170
173
159
163
47
-72
-183
-234
-125
-156
-191
-55
-1
36
35
58
31
57
69
96
61
41
177
281
296
127
129
80
-21
1
-29
-116
-134
-240
-291
-277
-149
-97
-51
-46
41
27
0
53
84
125
75
79
134
171
197
126
50
18
-28
-35
-49
-110
-176
-162
-228
-294
-224
-18
18
97
93
-44
16
31
61
37
60
99
61
99
136
128
-28
-91
-92
-83
-54
-166
-272
-184
-233
-191
-237
-151
-9
110
88
-46
13
37
60
-15
-12
12
-12
-15
-3
-74
-114
-207
-227
-149
-109
-96
-236
-303
-337
-349
-248
-69
-21
121
40
44
19
22
8
6
144
119
-9
-61
-86
-121
-143
-276
-255
-143
-212
-226
-273
-393
-367
-282
-92
16
-36
-29
104
-5
80
89
21
5
41
25
-10
-76
-111
-186
-196
-205
-234
-155
-125
-191
-223
-253
-220
-256
-109
13
75
172
116
-46
22
71
11
-13
-47
-55
-93
-118
-171
-173
-238
-225
-123
-116
0
-83
-113
-78
-112
-16
-21
53
95
167
51
-51
-151
-97
-69
15
0
44
27
37
9
16
-15
-65
-37
-26
16
-2
70
126
13
109
114
88
43
65
0
-20
-201
-129
-67
60
137
185
204
133
107
114
59
79
187
66
-8
-29
115
111
143
48
6
68
38
66
12
28
-93
-121
-187
5
169
274
317
249
142
160
143
164
225
144
62
-18
-5
50
25
-53
-39
25
36
56
35
92
-42
-71
-137
-35
24
159
312
365
325
284
220
294
302
216
88
12
-70
-72
-28
-84
-38
-116
-66
48
91
113
7
-66
-97
-75
-62
49
222
246
238
332
386
332
293
145
4
4
-51
-116
-188
-70
-121
-214
-248
-134
-63
72
37
-81
-133
-39
-118
-57
-8
-38
61
188
197
153
113
103
-56
-93
-51
-27
-61
-15
-15
-84
-78
27
19
23
162
-22
-73
41
-92
-188
-144
-184
-189
-30
21
-33
-48
15
-24
-37
-41
6
-87
-93
-153
-169
-3
49
68
-36
138
49
0
57
69
-31
16
-2
-182
-174
-234
-169
-287
-152
-103
-104
-96
-52
-78
-154
-114
-97
64
114
42
-51
78
82
-23
61
103
58
60
34
-64
-121
-193
-143
-122
-115
-104
-37
-90
12
76
-28
-3
9
-21
-8
51
-36
48
115
67
38
22
60
29
10
-1
-63
-86
-62
-47
-84
-61
73
37
-36
31
-31
-46
36
98
76
33
-37
0
34
51
37
-12
26
45
43
33
3
-11
-11
-21
-43
-46
-12
-27
-28
42
-41
-24
12
-26
74
40
57
116
56
14
3
2
45
40
51
68
50
34
14
-6
-21
-23
-26
-80
-103
-89
-158
-221
-107
0
66
58
38
95
110
36
-38
-5
36
49
45
33
30
23
-1
-54
-66
-25
-63
-88
-32
-6
7
23
19
-6
34
40
28
-3
17
28
-35
-16
112
124
40
-2
58
125
116
38
-22
-140
-181
-77
38
61
44
79
86
56
36
35
-5
-3
3
3
3
-2
8
6
-2
6
-5
1
6
-3
10
11
9
6
-1
-5
9
3
-2
12
-4
-5
11
-3
3
6
5
4
5
2
-1
-2
8
5
12
3
-7
-6
8
-3
0
7
13
-2
10
0
-5
1
-2
4
12
10
-6
8
10
0
-3
9
0
-2
-25
-43
-9
-10
0
2
7
20
13
12
6
-4
13
0
-5
8
-4
3
-3
0
7
36
29
2
-5
4
12
-61
-32
-48
-122
-65
-22
-29
-26
-29
4
22
14
-4
5
9
5
3
4
20
50
29
-30
-33
-6
1
-7
-17
-11
-94
-111
-114
-69
-56
-110
-109
-55
-6
-1
10
10
8
3
-18
-17
2
-15
-51
6
-12
-51
-96
-70
-94
-71
-93
-77
-26
-53
-75
-66
-6
49
20
-15
-9
0
1
19
50
35
63
-5
-24
-37
-47
-34
-1
-19
13
-3
19
52
66
65
53
52
56
66
47
31
18
13
-11
59
62
53
26
21
9
37
80
29
3
75
14
11
23
-1
59
75
134
42
-10
-5
66
82
52
-13
15
31
17
-15
-78
-89
-4
78
34
8
33
24
44
93
38
-3
4
12
15
-18
12
47
100
64
28
1
0
3
28
34
37
90
99
46
64
119
124
125
155
31
-10
-8
-53
-62
-42
48
115
94
10
-26
19
-5
10
8
3
50
81
74
64
108
115
168
191
115
113
15
-48
-33
13
20
65
32
29
37
63
57
46
0
28
63
98
60
42
16
53
1
51
104
87
76
66
61
-28
5
84
129
89
27
35
78
64
34
6
-2
3
-31
14
29
-29
-28
76
95
155
124
37
-4
-42
-42
-31
59
84
88
56
80
75
44
21
22
16
-7
-28
8
50
17
34
83
38
37
31
-41
34
55
39
-20
-12
26
109
112
77
10
-53
-26
20
1
-7
0
-22
-37
-11
1
97
124
41
-15
-36
-7
31
69
74
19
19
-28
48
-14
-75
-99
-128
-54
30
16
-12
1
9
19
14
27
24
-13
-22
32
11
-41
-31
61
77
103
15
-47
-100
-161
-131
-105
-68
22
65
5
-11
13
-2
5
-11
-10
-57
1
34
-35
-81
-107
-35
60
99
85
-14
-39
-106
-119
-82
-89
-55
50
49
-37
-37
3
3
0
4
-29
-23
-84
-125
-126
-180
-164
-78
50
104
14
34
47
-30
32
-15
33
99
58
25
6
0
7
11
19
19
19
-91
-127
-115
-154
-192
-105
0
72
31
71
34
37
98
5
0
48
30
-9
16
15
8
8
25
-3
44
11
59
22
70
48
15
63
71
-27
-23
-72
34
21
-22
-51
-24
-15
15
18
47
17
9
-5
22
13
76
107
126
79
140
200
184
114
53
0
-84
-13
21
-6
0
40
65
82
93
66
40
6
-2
-7
1
83
52
62
104
70
95
95
108
80
24
-47
-29
8
2
8
13
18
32
61
37
80
65
44
9
-17
-17
15
51
52
18
56
57
23
25
41
15
40
55
28
0
-24
47
53
38
38
30
11
17
0
14
4
-5
0
6
8
24
49
28
67
97
91
83
59
48
36
0
49
27
-26
-44
-44
-59
-30
-3
9
2
-3
16
20
-4
-45
-41
-56
6
64
46
2
-4
26
18
-28
28
19
-47
-52
16
32
14
16
7
13
1
12
-3
12
1
-23
-39
21
79
17
-28
42
125
127
64
30
-13
-56
-52
-1
34
36
30
21
11
0
3
2
-5
8
11
10
12
-3
14
7
-1
4
-6
-8
-14
-4
5
-4
3
-2
-4
9
10
-3
-2
5
5
5
-2
-2
4
0
3
-3
-15
-7
4
16
10
19
-9
6
-2
-5
6
11
27
10
20
18
12
1
5
-6
-2
1
-4
-9
-6
-4
1
-11
-19
-16
-25
-18
-32
-9
14
-32
-13
-11
7
4
9
15
14
7
3
11
-1
0
9
10
3
19
12
34
41
-4
4
14
-20
52
30
4
21
28
-13
-17
10
-1
-2
-2
10
1
6
-3
3
-16
0
-27
-29
-54
-30
-13
3
87
123
169
118
87
102
61
14
8
6
0
-1
1
2
-3
9
-4
-14
-20
-13
-22
-8
-38
21
29
78
93
224
194
181
204
124
101
68
37
-4
23
13
-8
2
10
-1
-7
-26
-12
0
-26
-6
-6
24
103
126
170
204
243
182
142
132
95
83
73
25
9
4
19
2
-5
6
0
-25
-28
-16
-20
2
7
32
79
71
164
97
76
10
109
213
154
99
56
48
36
2
16
-4
8
-2
-7
-6
14
8
22
20
20
10
76
136
141
51
40
86
188
159
182
125
70
65
34
11
17
-4
7
14
16
-9
34
7
16
14
-29
-35
39
71
-12
55
43
93
181
176
101
87
64
64
26
22
1
-1
1
23
13
19
12
1
13
-29
-3
35
-56
-8
-32
-73
-47
114
155
136
85
63
47
37
18
14
0
-11
-3
0
-1
9
14
48
38
12
31
0
-1
9
-19
-27
-39
8
128
38
45
32
30
32
34
20
-1
-6
2
2
12
37
38
61
60
53
69
91
25
-12
-9
-75
-85
-36
109
53
30
48
34
21
27
0
13
4
-4
9
14
27
62
86
103
93
143
135
162
115
19
14
12
120
180
42
36
36
42
0
15
-1
-3
3
-2
-7
19
26
75
90
116
134
165
174
266
394
233
83
27
158
154
125
30
66
81
25
19
7
-6
8
-5
6
8
34
45
106
104
128
174
255
329
396
198
52
18
159
97
114
98
103
89
6
4
3
-10
15
11
-7
-2
18
42
111
125
116
136
213
331
295
213
78
1
90
142
47
82
84
37
10
0
-6
-16
18
9
6
7
0
23
54
100
86
157
300
315
276
152
62
107
153
145
63
90
53
28
-20
-19
5
4
5
9
-6
-30
7
-35
17
46
78
135
228
214
205
150
113
182
265
155
84
56
33
23
-4
-16
1
-2
8
7
-8
-33
-11
-31
-26
-8
2
-12
77
72
74
141
209
314
200
137
85
24
29
11
6
20
-1
5
-4
5
-4
0
-19
-32
-43
-91
-103
-164
-35
28
123
253
239
252
205
90
86
30
30
-12
8
18
14
8
5
7
4
-14
-32
-17
-64
-89
-109
-139
-176
-72
-5
141
163
203
105
43
49
3
-9
-18
-12
13
6
-1
-1
0
10
-1
4
-13
-23
-54
-59
-84
-116
-21
23
96
68
32
34
49
18
18
11
11
4
8
-1
2
-5
8
9
-6
5
-10
16
-17
-40
-46
-68
-51
-57
-34
-12
-36
23
27
28
-4
19
19
2
22
8
6
6
-2
1
-10
-8
-7
-12
-8
-7
-22
-28
18
21
3
22
2
33
54
4
7
27
4
3
9
-3
9
-2
-5
4
-6
9
-4
3
-2
-7
7
-6
-13
-28
-5
-9
0
32
13
11
19
1
4
6
7
9
9
5
4
3
8
-2
-1
5
-6
0
-2
-2
2
9
50
-4
25
23
15
16
16
11
7
4
0
11
10
4
9
6
8
4
2
6
2
20
2
10
1
39
-14
29
37
65
29
83
16
12
5
1
3
-2
1
11
0
5
-1
9
6
17
50
0
25
6
22
4
18
95
85
1
61
47
44
8
-65
-11
-6
-7
8
11
7
0
10
8
20
14
60
-6
13
8
29
-4
59
68
16
48
18
43
24
-10
-24
-17
15
-1
-5
-5
2
5
17
13
-1
51
-15
-12
-3
-33
1
25
10
36
23
16
33
58
14
28
50
32
0
-36
-17
5
8
16
19
17
0
24
-34
11
-8
35
6
11
-4
48
-4
5
53
1
28
38
27
-17
21
62
17
13
-3
6
53
6
44
-39
16
31
25
16
1
40
27
11
-24
-6
20
4
24
-12
-7
39
0
11
91
6
-5
53
27
51
-30
-19
-16
23
43
-11
22
18
6
-29
50
14
-29
19
-29
-29
7
0
-2
51
-43
21
17
19
12
59
-32
67
62
36
22
12
27
-1
38
47
8
-28
-45
-12
-67
1
19
-28
7
-67
-8
62
3
3
34
-26
-52
29
9
2
19
45
28
30
1
32
-32
17
-16
7
-6
11
-75
-69
25
8
42
-42
5
35
2
3
-64
12
-65
-34
-18
-15
5
20
10
25
-16
13
-50
41
-13
-42
-38
-8
9
-9
7
-2
9
-10
-51
-66
-6
-61
-24
2
55
20
13
13
27
27
-13
-31
16
16
16
-64
83
-32
-17
14
-1
11
-6
-47
11
-49
-23
-98
8
-28
10
-55
-2
56
33
8
37
22
21
-22
7
9
1
-19
38
89
-5
-4
6
-12
-11
-77
-76
-7
-108
-21
-44
-80
20
23
17
26
23
12
0
14
-4
-48
7
34
60
-5
46
-7
12
-2
-13
-34
-91
-175
-148
-75
-103
-59
-17
-39
-1
15
36
5
-24
-51
-26
-1
45
51
39
35
60
-32
20
-15
-14
-80
-90
-177
-128
-144
-141
-111
-110
-53
-15
-2
-37
-37
-24
-34
1
-30
25
91
63
50
19
-20
12
-9
-6
-63
-92
-65
-119
-172
-136
-170
-122
-89
-56
-40
-23
1
-23
-24
-7
37
32
60
108
48
72
-10
11
6
0
-54
-59
-121
-78
-94
-97
-127
-113
-65
-64
-52
4
37
-14
28
18
95
16
84
96
47
75
-24
4
49
-62
41
-58
-32
0
-37
-53
-28
-36
2
-70
3
16
-8
20
7
14
69
43
99
109
71
50
-6
0
37
-19
21
0
28
8
66
0
51
-17
15
4
16
23
30
30
31
70
45
72
70
42
28
65
37
-3
29
53
-8
84
24
37
4
62
63
35
35
3
-6
69
-26
60
15
66
35
10
27
101
30
56
7
-9
19
26
40
43
-23
13
24
43
3
30
-17
48
12
6
-8
19
1
68
46
-3
34
19
-42
63
22
4
10
6
52
20
54
23
-11
11
14
9
38
-7
3
-30
15
28
-36
8
-20
-61
31
-20
12
10
7
0
29
-3
10
-8
16
-7
31
43
4
-6
36
40
23
-49
53
-58
-41
60
-50
-36
33
-32
-4
9
11
1
2
18
3
17
17
90
92
-40
-12
97
126
44
-24
18
-60
-86
64
-5
-19
-11
20
-7
10
-5
14
0
12
7
-2
-6
-7
-18
-45
9
76
4
-39
-4
48
57
-23
-3
3
-41
-11
32
7
-4
17
3
13
1
2
-29
6
-71
-130
-147
-157
-158
-105
-70
118
0
156
70
44
5
50
-77
59
-66
-78
-54
-55
-48
0
15
28
31
43
-62
28
37
-17
65
-28
56
-12
102
53
66
90
47
27
52
-11
-59
-149
-126
-111
-75
-25
73
10
116
52
64
54
51
30
43
26
16
101
38
133
94
95
64
33
37
28
-63
-112
-67
-69
-53
-29
26
99
34
109
83
49
-1
35
-2
-7
13
8
17
37
66
34
34
25
42
-15
9
-6
12
67
-5
-21
22
2
65
28
73
1
21
-21
19
32
13
66
37
59
44
41
38
28
44
39
14
43
66
21
67
-15
-108
65
9
83
19
50
-11
-12
5
28
39
17
54
21
32
5
10
51
13
30
54
48
39
85
-18
63
-56
37
-34
24
7
12
-24
3
13
17
42
41
5
40
-8
5
19
11
8
24
37
15
62
-21
37
81
-38
-64
41
49
50
35
43
21
44
41
30
44
54
15
15
21
4
3
1
-20
1
14
14
-38
67
-62
-104
117
-4
52
-41
0
-9
-8
10
-10
24
28
9
37
0
25
-11
0
-20
-34
-4
-21
-7
-22
-72
45
-10
23
53
17
-28
-23
14
0
-17
-8
9
11
46
52
43
20
19
-7
-15
-31
12
-31
-9
-82
5
-7
-109
-53
-7
-73
-121
-71
-38
-45
-1
-26
11
27
51
39
30
33
8
-17
16
4
-24
9
-1
28
1
-2
-145
-47
-63
-128
-133
-107
-87
-72
-58
-45
-25
32
38
41
62
49
13
26
29
-41
-30
-21
47
-60
71
-38
-107
-105
-181
-203
-155
-144
-99
-75
-29
-40
-8
28
88
62
72
25
27
-1
-10
-40
-12
2
43
43
9
-70
-27
-88
-110
-154
-184
-215
-157
-166
-114
-92
-51
49
60
60
56
30
7
-47
-35
-28
0
59
89
88
53
-117
63
-12
-107
-149
-221
-203
-250
-172
-189
-140
-62
19
61
53
13
-2
-29
-41
-57
-12
25
76
142
40
42
-161
47
21
-71
-124
-179
-255
-254
-259
-201
-165
-94
-15
7
-7
-15
-39
-37
-37
-44
56
68
145
123
67
10
-190
70
66
-20
-79
-164
-223
-218
-214
-216
-127
-129
-42
-37
-14
-32
-56
-8
-14
14
67
96
134
127
62
21
-109
10
61
-31
-49
-128
-89
-141
-127
-110
-84
-69
-29
-20
-17
-18
2
35
2
41
71
99
101
93
60
86
-37
0
94
22
-93
-21
-127
-45
-72
-25
-21
-24
-7
-11
-27
33
39
43
53
58
98
107
109
117
112
87
-37
-75
51
13
3
-27
3
-25
-12
11
16
59
36
35
36
23
41
68
25
68
80
84
83
94
54
120
55
-69
28
17
1
-17
-24
3
-14
23
58
35
47
26
20
39
38
27
51
69
75
71
86
25
71
15
-61
-40
38
66
46
18
8
0
24
48
58
57
46
37
48
28
3
37
8
58
13
-8
-37
-15
-77
-15
-7
-39
49
119
69
27
-20
-16
0
33
30
17
16
27
22
-2
-8
-20
40
-22
17
-33
-23
-57
-12
-62
47
33
72
95
94
25
28
32
12
32
40
11
25
25
37
-17
-23
13
-95
-72
-66
-95
-120
-45
-33
23
-31
9
104
87
28
4
-12
-23
33
34
3
-17
25
19
-22
-39
2
-107
-122
-83
-66
-73
-33
2
-51
-49
-8
0
-107
30
20
-10
21
108
105
-5
-20
49
109
60
35
-4
-95
-158
-118
-55
-16
-51
36
53
34
-6
6
4
3
-5
0
-12
-34
-35
-22
-43
-49
-51
-1
-4
-32
-19
-41
-36
-24
-32
-4
-27
-33
7
5
-6
8
3
-8
-1
12
-71
-51
-63
-20
-17
-24
-14
-20
78
88
-116
-38
-33
-44
-32
-16
-20
-22
-31
-17
6
2
-3
0
-18
19
-15
-87
-91
-31
66
62
97
123
-75
-131
-188
-76
-13
-82
20
44
60
17
-40
13
0
4
0
61
48
58
59
-66
-31
-86
118
33
56
27
-21
55
-65
-23
-124
-191
-173
-201
-218
-198
-84
21
-18
-110
86
124
192
126
86
56
142
189
139
5
51
58
70
64
36
-45
-128
-236
-224
-161
-236
-241
-195
-144
-22
57
-24
38
51
113
46
61
20
79
132
116
39
-11
-31
-66
-91
-109
-158
-116
-155
-256
-263
-155
-39
53
-18
-127
-9
9
56
124
150
85
80
74
53
52
26
44
-23
-10
-80
-108
-103
-98
-68
-89
-98
-62
31
137
124
80
-111
5
91
70
88
77
58
41
101
131
111
30
34
-14
-44
-79
-130
-116
-49
-10
22
-70
-73
97
162
136
-135
25
0
74
9
11
-59
0
80
105
56
28
-16
-39
-76
-61
-84
-105
-131
-76
-89
-91
20
72
76
134
63
18
21
15
3
106
111
104
96
96
128
76
81
46
23
-94
-150
-164
-189
-180
-65
31
106
83
12
20
-114
44
30
17
6
72
66
79
63
53
48
94
103
43
-22
-13
-121
-62
-63
-26
-2
2
79
120
238
234
-135
86
79
56
8
6
-10
-55
-65
-42
-4
63
49
35
46
37
-6
38
64
66
162
101
169
153
198
186
-104
-112
-109
-89
-7
1
4
45
67
67
118
87
62
-4
-47
8
46
119
185
209
213
213
128
97
91
107
-164
-200
-83
-41
42
93
184
159
123
57
22
50
89
85
56
27
70
113
220
242
103
34
27
-16
7
5
-95
-80
-141
-129
10
165
215
242
145
69
90
87
149
116
88
56
64
39
53
32
-66
-101
-80
-81
40
-17
113
-48
-69
-74
-23
-9
49
96
200
186
146
138
137
138
119
66
29
-52
-85
-116
-134
-117
-102
-35
48
-128
155
12
-65
-90
-70
-124
-60
49
54
67
121
186
171
148
114
7
-58
-50
-146
-157
-56
-135
-62
-27
-31
-264
84
39
-48
-90
-104
-92
-88
-132
-133
-92
2
48
62
72
81
11
-43
-25
-24
65
-16
19
-14
-61
-33
-225
15
104
-15
-39
31
-44
-94
-113
-128
-103
-39
35
28
19
64
66
41
72
36
34
-27
-22
-61
-82
31
-49
-37
170
-7
52
40
87
93
119
117
130
52
17
-15
-8
-42
23
70
-25
-2
-9
-51
-26
-25
61
96
82
-58
78
54
24
80
102
145
164
172
201
126
91
27
-44
-20
16
66
14
45
66
47
61
74
32
25
-57
-22
45
119
71
88
52
96
92
139
109
70
14
6
-8
7
25
65
38
36
49
43
61
62
35
109
58
-46
6
18
80
61
27
36
55
77
41
47
50
27
39
22
35
3
21
72
61
15
-4
-31
-39
-96
27
101
115
48
69
22
21
32
29
36
66
84
73
34
33
15
20
35
22
12
-102
-122
-184
-239
-187
-7
12
-35
122
99
42
-8
-11
-8
26
59
47
39
27
40
8
-6
-9
-29
-46
-86
-35
-11
46
-13
47
-46
-2
26
-124
-10
20
-32
-7
101
137
99
41
84
141
167
127
47
-56
-130
-132
-65
39
67
81
87
123
119
41
3
0
-31
-3
-106
-130
-84
-105
-39
-87
-40
158
96
93
34
-69
-6
108
-167
-72
-45
-28
8
-5
6
-6
9
17
1
48
-112
-58
-4
-103
1
-162
7
46
-14
173
0
48
-27
107
-150
-211
-105
-54
-100
-22
-15
-4
96
38
145
55
4
31
87
-47
26
-27
-13
58
20
81
15
-8
90
94
-51
-130
-19
12
-78
-7
-14
3
122
103
83
100
41
53
44
49
42
29
60
59
104
119
56
33
129
85
7
15
41
-34
-65
-117
-18
-22
67
0
39
64
81
6
-12
-13
82
93
25
53
102
66
112
90
84
-14
-5
6
39
-48
-92
-122
-34
-21
-70
10
11
23
40
0
-20
-48
34
59
22
-3
44
-36
-2
51
24
-31
68
-34
-60
-2
5
-76
31
-17
-150
25
10
48
-32
5
38
-57
-13
-20
0
-20
-28
-33
-51
43
-27
-57
25
-50
-52
-106
-90
1
13
-11
-67
7
14
41
-63
-31
-10
-74
-58
-90
-41
-3
-62
-92
-76
-31
-58
-110
-36
-16
-67
-187
-202
-64
125
-12
-8
54
6
30
-35
36
-11
-114
-118
-143
-135
-76
-132
-109
-135
-97
-67
-76
-74
0
-116
-146
-183
-42
28
28
-48
57
32
-45
-87
-6
-5
-111
-119
-149
-214
-102
-103
-139
-143
-71
-149
-72
-75
-128
-237
-203
-139
-20
24
24
-104
-3
-6
-67
-77
-81
-89
-107
-84
-176
-169
-118
-122
-150
-119
-21
-95
-82
-83
-171
-193
-233
-183
-30
45
77
-122
-159
-123
-103
-55
-67
-85
-93
-68
-174
-55
-55
-96
-141
-84
-50
-84
-78
-76
-158
-66
-83
-110
-61
41
94
-169
-172
-159
-144
-58
-70
-67
-51
-109
-95
27
6
-36
-76
-40
-52
-74
-66
10
-26
4
18
11
-53
-13
-27
8
-92
-147
-261
-177
-147
-74
14
-86
-62
19
3
-33
1
10
9
-59
-67
36
53
57
51
21
-104
11
-3
158
-43
-113
-211
-278
-264
-172
-85
-87
-25
37
-20
-17
-23
46
36
-16
-54
-26
103
67
74
47
-91
18
59
95
-27
-100
-177
-243
-253
-253
-194
-152
-68
6
-1
-29
-7
26
17
12
-4
-81
34
82
52
71
-178
-30
-21
55
51
-100
-179
-153
-261
-279
-218
-250
-165
-112
-101
-84
-31
33
-25
15
11
-48
16
6
66
56
-140
14
-62
0
141
-87
-104
-67
-209
-261
-191
-207
-207
-193
-200
-150
-126
32
3
-21
11
16
-23
-10
76
29
-39
21
3
-71
113
-24
-99
-10
-95
-172
-112
-116
-175
-215
-229
-133
-174
-16
-22
-1
6
55
-6
-40
-12
94
40
22
-55
-105
67
47
-67
-18
-8
-63
-61
-31
-92
-137
-252
-119
-119
-134
-54
60
24
7
115
-7
-69
-96
-75
14
-25
-64
55
108
23
-27
-42
17
-4
16
-31
-65
-104
-78
-29
-68
-63
109
34
30
97
8
-37
8
9
-23
-38
-62
47
39
59
6
-45
9
57
20
25
-34
-30
-25
-24
-63
-80
55
35
0
24
-56
57
-70
-15
35
-15
0
122
60
5
10
13
48
48
36
80
29
4
-12
-26
-45
-29
-137
-21
-30
-1
-120
-12
-74
-8
-3
63
-20
108
81
-10
-46
-13
68
37
2
31
31
25
-62
-68
-62
-94
-168
-43
19
-14
-3
-36
-102
-92
-28
-7
33
-31
20
2
-57
-65
94
102
3
16
70
148
28
20
-21
-138
-225
16
14
-6
31
100
-4
-16
-54
-17
0
-88
71
-23
-73
-73
-104
-156
-128
-27
-62
-89
-57
94
-12
-190
-158
-192
-171
-102
-97
57
65
9
12
-7
-2
1
14
0
0
9
12
10
9
7
7
11
6
0
2
9
0
5
-1
-1
-1
2
4
7
-1
7
-2
4
9
0
3
8
2
5
-11
2
14
35
30
22
-8
11
0
30
0
12
11
8
21
5
4
7
-1
0
-2
-1
9
17
25
7
22
-31
-21
6
-29
-5
-25
12
-5
9
-16
-3
-1
1
17
4
16
15
17
6
9
15
7
24
16
20
52
39
5
-15
49
6
-34
-13
50
47
-6
2
18
2
13
-4
4
5
7
4
0
0
-5
9
-4
0
30
6
-9
25
50
48
44
62
145
78
33
36
26
4
19
-4
1
0
12
9
-7
-24
-11
-2
-26
-41
19
12
-42
34
-17
22
159
128
158
110
111
57
33
26
17
12
9
2
0
-2
-11
5
-36
17
0
-81
-43
-53
-49
9
-3
-31
107
180
64
108
97
26
39
29
18
13
19
0
0
18
-6
12
-73
9
-33
-78
-67
-132
-67
-13
-75
-60
-46
158
26
59
95
49
50
6
-2
10
13
1
16
21
7
14
-27
46
-12
-6
-45
-134
-66
-38
-104
-59
-67
115
26
16
95
58
47
32
10
-8
18
11
0
21
34
4
3
37
-22
-65
-52
-98
-119
-76
-147
-107
-152
119
28
3
54
36
-6
25
-7
-2
2
7
0
4
22
-4
4
27
-42
-46
-31
-59
-81
-123
-147
-260
-174
-59
41
42
-4
-16
-16
-6
-4
-3
14
8
5
-13
-8
-18
5
27
0
29
18
-39
7
-117
-69
-205
-117
-72
5
-57
-53
-37
-21
-3
13
-9
7
4
8
-45
-31
10
4
20
10
54
25
-1
98
-95
-71
-107
-84
-64
25
-83
-13
-29
28
-12
12
-5
3
6
-5
-27
-35
-44
-12
-2
35
43
16
89
92
-3
-15
-20
-54
-27
-52
-18
29
22
40
-16
-4
-2
18
14
17
-27
-36
-81
-59
-81
-6
7
-12
78
86
44
76
53
-28
30
-65
49
15
74
63
2
5
11
11
15
7
-15
-29
-62
-86
-95
-47
4
-25
26
74
76
117
95
43
37
-2
-4
-13
117
30
18
-7
-3
-3
21
14
-1
-64
-62
-101
-95
-62
-14
-81
-26
11
-11
51
104
53
37
7
-10
-56
40
-3
-2
10
1
-6
9
16
15
-86
-35
-67
-147
-93
-60
-121
-23
-53
-9
16
21
24
26
57
4
-62
-2
2
-6
-7
-14
10
12
4
42
-81
-23
-27
-162
-116
-53
-138
-34
-92
-73
-42
23
17
28
63
24
-24
-1
-13
-28
-2
7
6
10
1
39
-34
-60
0
-143
-103
-107
-147
-123
-155
-180
-118
-57
-23
-4
108
29
41
-25
-4
-12
9
18
5
4
0
29
27
-48
-27
-95
-65
-148
-110
-236
-156
-215
-92
0
52
-1
134
73
45
38
-30
-2
11
10
15
1
-13
22
9
-19
-76
-47
-56
-85
-76
-192
-167
-126
-86
81
-8
2
102
94
37
-3
-2
-5
6
13
5
2
0
15
-16
4
-38
-26
7
-9
-72
-36
-120
10
22
85
-49
-75
61
44
25
31
5
10
8
8
0
7
6
16
-6
-23
-30
-3
55
1
-15
21
-62
-19
-67
-12
-85
-86
-15
84
12
6
22
6
16
4
6
8
10
11
2
-8
-33
2
40
-15
-10
17
37
47
-18
50
-30
-35
11
58
14
33
15
7
5
2
9
9
10
10
-1
0
-2
9
7
-27
-10
18
29
5
9
32
-14
0
13
20
20
10
10
10
11
12
-3
13
-15
-9
-18
-22
-27
-102
-155
-189
-163
-70
-41
27
85
127
70
102
49
39
52
50
-57
-90
-58
-52
-31
-4
10
22
42
48
37
38
87
79
62
8
29
-18
8
40
42
77
38
-6
9
61
-57
-185
-200
-134
-78
-50
25
89
133
133
80
56
43
52
63
49
75
52
46
72
79
91
53
29
32
38
7
-81
-93
-107
-75
-12
4
81
111
96
68
66
15
-4
-21
-26
11
22
5
23
28
68
56
1
29
59
17
29
100
90
-22
-80
11
22
28
8
13
21
50
63
17
36
80
42
41
40
20
18
39
-14
7
42
31
8
54
127
94
30
1
4
66
80
59
37
89
86
58
57
57
48
18
19
40
9
-22
-19
-28
-18
0
-37
-10
35
69
111
0
35
27
59
76
1
-27
-14
-18
9
19
-29
0
12
49
0
-43
-20
-52
-55
-41
-38
-27
-49
-25
61
2
1
-25
-25
27
87
42
37
-23
5
-9
-71
-66
25
31
26
-30
-44
-57
-94
-85
-41
7
-65
-59
19
-108
-10
-16
-9
-66
-70
-130
-53
-63
-125
-143
-106
-76
-17
8
-1
19
-19
-44
-43
-107
-74
-33
0
28
-15
-125
-20
-44
18
-39
-155
-196
-137
-96
-157
-147
-121
-97
-44
18
5
17
22
-5
-24
-59
-81
-30
-21
-28
23
-105
-108
-80
-40
-59
-185
-117
-48
-87
-92
-67
-83
-41
3
29
13
31
25
4
5
-24
-60
27
60
-31
-9
-73
-46
-37
4
-36
-141
-113
-66
-133
-150
-71
-108
-63
13
30
42
46
29
-21
-28
-56
-77
13
72
47
-29
10
71
40
-23
-104
-166
-43
-40
-111
-97
-64
-159
-54
50
65
40
5
36
2
-26
-36
-52
23
66
75
-74
76
69
61
21
-76
-169
-77
-132
-179
-79
-120
-175
-60
70
42
29
-15
-29
-38
-25
11
25
51
108
69
-120
24
88
117
57
-21
-80
-60
-138
-147
-184
-274
-204
-62
65
29
11
-42
-5
-31
-66
-30
55
89
129
62
-248
9
80
133
60
19
18
-1
-60
-77
-151
-186
-216
-65
35
61
18
-17
3
-22
-41
-36
66
79
107
101
-222
14
107
118
105
65
43
-35
-45
-79
-82
-93
-141
-92
16
53
16
23
3
0
-7
-15
106
57
104
84
-75
-19
0
46
132
92
76
57
19
-24
13
6
8
-39
13
58
51
42
11
26
-43
21
111
42
97
121
52
-5
63
83
131
82
26
24
27
48
29
26
17
-5
13
18
52
67
49
64
-47
3
95
79
89
96
56
6
77
112
212
162
52
57
50
61
-1
33
25
27
-28
0
20
-5
44
77
-18
-20
11
22
50
120
4
38
23
34
97
135
59
8
-16
0
-48
-3
-15
1
9
4
33
-40
4
56
-12
-26
19
-59
-33
61
38
36
90
119
129
78
12
-2
17
-46
-46
-45
3
-21
-8
15
36
-49
-21
-43
-93
-64
-66
-170
-43
-50
8
-11
24
30
55
82
52
32
40
-19
58
54
8
-56
-30
-27
-41
-98
-25
-90
-102
-34
-37
-133
-23
-28
-38
-12
-20
-18
-28
89
89
141
126
36
105
53
42
-31
-8
46
-129
-190
-38
-180
-62
12
-20
-22
84
-8
16
-2
-20
-11
0
-11
-9
-34
-129
-59
5
-95
-73
-234
-65
12
-30
-61
-98
-130
-83
-19
-115
-41
80
64
-19
-1
-2
-3
-6
-33
-51
-78
-89
-22
-59
-96
-130
-210
-158
-130
26
-81
-184
-154
-136
-177
-137
-93
14
-24
-17
6
7
5
16
1
-27
-94
-73
-82
-38
-40
-10
119
-4
133
24
6
-23
62
-11
-61
-16
-19
0
2
2
10
19
19
4
12
-20
-78
-42
-56
-7
-2
-12
178
-29
137
76
60
-1
122
-12
-80
-87
-99
-57
-17
-8
6
102
11
68
86
30
15
124
-64
66
-38
59
23
-7
94
50
77
34
103
49
-96
-128
-111
-58
-8
-26
17
114
95
123
115
61
86
50
-42
41
-12
-7
70
48
126
28
64
58
132
2
-84
0
30
10
10
-21
88
110
99
57
84
34
42
-21
-16
42
2
-8
68
20
29
80
-4
76
44
3
17
95
97
79
-30
-20
25
-6
39
41
28
77
-13
-58
-49
29
58
-8
0
41
34
16
10
59
-4
83
62
113
-3
20
-68
121
132
-29
40
28
65
70
-13
-8
-19
75
-4
-43
13
7
-14
-10
59
-11
35
122
24
46
-18
8
0
94
48
-95
109
22
113
-71
49
-21
-23
14
-16
10
-20
-17
-23
-36
52
-41
41
21
-53
60
-63
1
66
0
-30
32
69
49
34
-100
88
3
-23
-26
-21
-20
-17
-39
11
-21
31
-34
-1
-23
-2
18
-107
-29
-84
93
27
37
56
113
-1
-62
19
-16
-49
-46
-36
2
22
-28
36
-113
4
-68
-52
50
-1
-91
-94
-57
-5
105
-102
-30
41
24
-51
-76
-6
-56
-59
-11
8
3
17
-36
-57
-31
-32
-48
0
-26
-115
-118
-61
-85
-42
2
-141
0
-9
-15
-88
-69
16
-18
-1
68
-40
26
33
19
-98
-10
-79
-3
-30
-54
-147
-163
-78
-136
-38
13
-80
-44
-177
-55
-83
-35
-1
-40
28
-16
-68
78
7
30
-83
-64
-48
-23
-128
-102
-181
-133
-174
-127
-95
-124
8
-69
-91
-59
-101
-167
-95
-127
-51
-91
-42
78
9
-13
-28
-64
-48
-103
-150
-84
-156
-35
-73
-15
-120
-40
32
66
-52
-118
-148
-100
-243
-155
-158
-174
-67
-9
-31
-30
-36
-91
-53
-125
-79
-73
8
39
34
-67
-149
-19
77
153
-17
-60
-186
-199
-270
-200
-230
-187
-136
-98
-107
-86
-96
-21
-36
-107
-46
-42
67
-1
1
-51
-142
-53
79
43
-20
-68
-149
-211
-190
-243
-224
-227
-180
-158
-214
-181
-119
-27
-15
-47
-6
-28
92
7
67
10
-218
39
82
14
65
-89
-108
-147
-206
-202
-217
-280
-178
-265
-203
-182
-106
-35
3
27
6
-1
75
-6
50
11
-124
16
-47
36
140
-137
-25
-114
-182
-143
-137
-209
-180
-263
-137
-123
-87
-4
-29
56
61
0
30
35
81
-6
-20
32
-6
11
88
-45
-33
21
-132
-70
-89
-124
-98
-153
-142
-102
-63
-45
-49
33
24
24
34
38
-3
36
-22
53
-30
-42
100
40
-45
44
-112
4
-64
-3
-80
-111
-131
-56
-52
-54
-72
46
5
48
83
-45
-85
-15
36
40
-27
-39
154
24
6
-19
-47
-11
-7
48
-30
-82
-112
-55
-10
-68
-27
64
8
6
-12
-99
-96
-72
-14
77
-35
-3
151
71
79
-59
15
56
59
17
3
-64
4
-14
32
-117
10
110
-57
16
-41
-46
-64
-49
8
94
48
29
99
41
49
-19
58
112
113
74
76
-6
81
39
1
-62
-17
-67
31
21
-9
12
16
0
31
73
-17
103
89
10
-6
-48
80
93
70
0
-3
43
98
-79
9
-30
-154
-89
98
52
35
22
-31
9
18
7
8
-60
-20
69
-65
-116
85
100
-91
-43
44
130
-78
-78
9
-189
-200
-20
15
46
11
-24
-25
16
16
1
4
7
10
0
-1
4
3
-4
-7
-10
9
45
20
62
16
25
11
22
-3
14
6
10
3
9
-2
5
7
11
7
7
3
0
17
-2
15
-26
29
22
40
64
42
66
46
51
17
7
10
-12
-10
-7
-1
12
12
1
16
18
7
35
40
6
64
9
23
19
39
51
31
53
44
22
22
24
-7
-57
-44
-30
-12
-7
6
12
17
21
17
39
16
57
31
21
28
34
29
46
67
53
49
37
9
48
17
-45
-48
15
-1
5
4
-5
13
-12
57
0
6
10
-9
11
-2
27
15
16
27
31
21
16
27
24
18
31
38
55
28
3
8
3
8
11
30
19
30
-8
21
10
19
16
25
-5
11
20
-11
16
23
18
19
17
52
53
23
12
-15
43
-9
31
-63
73
7
1
-1
14
40
8
25
9
7
14
-22
8
-9
5
14
-28
27
30
13
50
17
2
33
10
-5
19
-15
1
8
2
10
-4
-12
36
-14
3
-10
-9
-29
-21
-16
-38
9
-18
10
9
1
17
6
-9
44
28
-8
4
16
5
-18
14
-12
13
19
25
-15
-4
-47
-55
-43
-23
-2
-25
16
-20
-13
17
10
-48
-14
-28
-21
-23
-1
-54
-21
-19
-14
8
43
22
7
0
-19
-67
-8
-33
-9
11
-16
1
0
-31
-15
-41
-19
-91
-56
-23
-21
-59
-14
-17
0
5
44
3
38
-4
4
-38
8
-57
-32
30
-4
-19
0
-55
-33
-39
-92
-81
-42
-48
-34
-35
1
3
10
29
50
36
38
1
3
12
-28
-7
27
11
36
-6
1
-9
-80
-86
-86
-76
-75
-31
-84
-34
11
-18
50
65
58
45
18
13
-13
-27
-13
-6
24
-12
74
-20
-1
-6
-12
-121
-81
-153
-61
-84
-78
-52
-58
-33
44
73
49
26
5
-21
-17
-30
-25
-2
25
51
73
-28
11
0
-1
-99
-148
-156
-125
-184
-120
-99
-101
-38
-2
58
31
14
-22
-47
-44
-2
-29
32
81
67
63
-36
15
4
-13
-23
-96
-121
-154
-177
-159
-164
-119
-76
-22
0
-11
-18
-40
-24
-38
-4
-5
57
102
42
61
-51
6
45
-51
-17
-53
-132
-121
-139
-148
-142
-142
-80
-50
-23
-8
-45
-35
-14
-17
40
17
87
99
56
58
-40
-1
61
-43
31
-33
-68
-104
-88
-119
-76
-118
-79
-51
-11
-13
-18
22
-9
42
33
38
92
69
47
61
17
-14
32
23
21
7
-21
-23
-30
-27
-12
-27
-35
15
-6
19
12
28
-4
45
38
54
64
84
51
82
14
-11
41
57
-20
29
-1
7
-2
27
3
19
0
35
-1
13
24
48
17
43
36
52
71
64
34
75
0
-7
20
54
66
8
31
26
12
16
13
33
32
16
31
-16
24
16
16
50
24
17
59
32
34
33
7
10
-1
8
64
34
11
16
11
3
29
13
31
12
18
21
26
-25
11
37
4
15
22
-44
35
17
-2
-4
21
16
33
51
28
-4
4
4
33
20
26
6
6
21
21
-36
22
6
-37
-4
-24
-33
-14
9
-6
2
0
25
25
20
30
25
2
10
30
34
2
-1
-12
17
-38
-41
28
-77
-31
11
-5
-13
2
5
0
6
-3
8
12
12
34
10
1
51
51
8
1
1
50
-27
-45
-5
-53
-54
-13
15
-14
0
6
1
12
-5
-1
7
-4
5
-1
4
0
30
12
-14
-2
11
11
-6
7
-25
-41
-12
-7
-14
-9
4
-1
8
0
-4
-2
6
2
10
11
5
0
1
-5
-3
-3
8
64
0
29
16
5
5
32
11
-3
0
10
4
8
1
9
7
9
9
9
3
1
23
-11
1
20
13
35
-3
28
43
14
1
16
32
-11
-22
-19
9
-3
7
-5
12
17
8
25
10
16
45
-7
51
12
7
-5
7
18
23
32
13
-1
31
-9
-26
-26
-3
7
13
2
6
23
4
52
53
38
21
2
12
65
-15
79
31
11
39
29
-28
25
11
-24
0
40
18
-5
9
-5
13
1
2
27
-3
62
0
15
12
55
-4
45
21
-24
10
24
-12
5
18
17
-15
38
51
8
1
-11
12
-6
31
28
9
8
29
0
23
44
10
-2
23
-9
-12
-16
-7
5
-3
20
5
0
15
22
-5
6
-13
35
0
65
-3
7
40
27
42
-2
43
-48
-26
-12
-28
-1
-18
11
-30
-30
21
-5
-12
4
-2
10
-8
25
-50
56
-9
-9
32
22
18
-9
-16
-15
-48
10
-33
15
-28
-25
-22
-58
13
9
-8
-16
7
-6
28
25
13
41
-6
16
44
7
-4
-21
-61
1
-32
8
-25
-4
-32
-21
14
-39
-37
-21
-2
-1
7
29
13
-11
31
15
-19
-33
9
-23
-2
-18
-38
-10
-3
11
-48
0
-1
-44
40
-58
-37
-30
8
3
10
24
23
-18
-32
-43
-23
-30
2
-27
20
2
-47
-37
34
-1
26
-3
32
-50
28
-60
-32
39
-5
-4
-8
-25
3
-3
-23
-23
-26
1
4
-18
9
-26
-29
8
46
0
40
8
14
-7
-34
4
-40
3
29
-8
5
-35
-21
-16
-32
-28
-15
-2
-12
-18
14
-17
9
12
59
26
32
13
-10
-15
-13
-27
-46
-3
69
-5
8
-13
-43
-29
8
-42
-24
-42
-40
-29
-16
0
39
11
37
12
10
-14
4
-32
-51
0
13
35
64
-14
11
-4
-14
-85
-41
-89
-44
-88
-75
-66
-49
2
-11
30
6
-5
-64
-53
-2
-22
-59
52
62
27
60
-11
4
0
-30
-49
-72
-84
-78
-89
-102
-107
-45
-40
-49
-22
-25
0
-65
-77
-30
56
-42
43
61
-2
59
-11
4
0
-63
-6
-85
-133
-63
-111
-128
-92
-67
-32
-64
-53
-30
-29
-39
-10
-29
56
-17
61
47
-2
56
-3
3
34
-81
12
-61
-100
-73
-58
-121
-47
-123
-29
-61
-22
-35
-55
22
24
16
28
7
39
60
17
33
22
-5
47
-66
18
1
-63
-29
-14
-44
0
-72
-40
-21
-10
18
-32
25
10
71
55
11
56
82
26
47
3
-12
49
5
-54
53
-38
5
34
-2
18
-25
-28
5
-27
44
0
12
-6
68
44
28
32
45
-9
45
-4
-7
30
29
-28
21
44
27
-5
42
6
23
-10
13
9
-11
33
41
-15
71
48
28
35
-10
-11
12
5
0
13
30
39
-45
11
37
2
26
0
19
6
-7
-7
-18
43
8
12
67
5
-3
16
-36
-13
4
2
3
8
-23
53
13
3
34
25
24
40
-2
27
-6
-1
-27
19
17
20
39
-23
-12
-4
-19
-3
5
5
12
19
6
-5
4
34
18
11
34
47
11
-1
-8
23
13
-11
-24
10
-14
-6
-20
-1
-10
-1
8
9
7
-2
21
-7
-18
9
48
19
20
26
49
22
6
0
-23
-28
-2
0
-5
6
-11
-6
-5
10
7
2
9
4
8
4
-1
-10
11
-5
0
9
-3
47
17
17
-18
-12
-32
10
15
-14
0
9
8
-2
10
4
-12
-13
3
-1
-1
-11
-15
0
-1
1
-11
-2
3
-8
0
-2
-6
2
-14
-13
-7
0
-1
-12
-8
-4
0
0
2
-13
2
-1
0
0
0
-8
-8
-15
3
-6
-2
3
0
0
-6
-10
-8
-15
-5
0
-9
-10
-9
-1
2
-3
-4
2
-7
-13
-11
0
-1
-6
-13
0
-12
-14
-9
2
2
-14
-15
-5
-12
3
-4
-1
-4
-7
-7
-3
2
-10
-4
-15
-5
0
-3
-8
-13
-8
-14
-6
0
0
0
-8
-4
-6
2
-10
0
-4
-15
-8
2
0
-15
-13
1
-4
-7
0
0
-10
-4
-9
0
-11
-11
1
-2
-11
-13
-13
1
2
0
3
-8
-11
-15
-12
-12
-13
3
-12
2
-2
-14
-12
-10
-14
-9
-2
-1
-4
-8
0
-3
-14
-4
-14
-6
-13
-14
-2
-4
-1
-2
-15
-15
-9
0
9
1
-3
-8
0
-6
-2
-8
2
2
0
-7
-4
-6
-13
-4
2
-7
-13
-3
-6
-11
-13
-2
-4
-8
11
-4
-1
-13
-14
-10
3
-2
0
3
11
-7
-2
0
-1
-4
-15
2
-1
-15
-13
-14
-7
-13
-12
-7
1
5
3
-10
-11
-10
-14
9
-3
8
11
15
-10
-5
-12
2
0
-14
1
-10
0
-8
-11
-4
-14
-7
-6
14
-14
-9
-9
-11
3
13
-11
-8
14
-14
-14
-6
-13
-1
-3
-11
-1
-15
-15
-1
-15
2
-4
-8
-7
-3
-10
-15
0
-9
7
-11
1
-1
-3
-11
-2
2
1
-1
-5
3
-15
-6
-10
-3
-13
0
1
-15
-6
-15
-1
2
-1
-3
14
-1
11
-7
-9
-1
0
-6
-4
0
2
-5
0
-7
-5
-6
-4
0
-10
-10
-10
0
-4
13
-3
6
5
4
7
-14
-1
-15
1
-12
-15
-9
-10
-6
0
-3
-4
-2
-14
-13
9
-9
15
-9
-6
-15
-12
10
6
0
10
-7
-6
-8
-9
-10
-15
-5
-15
-7
-3
1
3
2
0
-13
1
4
0
7
-10
0
-2
0
5
2
-15
2
-3
1
-9
0
0
-3
-15
-8
-6
-5
-5
-14
-10
-5
-3
-6
0
0
0
-4
-12
-6
3
2
-14
-7
-1
3
0
-13
-15
1
-15
-8
-1
-13
-2
-3
2
0
0
-6
-6
-14
-3
-3
-11
-6
2
-5
1
-1
3
-14
1
-8
-10
3
-15
-8
-7
-1
-3
-7
2
-5
0
0
-7
-4
-10
-3
3
-9
-2
0
2
-8
-12
-15
-12
2
-7
-6
-15
-11
-11
-8
-15
-7
-12
-12
-2
-4
-2
1
-2
1
-3
-1
0
15
-15
-14
-7
0
2
-5
2
-2
-15
-15
-1
2
-6
-14
-12
1
0
-4
-15
0
1
-5
-14
0
-11
1
-10
1
-11
0
-9
-12
-4
-13
-15
-5
1
-5
-9
-11
-8
-1
-14
3
-13
-9
-8
-6
-12
-14
2
1
-3
-1
-12
-10
-12
-15
-8
1
-5
-7
-11
-14
0
0
-13
10
3
15
-2
4
-8
-11
-12
-10
7
4
-15
0
-7
-6
-6
-4
-11
-8
-13
2
-14
-4
-3
-14
-11
-4
-5
0
-2
9
6
8
-8
13
12
7
1
0
0
-8
-2
-2
-8
-11
1
-11
-5
-3
-11
-3
-4
0
2
0
0
-7
-3
-11
-1
-2
-5
-2
-12
-9
-10
0
-10
3
3
0
-8
-14
0
-5
3
-9
-12
0
-10
-1
0
0
-5
-14
-10
-12
3
-5
-6
-14
-3
-6
-3
-11
-10
-7
3
-8
-2
-4
0
-1
-8
-14
-6
3
-6
-15
-14
3
0
0
-6
0
0
-5
-12
-11
0
0
-5
-13
-10
-11
-13
-14
-13
-13
2
-15
-11
2
-1
-5
0
-6
-1
-3
1
3
-6
-2
-7
-4
-8
-11
-5
-13
-13
-3
3
0
-4
0
2
-4
0
-3
3
3
0
-4
-4
-2
2
-13
-9
-3
-3
1
-1
2
2
-13
0
-11
1
1
-1
2
-4
-8
-11
0
-4
-11
1
-6
-7
0
3
-10
-9
-15
-13
-9
-9
-12
-12
-3
-2
-11
-3
0
0
-1
-1
-9
-15
-8
-14
-1
0
-1
-8
-8
-15
-2
-14
-15
-5
-4
-7
-4
-4
-1
-10
0
0
-7
2
-14
2
-12
-5
0
-4
-6
0
-14
-4
-9
-8
-11
-9
2
-9
-8
-11
0
-15
-6
-12
-1
-11
-13
-3
-8
-6
-10
-6
-14
-6
-7
-12
-11
0
-6
-8
-10
-5
-1
-14
-5
0
-15
-10
-14
0
-12
0
3
3
-10
1
0
-11
-15
1
0
-2
-15
-14
0
-2
2
-13
-4
-13
-13
-1
-7
-13
-15
-10
-10
-2
1
-12
-10
2
-14
-2
-12
0
-15
-9
-13
-5
1
-6
3
-8
-2
-3
-11
3
-13
-5
2
-1
0
-1
-12
-6
-10
-12
-11
-14
-10
2
-4
-14
-15
-9
-9
0
-13
2
-3
0
-15
1
3
-12
-5
-11
-13
-10
-15
-6
-6
-13
1
-12
-15
-5
1
-14
-13
-6
-14
-3
1
0
-7
-4
-1
1
-8
1
-12
-2
-8
-4
-3
-9
-15
-4
-12
-10
-13
-12
-6
0
-6
-5
2
-1
-7
-9
-15
-3
-2
-2
-8
-1
-9
-4
-3
3
-12
2
-2
-1
-7
3
-13
-1
-11
-15
-5
-5
2
-7
-3
-14
0
-8
-3
-12
-15
-4
-13
-13
-10
-7
-3
-2
-15
0
1
-7
-8
0
-13
-8
-14
0
-8
-10
-9
-6
2
-7
-2
-4
-9
-4
-6
2
-11
1
-1
-1
-2
3
1
-12
-13
-2
-5
2
-1
-14
-14
3
-10
-11
-10
-2
-8
-14
-9
-5
3
2
-3
-2
-2
-6
-7
0
-5
-2
-7
-10
-4
-2
0
-10
0
-3
1
-9
-12
1
-11
-7
-9
-2
1
1
-7
-6
-6
-5
-1
-2
-15
2
-12
-10
3
-6
-13
-3
1
-3
-4
-15
-4
-15
-9
-3
-9
-1
-9
0
0
1
-5
-12
-1
0
-14
3
-15
-3
-3
-3
0
-15
-13
-11
-12
3
-11
3
-9
-9
0
-4
3
-2
-1
-10
-11
-9
-6
-14
-1
-4
-12
-4
-11
0
3
-7
-11
1
-1
-14
1
-12
-5
1
-1
2
-14
1
-10
-7
-7
2
-6
-11
-12
-14
-14
0
-15
-8
-2
-10
-5
-3
-12
0
-14
-3
-8
-7
-4
-6
-13
-1
2
-10
-14
-2
-15
-7
1
-3
-12
-12
-6
-15
0
-4
1
0
-6
-5
-14
-14
3
-13
2
-7
-6
0
3
-5
-9
-1
-11
-11
-6
-1
0
-4
-14
-2
0
2
-1
-9
-15
-8
-7
-13
-8
1
-5
-11
-11
2
-9
-9
2
1
-12
-13
-3
0
0
-9
-7
-1
-1
-9
2
-5
-4
-11
0
-15
-13
-7
-12
3
-15
-11
-6
-3
-8
-5
-11
-6
1
-7
-8
-4
0
-14
0
-15
0
-9
0
-8
-3
0
-12
-9
-5
-9
-1
0
-4
-4
-5
-8
-2
0
-1
0
-3
2
-3
0
-12
-14
-6
-14
-6
-4
2
2
-1
0
-6
0
-4
-4
-11
-9
1
-12
2
-2
-6
-9
-2
-11
-5
1
0
-15
0
-2
-9
0
-1
-7
0
-13
-5
3
-13
-2
-2
-15
-8
-6
2
-8
-15
-9
0
-2
-4
-10
-1
-15
0
-15
-2
-14
-14
2
-3
-6
-11
-5
-14
-6
2
-9
-8
-14
-7
-7
0
0
-6
1
-10
-15
-14
3
0
-5
-9
-12
-14
0
0
-14
-1
2
0
0
-14
-6
-14
-5
-4
-3
-6
1
-8
-7
-9
0
-2
-1
-4
1
-12
-11
-1
-10
-15
-11
-5
3
1
2
-10
-2
-11
-10
-4
-4
-7
-14
-14
-4
-3
-14
-11
-6
-11
2
-8
0
-13
-7
-14
0
-4
-12
2
-6
-11
-11
-13
-4
3
-9
-1
-15
-11
-3
0
-2
0
2
0
-15
-13
-15
-5
-12
-14
-1
-10
0
3
1
-6
-4
-11
-8
0
-13
0
-4
-3
-8
-7
-9
-3
-8
-12
-14
0
-5
2
-2
-3
2
-5
3
-1
-13
-8
-15
-13
-1
3
-5
-3
-1
-9
-15
-5
-15
1
-2
2
-4
-13
-3
0
-4
-14
-2
-6
1
3
-8
-1
3
1
-4
-5
-10
-12
0
-5
-15
-10
-5
0
-11
-8
0
1
0
-5
2
2
-11
-12
-1
-5
-11
-8
-15
-8
-15
-14
-7
-14
-4
3
-3
1
-6
-7
-6
-4
1
-5
2
2
-9
-13
-12
-5
-2
0
-10
-9
-4
1
-15
-9
-6
2
-7
-2
2
-2
2
0
1
-5
2
-6
-7
2
-15
-12
-14
-8
-10
-4
-11
0
-9
-7
-15
-4
-11
-4
-2
-12
-2
-9
-13
-6
-13
-4
-11
-13
-2
0
-15
-10
-4
-5
-10
-13
0
-13
-10
1
0
-15
-11
0
-1
0
-8
-6
-12
2
0
-7
-4
0
-6
-3
-7
-10
1
-6
2
-1
-10
1
-4
-4
-9
-2
-5
-15
-13
-14
-15
-12
-1
-11
-9
-9
-14
-2
2
-14
-7
-10
-12
2
1
-7
-6
-13
-1
0
-11
3
-4
2
-6
0
1
0
-10
-13
-9
0
-6
-5
-5
-13
0
-3
-10
-15
-2
-2
-13
0
-13
-13
-12
-8
-5
-14
-7
3
-6
-4
-2
-13
-9
-6
0
-6
-10
0
-1
-1
-1
0
-1
1
-3
-11
-4
-7
0
-11
-1
-10
-12
-8
-5
-11
-6
-1
11
6
13
-13
0
-1
-10
-7
1
-4
-8
-7
3
-4
-8
-15
-1
-5
-9
2
-6
-4
-14
-9
-8
-15
-13
7
-6
-2
-13
3
-3
-10
-5
-1
1
-15
-12
-6
2
-10
-5
-13
2
2
3
-14
-10
-1
-10
-10
-10
1
1
-3
-3
-8
-10
-15
-6
-8
-4
-15
0
-7
-2
3
-4
3
-8
-14
0
-3
-13
-4
3
0
-4
-15
-12
-11
-5
-7
0
-4
-7
-4
-15
-12
-1
-6
-12
-13
-13
-15
-7
-11
-2
-13
-2
-2
2
-11
-14
-13
-3
-6
1
-8
-7
0
-10
0
-15
-7
-2
-11
-6
-13
-6
-14
-3
-4
-15
-5
-8
-14
-8
-10
-6
-10
-3
-12
0
-3
-6
-1
0
-4
-4
-6
-9
-1
-12
-8
-12
-4
2
3
-14
-14
-12
-3
2
-12
0
-1
-4
3
-7
-9
0
-11
-5
-2
1
-1
3
-11
-10
-7
-1
-8
-11
-12
-11
-5
3
-10
1
-14
-3
-4
0
-15
2
3
-8
-2
-12
-11
0
0
-11
-12
-7
-11
0
3
-1
-2
0
0
-12
-9
-5
-6
3
-8
6
-6
0
0
-8
-9
-10
0
-10
-7
-2
-5
0
0
-15
-7
-15
-4
-6
-14
-13
-4
-6
-9
-13
0
-8
-8
-12
3
-1
-9
-1
0
-11
-8
-12
-13
3
-12
0
-4
-2
-11
-12
-13
-4
1
-13
-6
-3
-5
0
-13
2
-1
-7
-2
-13
-11
1
0
-6
-12
-4
-2
-2
1
-2
-7
0
-2
1
-10
-4
0
-11
2
-15
-9
-14
-9
-1
0
-5
-14
-5
-8
-11
-4
-9
2
-8
1
-1
3
-6
-5
-6
8
14
7
1
3
5
1
-8
4
4
5
1
-6
-2
-6
8
0
3
8
5
2
-8
-9
0
9
9
3
2
-8
-2
-5
2
9
9
-1
-3
5
0
-1
-8
6
9
0
3
0
-1
4
-3
2
6
5
6
1
13
12
7
1
-3
-7
10
6
-5
-10
0
-7
4
-6
7
8
-6
1
-4
-1
7
-9
0
-8
-9
2
-11
-15
2
3
-3
-5
2
-12
-12
-5
-6
0
-4
-7
-3
-2
-8
8
4
-4
-9
-10
1
-4
-10
-4
3
0
-15
2
-1
-6
7
8
-12
1
1
-15
6
-5
-7
7
4
5
6
-7
-3
0
15
-8
-14
12
-13
8
-15
14
-9
-2
0
-3
0
2
1
4
6
-3
-8
-9
-3
7
8
-6
1
-11
0
5
-3
-8
-2
3
-11
-11
-15
-6
0
-4
-9
-13
0
-2
1
-10
0
8
8
-5
9
-6
2
10
1
-14
3
1
0
-2
0
5
2
-3
-3
-13
-6
-1
-15
-15
-13
9
-2
-9
0
8
-5
1
-6
4
3
2
-2
-7
-3
-2
-9
0
-14
13
-4
-6
-15
2
7
-1
-8
-13
-2
-7
8
-4
4
8
-7
-6
-2
6
11
-3
-4
-7
-10
-7
-3
-12
-7
15
-15
-10
8
-7
-12
-5
7
8
-5
0
8
-5
11
10
0
-2
3
-3
0
-6
1
14
6
-10
0
-4
-11
-4
-13
2
-9
-7
9
6
4
5
11
2
12
0
6
-12
-5
-8
-3
-9
1
-2
8
-9
-14
5
15
-7
0
0
10
3
6
0
1
-2
-9
8
14
0
-15
-4
0
-8
0
0
11
-6
-2
-2
0
-14
-8
-13
-3
-4
0
-7
3
-9
-2
0
0
3
13
-7
-10
2
-4
11
5
1
-2
-1
-13
-13
-11
-10
5
3
-8
-14
-13
-1
-6
2
5
-6
5
7
-3
-4
-3
-14
11
-4
-3
-1
14
0
-11
-14
6
-12
0
-15
-13
-7
-9
-4
-6
4
-1
-7
1
-7
1
0
-2
-13
10
-9
-7
-9
0
2
-10
-11
-4
0
-5
0
0
-1
-6
8
-7
-5
-9
-2
6
7
-8
-4
-10
0
-8
0
-5
-4
6
2
3
-1
-14
2
-3
-3
0
-15
7
-9
0
0
-9
1
3
3
1
-7
-11
2
-15
-14
-8
-11
13
9
-11
0
-3
-10
-11
-14
3
1
9
-3
0
0
7
-2
7
-7
2
-11
-6
-13
0
-9
-9
-6
2
-1
-14
-12
2
-10
-15
-1
9
-4
-7
7
-5
0
6
7
6
-4
-2
-5
-11
0
-3
4
1
-13
13
0
12
0
-8
-8
0
4
0
-7
-8
-1
5
0
-8
-9
-7
-9
4
2
2
-6
-6
0
-3
-13
-3
7
12
-6
-10
-5
11
14
0
-7
-9
-8
-2
6
-8
-5
2
0
-4
6
-6
-8
-11
-11
-15
4
13
2
10
-3
-15
-11
-6
-2
-8
-12
-14
8
0
2
-8
-5
-3
0
-1
-3
-6
-11
0
0
-14
-3
-4
-6
-11
-13
1
2
-11
6
-1
2
-4
-3
-6
5
-5
4
0
-8
1
-4
-2
-1
-7
-10
1
-1
-14
0
-15
-3
2
-5
3
-4
-6
3
-7
-5
6
-2
0
-1
-2
-6
0
-7
-7
2
-1
-3
0
0
2
5
-10
0
-5
0
-12
-3
1
8
8
5
-2
-5
-6
-5
2
-8
5
3
6
-2
5
2
-6
3
-3
1
5
2
-5
0
-2
-7
3
-8
-4
3
0
3
2
7
5
-4
6
-2
-5
-8
2
2
-5
-4
-6
0
-5
2
-3
-8
-7
-9
-4
-3
-6
-5
7
-9
7
-7
-3
1
6
6
1
-4
0
7
-2
6
9
-5
7
-3
1
7
5
7
4
-5
3
-6
3
7
7
-1
-2
-2
0
0
1
0
-6
-4
-6
-7
-7
-8
-5
-4
2
-1
-7
1
-8
9
-1
-7
-2
8
-9
8
7
-1
-1
9
8
4
-3
-7
-9
7
6
5
9
0
5
-3
-1
7
-8
7
6
8
-9
-2
1
-8
8
-3
-8
4
-1
-5
-1
-6
-4
2
-1
-7
-7
0
-3
-15
2
0
1
5
-7
-5
1
6
-3
3
-14
6
-3
-6
14
4
0
-3
-7
-3
14
-8
-8
-9
-1
-4
-5
-1
2
-3
1
-2
0
-5
4
-14
-7
1
-11
1
-3
2
9
2
1
0
-1
-14
-13
-15
0
6
-9
-5
-8
2
6
-1
9
3
-1
2
2
-7
-6
-2
-5
0
-13
7
-4
-3
2
8
-10
-3
3
0
-7
-5
-9
7
2
7
-1
5
15
5
8
0
-5
-2
-11
-3
0
-4
-2
-14
-15
-3
-8
-4
-9
-1
-1
0
0
6
2
-5
-6
6
-3
15
0
-15
-11
-12
-9
0
-4
-2
-13
9
12
-8
-4
-1
-1
-4
-10
-8
2
-6
-9
7
8
2
11
-3
-1
-2
0
8
-7
0
-14
3
-7
-13
13
0
15
0
-1
2
-3
-1
-9
-2
0
-6
6
-3
0
7
3
0
1
5
9
-8
-7
-4
5
-4
0
-2
5
5
0
2
1
4
1
-1
-9
-4
-8
0
-3
7
2
1
-5
3
-2
1
-13
-9
-14
0
-11
-4
1
13
1
-14
-9
0
-9
-1
0
-8
9
-1
8
2
-3
-7
-8
-7
2
-3
-12
-6
13
-11
-15
-1
-15
-4
-5
-15
1
-9
-8
-4
-1
-6
6
-6
0
-1
-9
-11
-13
3
-1
-8
0
-9
0
0
-11
1
0
-11
-12
8
3
-6
-14
4
-8
-6
-9
-2
-7
1
2
-5
-13
-8
0
0
-4
-13
-12
-6
-10
-15
-7
2
-14
-14
13
-5
-2
-4
5
-6
1
7
3
-5
-14
1
-8
-13
0
-7
-13
1
7
-14
-8
-15
-1
-14
-13
-14
-6
-2
-5
-7
8
-1
-7
-4
4
-14
-4
1
-9
-4
-15
-1
-11
2
-5
0
0
-9
-13
-1
-10
7
3
-10
7
6
6
9
-6
-5
7
-5
-2
-8
-15
-4
-14
0
0
10
-10
8
-9
0
2
0
3
2
4
5
-1
-3
8
-7
-6
7
-8
-1
1
-13
4
0
6
-5
-11
11
14
10
-2
-12
2
-10
1
4
-11
-9
0
-1
0
-7
-3
-2
-7
6
-11
-8
-4
-12
2
2
9
11
8
4
-10
-1
13
-6
5
14
10
-9
-6
7
-5
6
7
2
-9
-5
1
-2
0
-2
-7
-12
-2
6
0
11
4
-2
14
12
-11
5
-12
-2
-13
-15
8
0
9
-6
6
4
-15
-9
-2
0
-2
-13
2
-10
15
0
-10
-13
1
1
3
3
6
-2
-3
-6
-1
8
6
2
0
-7
-2
2
-3
-15
-14
14
2
-7
-15
9
5
-12
-14
-15
1
0
2
-7
0
-5
-2
-5
8
-6
3
6
-15
-1
-14
2
-5
-9
-14
-1
-4
7
-1
-15
-8
0
-6
-7
6
5
5
-4
8
1
-4
-5
6
-6
-1
9
-1
15
10
-5
-14
2
-14
5
12
-4
-9
10
-14
-6
9
-2
-9
4
5
4
5
-9
-15
0
-4
-11
-9
-15
-9
-2
0
-2
-5
-11
-9
-13
-4
0
-3
-4
-1
-1
-5
-7
-10
0
1
-7
-4
-6
-10
-9
-3
3
-4
0
-10
-12
-9
-4
0
-6
-9
-2
-8
-2
-5
-5
-14
3
-4
0
-3
-13
-14
-3
-9
-2
3
-11
-15
-12
-7
-7
-15
-7
-2
-11
0
-11
-11
-2
1
-4
-13
-14
2
-8
-5
2
-2
0
-7
3
-3
0
0
-3
1
3
0
-8
-11
-8
-14
0
-2
-4
-12
0
0
-15
-1
0
-3
-10
-9
-6
-7
2
-10
0
-10
-11
-11
-14
0
-4
-2
-7
-10
-8
-4
0
-3
-14
-2
-2
-1
-14
-13
-12
-2
-14
3
0
-2
-5
0
1
1
3
-6
3
1
-6
-8
-8
-10
-6
-5
-9
0
0
1
-5
-11
-11
-10
-8
-15
2
-7
-3
1
-15
-11
-13
-13
2
-2
-9
-11
-8
-6
2
-7
-11
-15
-15
-8
-12
2
-7
1
-3
-5
-12
3
3
-12
-7
-9
-10
-14
-6
-7
-4
-4
1
-11
0
-10
3
-6
-3
-10
-7
-4
-13
-8
-10
-2
-9
-4
-8
-14
-7
-9
-11
-14
-2
-9
3
-3
-8
-4
1
0
-5
-14
-9
-2
-5
-8
-9
-3
-5
-6
0
1
-1
-4
-9
2
-13
-12
-2
-9
0
-1
-11
1
-3
-4
-4
-1
0
3
0
-14
-2
-6
-1
-5
0
2
-3
-4
-11
2
-13
-7
-4
-9
-6
-6
-6
-7
-13
-14
-2
-1
2
-4
0
-9
-6
-7
-8
-7
-6
2
-15
0
-2
-8
-12
-3
-3
-4
-4
-9
-2
-4
-5
-12
-7
-7
-10
-9
-3
-4
-11
-1
-4
1
-9
-5
-12
-6
-9
-10
-3
0
-11
-3
-15
-9
-11
-10
-9
0
-5
-7
-7
-2
1
0
0
-1
1
-6
-14
-8
-6
-12
-5
-14
-5
-5
-5
-1
-12
-14
-15
-7
-13
-11
-1
-6
-14
-15
-12
-13
-5
-1
2
-4
-7
-10
-13
-7
-1
-1
-12
-9
-15
-10
-8
-8
-10
-6
3
0
-3
-1
-8
-13
-5
-10
-11
-14
-15
-10
-10
-10
-1
-12
0
-13
2
-2
-14
-6
-1
-7
-13
-13
-6
-10
-7
-15
-9
2
1
-11
-14
-4
-2
-14
0
-5
-2
-12
-12
0
-12
-9
-6
-2
-7
2
0
-15
-15
-1
1
-6
-12
0
0
3
-11
3
3
-10
-7
2
-3
0
-8
0
-6
-5
1
-1
-9
0
-10
0
-8
-9
-8
-5
0
-15
2
-9
-9
0
-1
3
0
-4
-8
-10
-12
-7
-4
-8
-5
-13
-2
-15
-15
-3
2
-9
1
2
-5
-14
-6
-12
-11
-7
0
0
-13
-8
3
-7
-14
-13
-4
-7
-6
-11
-14
-5
-15
0
-15
0
-8
0
0
-9
1
-14
3
-7
-7
2
-14
-10
-4
-14
0
-5
1
-13
-7
-9
3
-7
-14
-7
1
-14
-14
1
-4
-5
-8
-10
-4
-12
0
0
0
-14
-12
-1
-14
-13
-14
2
-10
-1
-15
-12
-4
0
-14
1
-5
-12
-6
-7
-5
-5
-6
-1
-8
-13
1
-6
-3
-11
0
-3
-12
-13
-5
-15
-2
-14
-15
-2
-8
-1
0
-9
-6
-7
-11
-11
-4
-14
2
-9
-7
-4
-1
-5
-6
-7
-13
-3
-9
-4
-6
2
-4
-5
-15
-2
-1
-12
-13
-7
3
-11
-6
-12
-9
-12
1
-6
0
-5
-13
-4
-5
-15
-9
-10
0
0
-8
-2
-11
0
-6
-11
-2
2
-6
-4
-1
-10
-14
-14
3
1
-12
-9
1
-12
-14
-1
-3
-12
-9
-10
-15
-8
-7
3
-13
-2
-14
0
-5
-3
-3
-6
0
3
2
-15
-13
-6
-6
2
0
-14
0
3
-4
-1
-3
-12
0
-6
1
-2
-14
-3
2
-6
-1
-1
-1
-12
-15
0
1
-10
3
-7
-8
-5
-8
3
-6
0
-7
-8
2
-1
-5
-7
-9
3
-14
-13
-15
-6
1
-4
-5
-10
-7
-8
-12
-15
2
-3
-1
1
-8
-15
-4
3
-3
-7
-1
3
-7
-9
0
0
-9
-14
-3
1
-15
-13
1
-14
0
0
-14
-9
-3
-13
-12
-15
3
-8
0
-6
2
-9
-13
2
3
-2
-5
-4
1
-10
0
-8
-12
-14
-13
1
-14
-9
-9
-6
-2
2
-2
-14
1
-6
-1
1
-6
1
-3
3
-3
-15
0
2
0
-10
-14
0
2
-9
1
-12
0
1
-3
-4
-12
-7
-9
-4
-4
3
-6
-9
-1
-5
-11
-9
0
-13
0
-15
-1
-12
0
1
12
2
3
-9
0
0
-8
0
-6
14
10
-4
-14
-11
-1
-13
3
-11
3
1
-2
2
-13
-8
-12
-9
2
-3
-4
-5
-4
-2
-7
0
-9
2
3
1
-14
-15
0
-10
-12
-7
-3
-5
-15
-14
-3
1
-2
-12
3
-4
-3
2
1
-1
0
-1
11
8
0
-14
-7
1
-14
-13
-14
-13
-9
0
-1
1
0
-10
-9
-8
1
-11
-4
-3
2
1
-2
5
0
0
-1
-5
3
-2
-14
1
-10
-6
-9
-7
2
2
0
0
-3
-9
4
-7
-9
-12
-7
-8
-6
5
5
-1
3
2
-13
0
-12
0
0
-8
-12
-14
-11
-6
-9
-2
-4
-12
-13
-6
-1
9
0
10
4
14
10
-1
0
1
-11
-7
-1
-3
-7
-4
3
1
-7
-12
-4
14
-11
11
7
2
14
1
13
5
13
9
0
-6
-15
-10
-8
-8
1
-3
-11
3
-11
-11
-5
0
-11
0
8
8
0
-4
-2
15
-2
-14
5
3
4
-10
3
0
-12
0
-3
3
1
-4
-14
-12
2
-14
-2
7
10
-1
-1
-7
2
-3
-9
2
15
-1
-11
-2
-11
-8
0
-15
-11
-12
-4
-3
-9
-10
1
-10
-11
0
1
2
-1
-6
-12
-8
-2
-10
-2
13
-8
-7
-10
-3
0
-3
-14
-7
-9
-13
3
-2
-15
-10
-6
-9
-6
-8
2
-15
-9
-7
3
-1
-1
0
-1
1
-5
-7
-2
-4
-10
-5
-6
-9
0
-11
3
-3
-3
2
-4
-3
-5
3
-5
2
-2
-8
8
-15
-14
-10
-2
-10
-4
-4
-1
-8
-6
-12
-9
-8
-3
-11
2
-15
-11
-11
-1
1
-15
3
-10
-6
8
6
-15
-3
2
-5
-11
-7
1
2
-9
-10
-9
0
3
-4
-10
-5
-3
-7
-4
-7
-4
2
3
-14
7
0
-10
-3
1
-13
-4
-9
-3
-3
-15
-10
1
0
1
1
-1
10
-9
-6
-10
2
-8
3
1
-15
0
12
-6
2
-3
-9
-5
-5
-5
-9
-10
0
-7
-4
-9
-6
11
2
14
-3
-2
-2
-7
0
-11
-9
11
-6
-6
-1
-4
1
-6
-9
-1
-11
-7
-2
-14
-1
-10
1
-15
-6
4
14
1
0
0
-6
2
10
9
-11
-15
-4
-9
0
-14
-7
-3
-4
-2
0
-1
-5
0
-13
-1
-2
-6
-10
-11
0
-3
-1
-9
-9
3
0
-8
-11
-2
-1
-3
-3
-7
-14
2
-14
-12
2
3
1
0
-4
-3
0
-1
-2
-3
3
-9
-13
-7
0
2
-3
3
-15
-3
3
-14
-7
0
-8
-11
-4
-11
-3
-3
-13
-15
-4
0
-8
-6
2
-4
1
2
-4
-8
-8
-7
-10
0
-2
0
-9
-6
2
-6
-10
-3
-6
0
-7
-13
-9
-8
0
-1
-8
0
0
-4
-14
2
0
2
-8
-6
-8
0
1
-5
-7
-5
-9
-4
1
-2
-6
-2
-5
-7
2
-14
-4
-1
-13
-6
-2
-13
-2
-10
2
-14
-9
3
-10
-3
0
1
-11
3
-6
-14
-6
1
1
3
-7
-10
3
-2
2
-12
-5
0
-12
-7
0
0
-9
-4
-2
-13
2
-11
-1
-8
-10
-13
-8
1
-10
-6
-2
1
-1
-11
-11
0
-3
-6
1
3
-13
-3
0
-5
-7
-3
-7
-6
-3
-6
1
0
-4
-8
-13
-14
3
-2
-14
-11
-14
2
-6
3
-13
2
-3
0
3
-12
-5
-11
-14
2
1
-11
0
-3
0
-1
0
-13
-14
3
-2
-10
-9
1
0
-7
2
-12
-13
-7
-14
-10
-12
-2
-12
-2
-13
-6
-7
-7
-7
-7
1
-6
-15
0
-6
-6
-13
-8
-5
-3
-11
-3
-12
-3
-13
-10
-15
0
-8
-7
-3
2
-1
-10
0
-2
-11
-10
-13
-12
-8
-1
-5
-7
-5
2
-4
3
-10
1
-9
-1
-13
3
-15
3
-13
-15
-1
-13
3
-5
-6
-10
-14
0
-15
-7
-4
0
-4
0
-3
0
1
0
3
-9
-2
2
0
-14
3
-7
-1
0
-1
-13
-9
-3
-3
-3
0
-2
-5
-12
-8
-14
-10
-5
0
-12
-15
-2
-11
3
-13
-5
-10
-10
-8
-14
3
2
0
3
-5
-2
2
0
-9
-8
-2
-10
-7
-1
-13
-8
-6
0
-5
0
-7
0
-3
3
-2
-4
-8
0
-6
-12
-4
-11
2
0
3
-8
-7
-9
1
-13
0
0
-1
-12
-5
-3
-6
2
-8
-7
-5
-10
2
-13
-6
-3
-5
0
-3
-8
-10
-2
-2
-8
-2
-14
1
0
-7
-4
-5
-15
0
3
1
-12
-6
-14
2
-11
-10
-15
-12
-8
-5
-5
-1
-15
-3
-3
-10
2
0
-6
-4
-4
-11
-5
-5
-1
-14
1
-11
-14
-13
-13
-1
-4
-12
-14
-2
0
-4
-15
-3
0
-2
-8
-11
-1
-2
-14
-13
-13
-12
2
-14
-6
0
-5
2
-14
-3
-5
-14
0
-9
-4
-9
-2
-6
3
-13
-8
-13
-7
-6
-2
0
-15
-15
-9
-14
-1
-10
-9
-2
1
0
2
-10
-1
-14
1
-9
-5
-1
-1
-12
-11
0
3
-6
-15
2
-4
-4
-13
-14
-6
-15
-14
-5
1
1
0
-9
-10
-12
1
0
-13
0
-11
2
-11
-4
-4
-14
-8
-12
2
-15
-15
-7
-10
0
-6
-15
1
-10
-14
0
-14
-2
-9
-10
-6
-9
0
-3
-12
1
2
0
0
1
-14
0
2
-10
1
-12
-5
0
-9
-13
-6
-14
-10
-14
-9
-13
-8
-11
-10
-1
-15
-12
-3
-12
-14
-13
-11
-3
-11
-8
-4
-8
-4
-14
2
1
-4
-10
-6
-4
0
-15
-13
-15
-8
-8
1
-6
-1
-2
-14
-7
-14
0
-13
0
-15
-12
-9
-10
-7
-7
-8
-2
-8
-15
-4
-10
-4
0
-15
0
0
-15
1
-1
-2
-9
-14
-15
-15
0
-6
-7
-4
-5
-14
-10
-6
-10
0
-14
0
-8
1
2
-12
-10
-4
0
-10
0
-9
-11
-12
-5
-1
-13
-14
-9
0
1
-7
-1
-1
-3
-2
0
-9
-7
3
-1
0
-15
-13
3
-10
-2
-15
-14
3
1
-12
1
-2
-7
-2
-7
-9
-12
-10
-9
-7
2
-6
3
-13
0
-12
-14
3
1
-12
-6
2
-14
-1
-2
-13
-10
-3
-6
2
2
-15
2
-10
3
-5
0
-4
-1
-10
-2
-15
-14
-14
-7
-12
0
-2
-10
1
0
6
-3
8
-1
-4
-2
9
8
2
4
5
15
10
8
-6
-1
-9
8
-8
-8
-1
-2
-4
0
-8
-5
-4
-9
-9
2
6
9
-2
-9
-3
-3
-8
-4
-3
-8
-7
0
0
-2
0
-5
4
4
4
9
-8
2
-7
7
-11
-5
0
2
-6
3
9
7
0
-1
-4
-13
-4
-5
-9
6
-13
-13
0
-2
8
-8
-1
-4
0
5
3
0
-15
-10
-6
-13
0
1
-12
-13
-7
-11
-4
-11
-4
-2
-1
-15
-10
-13
1
-12
-6
-1
5
-13
-8
-1
-15
-9
-15
2
0
-14
3
-3
-12
-2
-10
-1
-15
-9
0
-6
-9
-1
-10
3
3
5
-4
-12
-9
0
2
-2
0
-7
-11
-11
-14
1
-9
-15
-8
0
0
-3
-10
-12
-10
-7
0
-11
3
6
-11
-11
-11
-13
-12
3
-3
-10
2
-7
-9
0
-15
-12
-15
-5
0
1
-14
-14
-2
-7
-9
4
9
-1
-2
14
2
-1
1
-2
-10
-3
1
0
-11
1
-3
-13
-13
-12
2
-5
-10
0
-7
0
0
3
-8
12
11
13
0
-9
-1
-11
-7
0
3
-6
-8
9
1
-3
-4
-8
-2
-10
-15
-3
-2
-5
1
7
4
5
-3
-15
0
-15
0
-7
-13
0
-7
-1
8
-12
0
3
0
-1
-10
-2
1
-9
-14
-13
3
-4
-5
-2
4
-9
3
-12
1
2
-14
-8
-12
-2
-9
-15
-4
-12
2
-2
-11
0
-12
-11
-1
0
0
-13
-3
7
15
9
-7
-2
-4
0
-3
-15
-15
-11
-5
-4
1
-8
-7
-7
-11
0
-6
-10
-2
-10
-8
1
5
-4
15
-9
-15
-8
-8
-1
-5
1
-10
-7
-15
-12
-13
-11
-5
-3
-6
-1
-6
-5
4
-7
-4
-5
4
5
15
-14
-9
-5
-12
3
-14
-10
-14
-15
3
-6
-13
0
-1
-6
-1
-5
-9
-12
0
-5
0
7
2
-4
0
-2
1
-15
-1
0
0
1
-3
-1
-13
-14
-5
-1
-15
-5
-1
1
14
7
8
6
-10
-6
7
-5
4
1
-7
1
-4
-5
3
-12
0
-6
-2
9
-4
-13
-10
0
-1
-2
-1
-14
3
1
-9
5
-6
-2
-8
-9
2
2
-2
-8
-8
-2
-7
7
13
1
2
-1
-14
-13
-12
-1
-10
-1
-6
-14
-3
1
1
0
-6
-4
-15
-8
3
-3
-2
-11
4
12
15
8
-2
-4
-14
-6
-4
0
-8
-4
1
0
0
1
-5
6
-9
-10
-2
-11
-3
1
3
-1
14
5
3
13
-9
-13
1
-13
-7
-3
-10
-11
-2
7
-10
1
6
5
-9
-10
-5
-12
-1
-8
-1
2
12
3
10
-9
-5
-14
1
-15
-10
-3
2
1
-4
-6
9
9
6
7
0
-13
-12
-11
0
3
-5
-13
3
0
-10
2
-10
-2
0
2
-3
-13
-14
-7
-6
3
0
-9
-1
4
5
-2
0
-11
-5
-9
0
-4
2
2
-4
-1
3
-12
-12
-3
-11
-13
0
-5
0
3
-8
3
-2
0
-3
-3
-6
2
-12
0
-8
-12
0
-3
-3
-9
0
-5
-11
-13
13
4
-2
5
3
6
2
-4
-2
-8
2
2
-2
-15
-15
0
-11
-9
1
-12
-5
-15
-4
0
-3
0
5
7
7
3
-7
7
4
-1
3
0
6
4
-4
-12
-1
1
0
-4
-3
-8
0
-2
-1
-12
1
-14
-1
4
-9
7
-5
0
0
-3
0
-8
-1
2
0
14
1
0
7
1
3
-4
-3
6
13
6
-1
-1
-1
4
-4
-1
3
-5
7
4
-7
-3
1
0
5
3
4
7
-6
-5
11
4
5
8
8
6
9
9
-5
5
-9
1
8
-4
9
5
-4
4
1
-1
-8
5
-6
-7
2
-5
4
0
-8
4
8
0
-1
-4
-4
-8
-4
0
0
-1
-2
-6
1
4
5
1
-7
1
-5
3
5
8
-3
8
3
6
-13
1
8
0
5
6
0
-1
-3
-1
-7
4
-2
6
-1
-5
0
5
2
0
-3
-1
-6
-5
2
6
-3
1
-1
3
-1
0
-7
3
9
4
-6
0
-5
-8
1
0
4
2
5
8
4
0
9
-11
-6
-9
-2
13
-4
-2
-8
-8
3
2
4
0
-5
-3
-4
9
-5
-7
-5
2
-1
-9
0
3
-9
8
-11
-6
-5
0
2
-15
0
-15
3
6
0
7
8
-4
-6
8
-13
-10
-14
0
2
-14
-4
-6
-11
0
3
-4
1
2
-4
0
1
-9
-15
-4
-1
-14
2
-5
-9
-8
-5
6
-9
-1
-13
-12
-13
-2
-1
0
0
-13
-13
0
-9
-12
-15
-15
-2
-6
-10
-5
-3
-7
5
9
0
-2
-1
0
-7
-2
-8
-14
0
2
0
-11
-5
-6
-5
-15
-3
0
-9
-9
-9
-15
-7
0
3
13
2
-13
-2
15
2
-14
-1
-3
-2
1
-7
0
-14
-1
-13
-7
-3
2
-10
-9
-10
0
-9
0
-7
0
-1
8
-12
1
0
-3
-11
2
0
-2
-3
0
13
-3
-1
1
0
1
0
9
-7
1
-8
5
8
9
0
8
-8
0
0
2
14
-4
-5
-15
2
-15
-6
12
-1
-15
-7
12
4
0
10
8
14
6
-8
9
-8
3
1
-1
0
-3
0
1
-1
-11
-12
-5
-8
-14
-8
-7
-14
-10
-10
-5
-8
5
8
-8
4
-1
0
-2
-1
-6
-2
-6
-2
-10
-1
-13
-4
-5
2
2
-14
3
-15
-3
-3
-15
-13
-3
-6
-15
4
-1
1
9
0
-14
-2
-15
1
-2
-4
-5
0
-10
-3
-11
-5
-14
2
-4
-3
-11
-5
-7
-8
7
-5
-6
-3
1
-9
-5
-3
-15
-2
-13
2
-12
-6
0
-12
-5
3
3
-12
-7
-9
-15
-3
-10
1
3
-1
7
-1
-15
-11
-4
-11
-2
-6
0
-5
0
-10
-15
-5
-2
-6
-6
-3
-9
0
-5
9
4
6
0
0
7
-2
0
-2
15
-11
-3
-4
-2
-2
-2
-11
-13
-1
-15
-12
-14
-6
-2
-7
-5
-3
-6
-7
8
-6
5
-2
-10
0
2
-8
9
13
0
-8
-2
-14
-5
0
-9
-6
4
-2
0
10
-11
-3
-6
-9
-4
7
-7
1
-4
-8
-5
15
3
1
-13
11
5
-2
-1
-1
9
9
11
0
-14
1
-8
-11
4
4
1
1
-7
1
-4
0
2
-14
6
-10
2
-5
-3
-1
14
0
0
6
1
0
1
-12
-5
-15
-9
5
-1
9
9
-9
-13
-13
-1
-13
-2
-3
-6
-2
-1
7
2
0
-3
-5
-6
-13
-3
-1
-13
0
-8
0
4
-6
-7
0
-6
-9
-10
-15
-15
-2
3
-9
-3
-6
-7
-1
-11
-3
-13
-1
-3
5
9
-2
-9
8
9
4
-9
-8
-2
-6
-6
-9
0
-10
-15
1
-8
0
-14
-6
-14
-7
-3
-8
12
-3
6
1
-5
5
9
-8
3
8
-9
-12
-2
-11
-7
-7
3
-9
-15
-12
-3
-5
2
-3
-10
7
-1
-2
1
-8
4
1
-5
3
-3
2
6
2
5
6
-1
5
-14
-15
-13
-4
10
-11
6
9
-1
12
3
0
6
5
6
-1
-3
-2
4
3
2
4
8
-8
-6
0
-6
0
5
4
-1
4
6
-7
-3
8
7
4
-8
-1
-3
4
7
-4
-9
7
-3
3
7
0
0
-9
7
0
-1
4
5
1
-2
-9
5
9
-9
5
-1
5
5
0
2
-3
-7
-8
5
-9
8
-1
-2
-2
-9
-13
-3
9
-7
-9
-3
-8
3
5
0
9
-2
2
-2
4
5
6
3
3
2
-6
-1
4
-8
-2
8
-13
-2
-2
-5
3
5
-2
-5
-1
-5
0
0
4
-8
-7
3
6
2
-13
-1
1
-1
-3
-14
11
11
6
-4
-1
8
0
-14
-5
-7
-2
-7
-15
7
3
-1
-3
-4
-5
0
-10
-4
-6
0
0
9
-4
-10
-1
2
-8
2
-6
2
-4
-10
-6
-12
0
-13
-6
-3
1
-5
14
15
-6
10
-9
-14
-1
-15
-9
-12
3
7
-8
-11
6
1
-9
-11
-5
-11
-5
-12
-7
3
9
-1
-3
2
2
-8
-10
-1
1
-6
2
0
-5
11
2
-15
-6
-2
-1
-5
-2
-4
-9
-7
-8
0
9
-1
-3
4
4
0
-9
3
-12
-2
-13
-10
-15
-8
9
-2
-14
3
7
-8
-1
-8
1
-14
-4
-1
8
7
-3
-2
10
1
-7
1
-11
-8
3
-13
-4
1
11
-3
-8
7
-12
-14
-9
-12
0
5
1
-1
-7
1
-8
5
15
-15
-6
-11
0
-15
4
-10
-4
0
8
0
-15
13
4
0
5
12
9
2
7
-7
-8
2
-6
13
14
-11
-4
-8
-12
3
0
-3
-9
15
-8
2
-9
15
15
-3
-1
-4
11
-5
5
8
8
5
2
3
14
-8
-7
-13
-2
-1
3
-15
15
3
-3
0
2
0
-4
-5
3
7
-4
-5
-9
-4
8
-7
3
-5
6
-4
-3
-6
-3
2
-11
-3
4
5
-10
2
-15
-12
1
-6
-10
4
-1
-3
-10
-9
-7
2
-8
-4
-12
0
-13
-11
-5
0
-15
3
11
3
-8
-8
3
1
-8
-12
-15
-12
-2
-9
0
-2
-2
1
-7
6
-1
-11
0
0
-3
-15
-14
2
9
1
3
-2
1
-5
-8
0
-10
-1
0
0
2
4
2
0
5
8
-4
-8
-7
2
2
0
-10
-5
-13
14
15
-14
-12
-14
-7
-13
-10
-7
2
1
-8
0
5
1
-8
-2
0
3
-4
-3
2
7
10
0
-3
9
-9
-3
-13
-8
-7
-1
-5
-2
-12
-2
-6
-5
7
5
2
4
-6
1
0
-4
-5
9
0
0
10
10
-1
-15
-2
-12
-2
9
15
-10
-3
8
0
3
6
2
0
8
-8
-7
-4
-12
-6
5
7
11
4
14
-3
-15
-6
10
-5
2
-1
0
-8
-14
-5
-6
7
8
8
-1
-7
-13
-7
0
-7
3
2
2
1
10
3
-14
0
3
-3
-14
-13
5
6
-7
1
-5
7
-6
-1
0
-5
1
0
-11
-10
-12
-4
3
-5
-14
5
0
-12
-11
-9
0
-8
6
-6
3
5
-5
-6
-2
1
-2
0
-2
-4
-14
-1
-9
-6
-8
-14
1
-1
-2
-9
1
-15
-10
7
-5
7
-3
8
6
-9
0
-3
7
2
15
13
-5
-10
-9
-12
-1
-3
1
-8
11
-15
0
-11
3
6
7
-8
-9
6
2
-4
-7
-7
6
-6
5
-3
3
3
-3
-3
-1
-10
-11
6
0
9
7
11
-5
1
8
9
1
1
-4
-8
0
-8
-3
0
-3
0
5
7
7
0
0
-12
1
10
-3
3
15
11
-1
0
-2
4
6
0
8
6
3
-15
-9
-12
-4
-10
-8
-1
-13
-11
-15
-14
-9
-13
-1
2
-9
-4
-9
-11
-15
3
-11
3
1
-14
0
-2
-11
-8
-7
-2
-7
-2
-8
0
0
0
-12
-11
-1
-15
-12
1
0
-3
-14
0
-10
-6
-5
-1
1
0
-12
0
-14
3
-9
-14
-2
-12
0
-15
0
1
1
-7
-11
-1
-14
-15
-13
-6
-4
-11
-4
-7
-8
1
-13
-1
-14
-1
-3
1
-2
-12
-11
-1
0
2
2
0
-5
-3
0
-10
-7
-11
0
-1
-1
-9
1
-13
-9
-2
0
1
-5
0
-9
-3
-12
3
-6
-14
2
-14
0
-8
3
-8
-12
-11
-3
-15
-3
-9
1
0
1
-13
-4
-10
-14
-10
-13
-15
-12
-13
-12
-11
-7
-5
-13
-10
-7
-13
-6
-3
-13
-6
-10
-8
-9
-10
1
-2
-8
-10
-9
-2
2
-10
-7
0
1
-15
-15
-5
-12
-6
-10
-12
-2
-8
-8
-10
-13
-1
2
0
-2
0
-2
-9
-7
-3
-11
-6
-1
-9
-9
-14
-2
-4
-10
-7
-3
0
-4
-14
-10
-4
1
-14
-6
-7
3
-15
-2
-14
-6
-11
-10
-6
-3
-8
-13
-7
2
-1
-7
-7
-14
-2
14
-9
1
-4
-11
-3
-14
-6
-9
-2
-13
-10
-14
-3
-11
-4
-1
13
-13
-1
-15
-13
-3
-9
-4
-10
-3
3
-6
-6
2
-2
-15
-13
-4
-5
1
2
-2
-15
-8
-6
-3
-10
-2
-9
-14
-2
-2
-1
-8
-3
-3
-15
-3
3
-14
-6
-9
2
-8
-4
-11
-6
3
3
-14
0
0
-12
10
-12
-15
-6
-14
-14
-4
-11
-10
-10
-14
-6
-6
-10
-1
-9
-13
-6
-15
-5
-6
-1
4
-8
-13
-4
-4
0
-7
-6
5
0
-11
-2
-4
-11
-12
-15
-14
-7
2
-10
-5
-13
0
-6
-14
2
0
-13
-4
0
-14
-5
-8
10
12
-8
13
3
-12
-5
-3
3
-5
-5
-10
-6
-4
-8
-15
-13
-7
-7
-2
-1
1
0
-13
-6
-1
14
3
0
-14
-14
-5
-2
-5
-8
1
-12
2
-12
-12
-15
-7
-12
-5
1
3
-10
-13
0
2
-5
-4
-14
-12
-7
-4
-8
-9
0
0
1
-8
-15
-5
-4
-2
-7
-3
-2
-10
-2
-7
-9
-11
13
-11
-4
-5
-14
2
-11
0
1
1
-3
-1
-9
0
-4
1
0
-9
-14
-11
-11
-10
-11
-11
-12
-14
-15
-10
-4
1
-14
-5
-12
1
-9
-13
-9
-6
-6
-11
-10
-9
-3
-7
1
-2
-5
-2
-1
-3
-10
-3
-11
-3
-4
-11
-1
-10
1
-12
-13
-7
3
-8
1
-14
-11
1
-11
-8
0
-12
-6
-2
-11
1
0
-12
-3
0
-6
-14
-11
-6
-4
-9
-5
-7
-6
-9
-12
0
-13
-8
-7
3
0
-14
-15
0
-4
1
-14
-12
-1
-13
-11
-5
2
-1
0
14
-13
-14
-15
-2
-14
-7
-12
-8
0
0
-1
-12
-9
1
-7
5
-1
-6
0
2
-7
-2
-12
-4
-1
-13
-6
0
-3
-10
-11
-7
-8
2
-14
1
0
-7
-15
-1
-6
-4
-1
-15
-1
-14
-8
-3
-6
15
4
-4
-7
3
-12
2
-1
-1
-6
-8
0
-9
-9
-12
-12
-2
-6
3
-4
-10
-3
-15
2
-12
3
0
-5
-12
-8
1
-4
-7
-15
-7
-11
-3
3
0
3
2
-11
-12
-7
-4
-2
-2
-8
-12
-8
-1
-3
-9
-3
-15
-7
-3
-9
1
-12
-2
-9
-11
3
1
3
-7
-8
-8
-14
-1
2
-5
-9
2
-2
-1
-8
-1
-3
-8
-2
1
0
2
-4
-11
-4
-12
4
9
3
7
7
0
0
-5
1
-9
12
4
3
13
1
-1
4
0
7
-9
-7
6
-8
0
5
-5
9
-5
0
-7
-7
-9
2
0
4
0
-8
-1
-9
-12
1
8
5
-9
-9
4
9
-3
-1
6
1
1
7
5
-5
2
-4
-12
1
-4
-14
-9
-1
10
-3
9
1
2
-12
0
-8
-7
-11
-7
-9
0
6
2
-8
-8
2
-14
-6
-7
-13
0
-8
-9
0
-9
2
-2
1
2
-5
-14
-10
-2
-4
1
-9
-6
-10
-13
-5
2
-1
-8
-8
0
-13
-2
-6
0
-14
-5
-8
-13
-15
-4
-2
2
-1
0
-8
-14
-8
1
-9
2
5
1
1
0
1
2
-3
-13
-3
-13
-6
-5
-6
-8
0
-13
-1
0
-8
-14
-11
-11
-13
1
-3
-2
7
9
12
10
0
0
3
-13
-11
-2
1
-8
-13
-12
1
-7
-10
-5
-15
-14
-8
1
-6
0
0
1
-2
8
3
-3
-1
-4
-6
-6
-10
-13
-4
2
-1
-15
6
-10
-5
14
-5
-3
-5
-5
-14
-2
-14
0
3
13
4
3
15
-1
0
-12
-7
-1
-6
-7
-10
-13
-1
-7
-8
12
-11
-6
-10
-9
2
2
12
-1
-8
1
11
12
-2
-8
-9
2
-4
-1
0
-13
-13
-14
-7
-13
-3
-6
-1
-9
0
-14
-7
-7
0
1
1
9
1
2
15
-14
-11
0
-4
-10
3
-15
-5
3
-12
-2
-8
-3
-11
14
-13
-7
-14
1
-12
-9
0
-3
9
6
-4
-2
3
-3
-7
-14
-7
-14
0
-6
2
-11
-13
-3
-1
-11
3
0
-3
-7
-13
-8
0
-7
5
5
-2
-5
-4
-3
-3
-1
0
-6
-8
-10
-5
-1
-3
-13
2
-13
-12
5
13
2
-12
8
5
-2
0
-5
-12
-10
-15
-5
0
-10
3
-12
-1
-2
-3
-15
-10
-2
-11
-2
0
-7
14
2
4
-5
-4
0
-9
-15
-2
-14
0
-4
-13
-1
1
-1
-2
1
1
1
0
2
-3
-7
-7
0
-5
-10
0
4
-2
2
-8
-9
-13
0
-14
-15
-15
-4
-8
-4
-4
3
0
-4
-10
-10
-10
-10
-9
-12
-2
-8
-2
-2
-7
3
-7
-5
-1
-12
3
-9
-4
12
8
3
-3
9
15
-3
-1
-15
-13
0
-2
-14
-13
-1
-10
-3
-5
1
-2
-9
-8
-10
-9
-12
-4
11
13
1
-2
10
10
-5
-3
-2
-7
-13
0
0
2
-15
3
9
0
-3
2
-4
1
-2
-10
-12
0
-8
-11
-14
-13
12
13
-3
-12
-13
0
-12
-11
-6
-4
-2
-1
7
-7
4
0
3
3
-8
2
-8
0
-3
-8
-8
-10
-14
-6
-6
-14
-2
-14
3
-7
-12
1
-10
-7
-1
7
9
-6
7
0
2
-15
-13
-10
-13
-11
-11
-11
-7
-12
-1
-9
-13
-4
-12
-13
-4
-1
-3
1
-4
-6
-7
-2
-7
5
-2
-6
-7
-13
3
-6
-2
-12
-14
-14
-4
1
2
-5
13
2
4
-2
0
6
6
-2
1
1
-4
2
14
-9
13
-1
-13
-4
3
-6
-9
-5
1
-1
-15
-14
-13
2
12
2
7
5
-2
-3
-2
-4
-7
4
4
-2
5
4
11
6
2
2
-6
-11
7
-3
5
2
-3
8
-3
-8
7
-4
-9
-7
0
1
4
-6
-7
-4
8
3
14
-1
-6
11
0
-2
13
-1
14
-10
-10
3
2
0
-3
-9
-6
-9
0
3
-1
-6
2
-8
8
-9
-9
0
-3
0
12
12
13
-1
2
9
-2
0
-6
-7
-7
8
-9
-7
0
3
-8
7
5
-1
8
7
-4
1
-2
1
5
1
-8
4
7
-3
0
-8
-9
4
-1
1
7
7
9
-2
1
-6
-1
5
2
8
1
8
9
5
12
1
-3
0
1
-8
-5
-5
8
0
8
2
-5
-6
5
4
7
-9
-1
-3
7
4
9
0
6
-5
-13
7
-2
7
7
5
-7
1
-4
-5
-3
7
2
1
8
8
-3
5
9
-15
0
-1
0
-7
0
0
3
15
7
-11
-7
0
2
0
5
5
-7
-3
-3
3
8
8
-10
0
2
-3
-3
-3
4
-5
-1
13
-3
-2
0
12
-1
-15
-8
0
-6
0
-5
-2
4
0
-3
-4
-9
3
-6
-12
-13
13
6
-5
-7
0
3
0
9
-8
0
-1
3
-7
-15
-5
0
0
-9
2
8
-7
0
3
-1
-4
0
-5
-12
0
-10
-3
11
-8
-4
-13
9
-10
-13
0
1
-7
-6
-10
3
-2
-9
8
-4
-5
-14
-13
2
-8
0
-6
-14
14
13
7
-1
-6
-13
-5
-13
1
-7
0
2
-3
9
-6
5
14
-9
-10
-6
-4
0
-4
-2
-1
-15
-4
14
15
-9
12
-6
1
-1
-9
-8
3
3
-2
0
-2
8
-1
7
7
-9
1
-15
-11
-6
-11
-13
-9
7
-12
-8
14
-6
-3
-3
0
-7
5
14
0
7
-5
9
9
14
-3
0
-8
0
-10
-4
-14
-6
-3
11
0
-14
1
-7
-3
1
-3
12
-1
8
-1
-9
0
12
15
0
-12
-13
-14
-1
-11
-11
-9
15
-2
0
-5
-2
-8
1
-4
0
-5
-2
2
5
-2
5
2
-4
-8
15
0
-15
-14
0
11
-1
-3
14
10
0
-13
1
1
-4
-11
-2
7
-15
2
7
-4
6
-1
3
0
11
-14
-11
1
-4
15
1
-8
9
1
-15
-8
-5
10
-2
-9
10
-6
-4
-1
-3
7
0
-8
-6
-2
0
-13
-4
-1
4
-11
-11
-2
-1
-3
-14
0
0
8
-11
3
11
2
-2
-9
-5
6
-1
-2
7
7
-9
2
-4
-2
-5
-10
-11
-10
-6
6
5
5
0
3
-4
-8
8
-13
-10
-13
-1
-4
0
7
2
-4
1
-5
-12
7
0
-14
-8
-4
14
13
-11
-14
-8
-6
1
-2
-3
-5
-6
-8
-5
4
7
5
-1
0
-9
1
-9
-2
2
-14
-9
-12
6
1
11
1
-4
-14
2
-15
-12
-15
11
-5
-3
-9
8
0
-6
0
5
-1
-4
12
-11
1
5
4
10
-3
0
0
-13
0
-8
2
3
3
-9
-5
4
7
-4
0
-1
-4
-4
-9
-15
-10
-5
6
0
9
-11
10
-1
-12
-1
-3
-3
-1
-3
-7
-14
-5
-14
-5
-1
-2
5
5
-9
1
-1
-5
0
7
-9
-9
-1
-5
1
-15
-12
-4
-8
-10
3
-12
3
-15
-6
2
7
-4
-6
7
4
-2
-1
-15
-10
-1
-1
12
-12
12
-8
-11
-10
0
7
-10
-2
0
-8
9
0
4
-7
-6
0
6
-6
0
-11
-2
-6
0
7
-8
1
1
13
1
0
-2
-5
6
9
0
0
4
5
5
-4
4
9
-3
-14
-2
0
-6
3
-1
-3
-4
-3
0
6
-10
-3
-10
3
-8
5
-8
-4
-4
-3
-4
4
-2
-7
2
7
1
-4
-1
-7
-10
-5
-14
-14
-12
2
9
-3
9
-2
0
-9
-6
8
1
-7
7
5
8
1
-7
-2
3
1
8
13
3
-11
-11
0
-2
8
-1
0
7
0
-11
13
-5
-9
6
6
0
-9
-11
-1
-12
-13
-11
-3
0
-15
-11
-7
-10
-15
1
-5
-9
-12
-15
-13
-12
2
-3
-3
-11
-2
-4
-9
-12
-5
1
-3
-6
-13
-6
-5
-6
-11
-14
-14
-14
-15
-12
-12
-6
2
-11
0
-14
-5
-14
-9
1
-10
-3
3
-14
-2
-1
-10
-7
-8
-6
-11
-3
0
0
-13
3
-4
-4
0
-6
-12
-4
-15
0
2
1
-10
2
-13
-7
2
1
1
-11
0
2
1
-10
-4
-1
-8
-1
-8
-12
-14
-4
-10
-12
-11
2
0
-5
-12
-2
-13
-2
-3
-9
-2
2
-15
-5
0
-6
-8
2
-6
-1
-4
-12
-2
-4
-12
-4
-2
-12
-2
-13
-8
1
-5
-3
-9
0
0
-14
-7
-6
-8
-14
-13
-14
-2
-15
-14
-10
-12
2
-14
-11
-7
-2
-14
0
-1
-10
-5
3
-6
-6
-7
-11
1
-11
-11
-12
-15
0
-8
3
-2
-2
-6
-3
-13
-7
-1
-1
-15
-12
-15
-2
-15
0
-3
-12
1
-8
2
-4
-5
-3
2
-14
0
0
-13
-1
-7
-15
-3
-5
0
-5
-14
-10
-15
1
-9
-6
0
-11
2
-10
-1
-3
0
-15
-1
-4
-11
2
-11
-12
3
-9
-10
-4
1
-10
0
-1
-12
-7
-1
-1
2
-14
0
-7
-12
2
0
-6
-10
2
2
-10
0
-11
3
-10
2
-9
-7
-15
-11
-14
-7
0
1
-12
-4
-11
-6
2
-1
-10
-11
-10
-8
-11
-12
-9
1
-1
-12
-13
-7
0
-9
-15
-6
-7
1
-11
-12
-12
-14
-9
-12
-10
-7
3
2
-4
-2
1
-5
-4
2
-2
-10
1
-11
3
-12
3
-9
2
2
-2
-14
-4
-9
-8
0
0
0
-4
-15
-11
-10
-4
-3
-7
0
-13
0
-15
3
-3
-13
1
-9
-13
-11
-15
-9
-13
0
-10
-1
-12
-13
0
-2
-4
-15
0
-10
0
2
-6
-13
-13
-11
-7
-15
-9
2
-7
-2
-1
-10
-4
-1
0
-12
-4
0
-10
-12
-14
3
-3
-11
-12
3
-6
1
0
-11
-2
2
-5
-14
-3
2
-14
0
-2
-6
0
-4
1
-10
-9
1
-1
-8
-8
0
-3
-3
-12
0
0
0
-1
-11
1
0
-10
-11
1
-7
-1
-4
-1
-12
-14
3
-4
-4
-9
-8
-15
15
-10
0
-6
-3
-5
3
-12
-12
-10
-8
-5
-2
0
-14
-5
-2
-1
-1
-8
-12
-14
2
-1
0
0
0
2
-2
-5
-13
-3
-7
-6
-2
-10
-10
-14
0
-2
-7
-13
3
-7
-15
-11
1
0
0
-14
6
1
-1
-6
-9
0
-6
-11
0
-4
-6
-13
2
2
3
1
-8
-4
-11
3
-14
-5
-9
-14
-10
-9
0
10
-8
-6
-5
0
-7
-15
-3
-4
-12
-14
1
-13
-5
-3
-11
-3
-14
-10
-15
0
-1
0
-5
-1
-11
-15
-10
1
-5
-4
-5
-14
0
-1
1
-9
2
-10
2
-4
-15
2
-4
-10
-1
-2
-3
-11
-14
1
-3
1
-14
0
-4
-11
-13
-3
-9
-10
-15
-8
-4
-6
0
-6
-2
0
2
-9
-6
-3
-2
-5
-8
1
0
-11
-9
-4
-14
-2
-7
-12
1
-14
-5
3
2
-9
-9
-7
-1
-9
-2
-12
1
-11
-12
-7
3
-1
-7
-14
-11
-2
2
2
3
-6
-12
-3
-4
-4
2
-11
3
-11
-12
0
-7
-4
-15
-2
-15
-12
-13
-12
-13
-1
-2
-10
-13
-11
-2
-9
-10
-14
-14
-11
-3
-15
-6
-12
-12
-14
0
-6
-14
-15
-6
-9
-7
-5
-8
0
-11
0
0
1
-14
1
-6
-1
-6
-10
-15
-6
3
-8
-3
-12
-5
-14
-8
0
-5
1
3
-15
-8
-11
-15
-2
1
0
-12
0
-14
0
-11
-8
-15
0
-6
-6
-13
-6
-14
1
-1
0
-9
-14
-3
0
-2
-8
3
-12
-5
-6
-13
1
-11
-8
-15
-12
2
2
3
-4
-14
-7
-7
0
0
-5
-5
-6
2
-11
-15
1
-10
-15
-9
-15
-1
-10
0
1
0
-6
-10
0
-6
-4
-8
-2
-7
-4
0
1
-6
-7
-5
1
-4
-2
0
-3
-10
-11
-3
2
-7
0
-7
-10
-13
-7
1
-14
-3
1
-6
-13
-11
-9
-7
1
0
0
-2
-3
-7
-2
-11
-11
-5
-8
2
-11
-7
-14
-2
2
-2
2
-10
-3
-15
-4
-7
-2
-3
0
-4
2
-6
-15
0
-12
-8
-6
-9
-6
-7
-11
-8
0
-5
1
1
3
0
-7
-10
-1
-7
2
-4
1
-15
-6
-11
-11
-8
-6
-15
-4
-6
-14
-13
-2
-13
-6
-8
-1
-3
2
0
-4
-1
2
-7
-15
-4
3
0
-2
-7
-14
-9
-3
-10
-3
-8
-6
-5
-3
-8
-4
-13
-7
0
1
-5
-2
-15
-14
-1
-11
-10
1
-15
-5
-4
-5
0
3
-12
-9
-14
2
-4
3
0
0
-1
0
-2
0
-9
-15
0
3
-4
-3
-7
-1
-15
-15
0
-5
-3
-2
-7
0
0
-13
-15
-6
-10
0
0
-5
-1
-14
3
-7
-14
-7
0
-3
3
-6
-2
-2
-5
-14
-12
-4
3
-7
0
0
-3
-7
3
2
-14
0
-9
1
-6
-12
-2
-11
-9
2
-12
-12
-3
-10
3
-4
-5
-9
-6
-5
-11
-5
-14
-14
-8
-3
-3
-6
-11
0
0
1
-12
0
-8
-6
-15
-5
-3
-2
-10
-1
-1
-9
-12
0
-4
-15
3
-5
-1
2
-14
2
-5
-14
-4
0
-11
-3
-2
-10
-6
-7
-13
-6
0
-4
0
-15
-13
-5
-3
0
0
-12
-9
-11
2
-13
-9
-1
-10
-13
0
-13
-2
-15
-11
-9
-15
-2
-15
-4
-14
-4
-1
-10
-3
-9
-15
0
-5
3
-9
0
2
2
0
-1
1
3
-7
-5
-11
1
-3
-12
0
-13
-6
-15
-15
-8
-3
-2
-14
-7
0
1
-5
-1
-2
-3
-10
-13
2
3
-15
-10
-11
2
-15
-11
3
-6
-2
-7
-6
-10
-5
-10
0
-12
-14
-12
-12
-11
-2
-13
-11
1
0
2
-4
-13
-6
0
-12
-4
-12
-15
2
-9
0
-14
-12
-5
-4
3
-15
-6
-5
-13
-1
-14
0
-6
0
-11
-8
-6
3
-5
-8
-13
-12
-2
0
-3
-13
-5
-6
-3
-15
0
1
-12
-10
-3
3
2
-1
-1
-8
2
-2
-12
-1
-1
0
-5
-2
3
-4
-15
-5
1
-12
-15
2
0
-3
-5
-8
3
0
3
0
-11
2
-14
-11
-7
1
-9
-9
0
-3
-3
-12
1
-5
-1
-6
-9
0
1
-1
0
1
-13
-14
-7
-14
-11
-10
-7
-2
0
-1
-10
-2
-12
-12
3
1
3
-12
-12
-7
3
-12
-8
-14
2
-15
-3
-14
-9
-9
-2
-8
-2
-13
-1
2
0
-12
-3
-11
-11
-12
-10
0
-2
0
-2
-15
-9
3
-3
-13
-12
-15
0
-2
0
-10
-15
1
0
0
-9
2
-13
-7
-4
-15
-1
-15
0
-1
-13
0
-8
-2
-12
-8
-14
0
-15
0
0
-3
1
0
-4
-7
-6
0
-13
1
-2
-9
3
1
-15
-14
-11
-11
-3
-8
-2
-12
-15
-6
-7
-15
-2
-14
-13
-9
-4
-10
3
-1
-8
0
-15
-15
-6
-4
-7
2
-10
-14
-9
-13
-15
-11
1
-11
-13
-7
-4
-21
-18
-17
-9
-6
-6
-19
-20
-15
-6
-21
-22
-20
-13
-15
-9
-4
-9
-19
-12
-17
-20
-16
-14
-4
-9
-19
-3
-13
-4
-8
-14
2
-10
6
-1
-4
-17
-9
-9
-11
-7
-6
-6
-20
-17
-15
-10
-19
-18
-16
7
-10
-7
3
3
-7
-4
8
-6
-8
-19
-7
-12
-8
-10
2
-4
-3
-26
-12
-20
-15
-19
-18
-18
-20
-2
-3
0
5
5
-8
-6
-6
-8
-20
-14
0
-15
-3
-17
-11
4
0
-16
-16
-17
-7
-18
-20
-7
-4
-6
4
6
0
5
-12
-17
-14
-18
-16
-7
-3
-5
-4
-13
-4
-14
4
3
-8
-13
-10
-5
-17
-21
-3
-8
0
4
-3
2
-3
3
5
1
3
-6
4
-6
4
-11
-7
-15
-15
0
-27
-12
-10
-14
-16
-17
-4
-9
1
-1
-11
4
0
-3
12
18
-6
5
7
1
-1
-7
-5
0
-4
-2
-11
-14
-19
-19
-9
-6
-18
0
-6
2
-9
0
7
-6
16
8
0
0
12
2
8
12
-9
2
-11
-21
-2
-21
-8
-23
-11
-12
-3
7
-11
-6
-9
2
-7
1
13
13
2
2
3
17
19
22
20
7
-8
-10
-7
-8
-3
-8
-24
-8
5
1
-11
3
3
5
5
0
-2
11
-11
1
-2
7
19
7
7
7
-2
-10
-23
0
-5
-20
-16
-10
-14
0
0
-10
-10
4
8
-1
-1
-11
-4
1
-8
-7
18
14
13
10
-10
3
6
-14
4
6
-19
-13
-22
7
-3
5
6
6
4
-1
-2
-14
-17
1
0
-11
15
18
14
0
-3
-2
0
-13
-4
-3
-15
-6
-6
-4
-5
-1
4
2
4
3
16
-1
0
0
-8
-14
19
0
-2
8
-8
4
-17
-3
-4
-1
-7
-6
-15
-3
4
4
-1
9
9
14
-7
-1
-8
-17
-15
0
17
11
8
2
10
-7
-12
-16
-19
-3
-11
-18
-14
5
-5
3
-2
-2
-8
6
-1
-5
-12
0
-15
19
7
15
4
10
5
8
-13
-7
-21
-11
-13
-14
-18
-1
-13
6
0
-7
-12
-14
-16
-7
-16
-13
-28
-8
9
14
12
17
7
3
5
-17
-19
-9
-10
-4
-14
-12
1
3
-10
-20
-7
-7
-10
-16
-5
-15
-9
-3
17
17
24
9
-2
-18
-20
6
-15
-6
-22
-16
-6
-14
1
7
-20
-14
-20
-4
-20
-10
-14
-13
-4
8
24
22
15
9
13
-19
-20
-17
0
-17
-17
-12
-15
