# Weights for layer: fc1.weight
0.033400472 0.010608062 0.013792671 -0.014664726 0.018618986 -0.01210919 0.035546068 0.010113239 -0.0055893455 0.02745251 -0.02697115 0.006801687 0.04715192 0.07801241 -0.042867135 -0.004663599 0.008049503 -0.020859102 -0.024975058 0.026781067 0.029970858 -0.02442851 -0.023507647 0.018941935 0.0067134574 -0.015952405 0.014056869 -0.028710086 0.031821843 -0.019577956 -0.002190981 0.03439566 0.015387868 0.0056952033 0.09678703 0.11622312 0.05700755 0.040634416 0.077736504 0.040453054 0.054949734 0.060461197 -0.037421614 -0.008722643 0.011546569 0.004312035 0.09738732 0.18021616 0.19754755 0.13059355 0.09903491 0.0042995405 2.6050955e-05 0.031697396 0.021274377 -0.028066806 -0.010840498 -0.0077633727 -0.012985026 0.016944723 0.017693445 0.040419463 0.08903402 0.08263554 0.1185513 0.034886282 -0.0054912413 0.0573223 0.017697211 0.0135124335 0.048504014 0.023049977 0.0041093375 0.06169752 0.09510992 0.07349617 0.052759275 0.18027152 0.19218014 0.1280435 0.02770326 -0.037040975 0.027087 -0.002247095 -0.0077626407 0.020297024 -0.06549635 -0.044084847 0.09537417 0.07875945 0.14379378 0.079369985 0.10080182 0.06855457 0.056663435 0.03713874 -0.040402565 -0.034868095 0.005514717 0.026155006 0.026599413 0.065795235 0.101265155 0.09681192 0.12686911 0.21621177 0.20227967 0.24188584 0.108998105 -0.0152989 0.025294432 0.01837515 0.007966001 0.044084907 -0.104186565 -0.013593779 0.080739416 -0.06907786 -0.062601164 -0.0097453175 -0.052142896 0.03264773 0.031135324 -0.029431354 -0.0326408 -0.08578959 -0.0037167438 -0.00095963816 0.094989546 0.09914254 0.10783758 0.1059944 0.1285206 0.1348594 0.069894865 0.15659148 0.12370592 0.064048424 0.08315257 0.08721992 0.013827015 0.024635714 -0.075802006 -0.08193104 -0.016606411 -0.1027387 -0.06078456 0.0058929874 0.094326004 0.12840793 0.08407062 0.021008527 0.03600271 -0.018732047 -0.056873687 -0.098104976 0.021752901 0.059241235 0.023758031 0.033340417 0.05310413 0.008829126 0.05055009 0.022949329 0.1198675 0.120579116 0.1294719 0.049242854 0.025118653 -0.04258949 0.05847444 -0.08880023 0.07292935 0.013123179 -0.046537515 0.08967379 0.112868056 0.1051986 0.030212715 0.013383307 0.0061332528 -0.07679838 -0.09844853 -0.05266018 -0.036243465 -0.027444415 -0.07619365 0.0148052685 -0.0062413714 -0.028885132 0.031234 0.04361155 0.111514024 0.15904501 0.136104 0.11574771 0.01951667 0.021269133 0.074435785 -0.109870255 -0.017355694 0.019977728 -0.07084647 0.0037482348 0.091212004 0.047296006 0.03176126 0.012349878 -0.05216178 -0.023649797 -0.028669273 -0.0046165236 -0.018824106 0.016828628 -0.047777344 -0.008087017 -0.020761577 0.0038306792 -0.05684863 -0.039870206 0.06623387 0.18342131 0.12280347 0.12257618 -0.024723392 -0.0073997504 0.03710214 0.03012365 -0.0059698694 0.00522451 -0.046866477 0.018234937 0.10163121 0.03716314 -0.053961843 0.0512932 -0.020165801 -0.04729311 -0.096834846 -0.06507638 -0.0542091 -0.06491145 -0.076208815 -0.0789192 0.024814866 0.033167902 -0.058089435 -0.08275539 0.056471124 0.13444187 0.07617349 0.014235503 -0.013155036 -0.022768326 0.079969585 -0.050193623 -0.11033039 -0.119039804 0.011215498 -0.0061287144 0.054394044 0.09317776 -0.03584875 -0.025713554 0.010362268 -0.10901016 -0.10038494 -0.08453442 -0.04249182 -0.09035186 -0.17715387 -0.030250609 0.049133107 0.040206242 -0.052427385 -0.0080042975 0.08524177 0.13941726 -0.041900337 -0.072903596 0.008474202 -0.027238049 -0.03450144 -0.076316014 -0.067923576 -0.09196991 -0.015585857 0.083510794 0.09541588 0.09046982 0.016409181 -0.05479447 -0.06738026 -0.16714452 -0.13691285 -0.06446781 -0.0932477 -0.11389993 -0.110192366 -0.096758075 -0.03295841 -0.053979445 -0.10078054 -0.022924198 0.016486295 -0.05012272 -0.0055095563 -0.09753406 0.0009658814 -0.12786227 -0.07461703 -0.15588766 -0.14317913 -0.018088752 0.03451767 0.07035419 0.083493955 0.11133094 0.025436819 -0.007272383 -0.020739444 -0.04428166 -0.082864694 -0.05423268 0.014555902 -0.09009327 -0.1402711 -0.119663596 -0.09199471 -0.113162756 -0.13701998 -0.034944683 0.031677768 -0.011536818 0.06523429 -0.10886405 0.008338123 -0.05532974 -0.067725115 -0.1175702 -0.104866505 0.027511325 0.12655348 0.105875894 0.0003479202 0.018887503 0.009998569 0.0734808 -0.0047045304 0.00078575424 -0.026861412 0.024462303 0.07205666 0.015069056 -0.03272575 -0.054283515 -0.060486805 -0.03903833 -0.044393186 0.06642663 0.000485906 -0.050636027 -0.09956758 -0.12949531 0.0065217023 -0.05077538 -0.08896236 -0.104392715 -0.08285168 0.12143987 0.14024052 0.08868538 0.0072660195 0.001480964 0.029173292 0.07151999 -0.014549709 0.0496477 0.045130104 0.13137212 0.052784868 -0.020879634 -0.017003952 0.019457502 -0.03276095 -0.053342406 0.028101984 0.10640013 0.0066056936 -0.093570665 -0.15532812 -0.06319906 0.06476721 0.009230118 -0.0710515 -0.15888923 -0.06800524 0.04089158 0.084611975 0.016526883 0.019373091 0.028623281 0.12830849 0.111358225 0.01694084 0.016015286 0.044841886 0.12027318 0.060497373 0.060287077 0.035116576 0.04507648 0.007756769 0.027622178 0.08211175 0.04310531 -0.006009927 -0.04306496 -0.18965851 -0.04131376 0.072063774 0.047847964 -0.025169756 -0.14145106 -0.12023626 -0.04368429 0.022830782 0.0026187524 0.0022548225 0.047393594 0.11719261 0.11793171 0.116663754 0.00046762024 0.05283862 0.041346654 0.007952609 0.032369398 0.030412594 0.053103615 0.05923266 0.056820493 0.11866141 0.10566026 -0.05835126 0.0091533875 -0.10037845 -0.07003101 -0.044316784 -0.03140168 0.005708478 -0.0764684 -0.1706947 -0.09864333 -0.027628463 -0.042084698 0.09452025 0.028019957 0.0742665 0.14550033 0.14751539 0.047511514 0.04442142 0.023379482 0.014085038 0.03608557 0.08109757 0.06044091 0.020133764 0.0050241635 0.024787225 0.042211525 -0.037424743 0.01210498 -0.15335552 -0.072849594 -0.0008164644 0.006778491 -0.023036435 -0.03049411 -0.112619124 -0.13035074 -0.12802443 -0.009861894 0.055185463 0.0587928 0.08763155 0.16764414 0.05289175 -0.0056129107 -0.08716654 -0.08852178 0.00604048 0.05926387 0.12039316 0.044994626 0.05743512 0.06702022 0.05966285 0.073791325 -0.091123536 -0.07211193 -0.08671267 -0.09999961 -0.049238946 -0.03605449 -0.0026953877 -0.029917931 -0.077650055 -0.11306378 -0.10393573 -0.10830866 -0.05186228 0.0390741 0.09784235 0.10355347 0.017009346 0.0033794618 -0.10677216 -0.12992875 -0.059665263 0.029936563 0.07228821 0.07968636 0.08593974 0.05192925 -0.011059199 -0.06927745 -0.12219945 -0.023865487 -0.03788446 -0.12621552 -0.06930656 -0.019668913 0.05361377 0.031743992 -0.07293107 -0.056404825 -0.1337539 -0.13569647 -0.061648894 0.0003266997 0.07278003 0.058228876 0.018475935 -0.07030678 -0.03008803 -0.07288787 -0.09135953 0.0050996374 0.056275472 0.103348844 0.13191198 0.053118467 -0.06138754 -0.017576285 -0.05698942 -0.05507664 -0.088991664 -0.09222922 -0.0024634525 0.09771585 0.041650485 0.023720736 -0.031417318 -0.13976148 -0.25076973 -0.12873603 -0.113068275 -0.04168452 0.028208245 0.0227381 -0.041899417 -0.017982412 0.024629733 0.07008306 -0.0654925 -0.010843858 0.030871462 0.04655561 0.117552824 0.05400253 -0.059848804 -0.065451674 -0.1267214 0.007838794 -0.026892684 0.024733055 -0.062782146 -0.0003650206 0.00032115396 0.024769446 0.01936266 -0.0750345 -0.17649467 -0.15561515 -0.12952475 -0.03213583 -0.03634451 0.030326614 0.028011652 0.06876772 0.13247563 0.15344194 0.069298826 0.023571134 0.013640141 -0.039585903 -0.0068946024 -0.040563636 -0.04863146 -0.06686184 -0.13610688 -0.016454265 -0.005859221 0.025967436 -0.05239776 0.006964265 0.0347387 0.0106412 0.06893926 -0.10925511 -0.18867324 -0.12579584 -0.15469362 -0.1175366 -0.10837708 -0.03014462 0.023457373 0.051323492 0.06275254 0.14236172 0.07795895 0.0655622 -0.026764384 -0.027798817 -0.09231002 -0.07896988 -0.060553387 -0.080854475 -0.06582412 -0.062328693 0.09581205 -0.014829232 0.0011849366 -0.008111447 0.012995283 0.14990641 0.14699934 0.009887177 -0.018766172 0.026333567 0.019226931 0.00997378 -0.013434132 -0.07548557 -0.053488072 0.025845854 0.07457689 -0.009181228 -0.0520401 -0.036816128 -0.036170565 -0.05400441 -0.0010640518 -0.07472495 -0.09447796 -0.06366101 -0.10251237 -0.048383832 0.060520086 0.027131911 -0.01674956 -0.017165832 0.021465832 0.18452749 0.15392369 0.13809116 0.095223375 0.14983982 0.1048078 0.18504134 0.120928526 0.11745346 0.100634806 0.11662677 0.038866557 -0.06477437 -0.011398155 -0.09914454 -0.12347066 -0.03960049 0.05021651 -0.03276556 0.05551907 0.02594815 -0.132152 -0.16865042 -0.056468923 -0.023788475 -0.019721985 0.004699651 0.15759669 0.10698478 0.069224186 0.089226946 0.08103695 0.058678884 0.05121277 0.23357481 0.28987697 0.22628699 0.16063972 0.16488673 0.027884318 0.021355107 0.10376876 0.076024786 0.033394657 0.05915258 0.059993353 0.06687735 0.1637259 0.15267116 0.05403782 -0.04328407 -0.03617013 -0.034550186 0.032770332 -0.016016638 0.012164548 0.03212768 0.054508176 0.063708104 0.062053237 -0.053265832 -0.05370702 -0.0005080742 0.08973982 0.16082911 0.15554184 0.04343393 0.01364479 -0.07723647 0.025300471 0.025485262 -0.07016933 -0.10243266 -0.033072844 -0.06103432 -0.13242374 -0.01219043 -0.035110377 -0.043665543 -0.016333666 -0.027122255 -0.024825871 0.0035691261 0.0054441765 0.00032208487 -0.004919111 0.025985766 -0.04773952 -0.0695625 -0.067406856 -0.10117341 -0.13962062 0.018486958 0.021147005 -0.13121943 -0.08469541 -0.019800473 0.0014761857 -0.15201087 -0.07465003 -0.030454556 -0.080235995 -0.13645832 -0.06863282 -0.04535725 -0.030906342 -0.012540095 0.018491969 -0.024815902
0.012555905 -0.015151387 0.027214985 -0.028829746 0.029019568 -0.008867485 0.031068835 -0.019267598 0.0008459091 -0.017499924 -0.03375624 -0.010161124 0.035475295 -0.032565873 0.009155996 -0.00049155205 0.02415349 0.031749923 0.00430876 -0.026031256 0.015269525 -0.010012602 -0.025831625 0.013822712 -0.02602302 -0.0254445 0.035183292 -0.0059673954 0.032240864 0.012318406 -0.007512592 -0.025369965 0.013662182 -0.018321669 0.0049989745 0.00013486668 0.024504941 -0.034271657 0.016509775 8.112192e-05 -0.022969957 0.0040385798 -0.010504799 -0.030887593 -0.014195256 0.023379855 0.022951834 0.010030158 -0.004891537 -0.010125203 -0.010011457 -0.008560922 -0.006241033 -0.013682269 0.024002071 -0.015256533 0.027882498 -0.03142245 -0.028296927 0.023911558 -0.030252155 0.018522196 0.029379938 -0.025371809 -0.031818606 -0.021495275 -0.028170059 0.024874825 0.010849409 -0.002875723 -0.03359489 0.035433214 0.00030393028 -0.009072912 0.025409104 -0.00039116293 0.025764078 -0.031166052 -0.02021578 0.004141394 -0.0002578795 0.0032131672 -0.0114745125 0.00033829734 0.003854517 -0.003072258 0.033734713 -0.0020252466 -0.03332026 -0.028745707 0.0153191425 -0.021526568 0.03507534 -0.01587317 -0.025971025 0.01943763 -0.005973242 0.03429986 -0.022930006 -0.02551493 0.010249744 0.01800779 0.004387372 0.0068835462 -0.022768708 -0.05563568 0.0027078781 0.021058723 0.0017725416 -0.022687484 -0.012627369 -0.01731641 -0.008443458 -0.0012999177 -0.0005961582 0.022372559 -0.011888402 -0.017980892 0.034119528 0.030342553 0.009460125 -0.00224163 0.009098258 -0.0088747665 0.020776652 0.02504475 -0.027539348 0.033290986 -0.016605347 0.013456343 -0.02399767 -0.055380687 -0.03833005 -0.014964396 -0.0066321543 0.024674196 -0.027282018 0.00569338 0.028226864 -0.012902474 -0.031154016 -0.0014670193 0.017529644 0.023360167 -0.014301058 0.035337638 -0.011718014 -0.034236085 0.03335515 0.0025132895 -0.025574856 -0.025846746 -0.021585155 0.0028462813 -0.015384173 -0.052181672 0.010565358 -0.055303458 -0.029410854 -0.017052723 0.021679956 -0.0043079257 0.024139453 -0.019801307 0.009793181 -0.0228278 -0.014459275 -0.0146350525 0.0056600384 -0.017799139 0.014724232 0.020408355 -0.017559895 -0.017758813 0.01564037 -0.026969753 0.008651045 -0.01956507 0.02256617 0.02382309 -0.024827559 -0.0061317487 -0.03833117 0.01649048 -0.018736009 -0.033147454 0.0065046344 -0.019219471 0.01482207 0.030086305 0.0074756406 -0.015645927 0.01333911 0.02753697 -0.02829373 0.018604424 -0.026557669 -0.02691158 0.0016557351 -0.029812941 0.023553174 0.028166976 0.0044472218 -0.035710096 -0.0034347272 0.029372357 0.016218204 -0.021650622 -0.023319798 -0.042939924 -0.006297165 -0.011683307 0.02778818 -0.03528279 0.015263531 0.013809683 -0.031530634 -0.018813139 -0.0022238307 -0.024882684 0.0194945 -0.010494838 0.030442845 0.022282716 -0.0295014 0.011290029 -0.014921466 0.0022918023 0.011193637 0.029953104 -0.035219 -0.009571851 0.017045137 0.014562633 0.015393339 -0.017332058 0.01417002 -0.0069718575 0.0030535462 -0.018343579 0.008192109 0.021165831 -0.03805156 0.026637968 -0.035128795 0.016504087 -0.006478915 -0.016545415 -0.029050296 -0.03557694 0.0155714825 -0.029982777 0.013430439 0.011391047 0.025550116 0.027946379 0.015230641 0.026404914 -0.011808734 -0.03877309 -0.007208268 -0.0073890984 0.028534848 -0.03726131 -0.01420694 -0.042965874 0.028334552 -0.024577772 -0.023073707 -0.0047069313 0.021385461 -0.036289196 -0.013462702 -0.0006190948 0.02983236 -0.0060338043 0.017959967 0.00236262 0.008232482 -0.02637976 0.006398592 0.034501087 -0.027229652 -0.029369738 -0.030449128 -0.005111754 0.034976628 -0.018382385 0.020601224 0.016164865 -0.02620345 -0.00942604 -0.01480252 -0.03953142 -0.009019065 0.0021625154 0.026703646 -0.0251293 0.023628512 -0.028847676 -0.020918153 -0.026239067 0.01930352 0.03532214 -0.032777064 0.019124072 0.015626013 0.007629648 0.002178453 0.035373803 0.022394978 0.01019112 -0.03511817 0.01327946 0.005678367 0.021625847 -0.0017669015 -0.015011396 -0.056962814 -9.1225185e-05 -0.053350963 0.021042144 0.023531873 -0.028320668 -0.023130959 -0.009146916 -0.020468906 0.00803265 -0.02329927 -0.03164941 0.001200717 0.0330546 -0.023184037 0.026420448 -0.02118878 0.015655756 0.034857642 0.03446537 -0.008582132 -0.028540459 0.0060481504 -0.03323267 -0.023818217 -0.011440333 -0.0016509555 -0.031639542 -0.023071378 -0.020844012 -0.014544309 -0.027412355 -0.03876358 -0.020314686 -0.009060895 -0.008545442 -0.0031225123 0.01719587 -0.0052056536 0.016881794 0.008577347 0.0030417964 0.022088822 -0.023799658 0.022868577 -0.0039485395 -0.019059783 -0.03299473 0.011162862 -0.019180648 0.009978145 -0.011683626 0.02940346 -0.010439677 -0.009455988 0.006047093 -0.008843996 -0.040040243 0.008167345 0.020608429 -0.035516966 -0.032661397 -0.03782738 -0.006258394 -0.004273452 -0.012926072 -0.015084978 0.033040542 -0.024036387 0.006906152 -0.030809809 -0.032366194 0.025074512 -0.019027732 0.023673113 0.009389926 -0.020355277 -0.03281365 0.01224003 -0.034791052 0.019730762 0.0003605485 -0.010442104 -0.04984849 -0.01787179 0.0058246097 -0.019624908 -0.033804916 -0.03226897 -0.035960853 -0.0012093801 -0.017338421 0.0023456812 0.028067287 0.0045459904 0.0012172163 -0.027773373 -0.012785027 -0.028483745 0.017466608 -0.022879004 -0.034932535 0.010524601 0.002115693 -0.017620424 0.029376153 0.023197267 0.011815313 -0.0050359108 -0.03509529 -0.02750488 -0.016165432 -0.021392526 -0.012394224 0.017163642 0.026016885 -0.009926036 -0.020496648 -0.015129006 -0.024926115 -0.014212217 -0.014698472 -0.011132853 0.02321187 0.020584691 -0.0313728 -0.033881404 -0.012968864 0.013207618 -0.014542665 -0.0036771111 0.004541807 -0.0064088963 -0.031803917 0.030455995 0.0039192364 0.031052876 0.010103073 -0.052655794 -0.04152115 -0.03325144 -0.02214399 -0.02916927 0.005795321 0.0031213872 0.026018044 -0.02239773 0.0024990004 -0.010701115 -0.034405366 0.011272721 -0.02913548 -0.018908639 0.020203117 -0.02468355 0.02160092 -0.0027704835 -0.029844502 -0.0010137185 0.0044420883 -0.03407655 0.03403679 -0.03443091 0.021125212 -0.018293628 -0.031296983 -0.018497827 -0.0141540095 -0.035282437 0.008704079 0.0021805132 0.0141010275 -0.022627719 -0.036581583 -0.034343734 -0.03018857 -0.041329972 0.020155415 0.0190579 -0.031459406 0.0035102777 -0.017218212 -0.007988844 -0.0039728507 0.013466366 -0.034801196 0.010116395 -0.024884693 -0.020626197 -0.0029347278 -0.026029825 -0.025601342 -0.020651912 -0.015552338 0.0004213706 -0.056885533 -0.048396166 -0.037199363 -0.0063208654 8.86086e-05 0.012147447 -0.05681694 0.011896561 -0.016973129 0.017157251 -0.017218458 0.009321199 -0.0077253412 0.0055920146 0.022371188 0.017766885 -0.030863699 -0.02864461 -0.008341938 -0.01866437 -0.019319901 -0.035248116 -0.020663518 0.023127213 0.0035902187 -0.030657526 -0.010589017 -0.058198404 0.010742722 0.0056800055 0.01157152 0.022610238 -0.043182228 0.008154434 -0.009394275 -0.028965527 -0.037869312 -0.0013813932 -0.013616901 -0.0105833225 -0.0013193861 -0.004216213 0.0032952502 0.006296657 0.005097661 -0.004993124 0.032072242 -0.030430093 0.024704468 -0.01335793 0.00318069 0.025070965 -0.011751831 -0.025196064 -0.013367726 -0.05208162 -0.0573421 0.0024300048 -0.03597561 -0.019272555 0.0015141724 -0.018968988 0.0036292898 -0.01033586 0.017860759 -0.0020555793 0.008605627 0.0174725 -0.011915326 -0.029173717 -0.03303927 -0.016709367 0.028609779 0.012113839 0.011832591 0.0076294728 -0.020465583 -0.0031219088 -0.01014859 0.023870796 -0.031320985 -0.028450014 0.010726237 0.012456702 0.009269303 -0.046933673 -0.0061867405 -0.0067120977 0.027956154 0.014281954 -0.0019928876 0.020592542 -0.017183445 -0.04692627 -0.01730917 -0.03552439 -0.028724056 0.009367444 -0.02830945 -0.035242856 -0.020498076 -0.0014709719 -0.0014104173 0.012228094 0.016359776 0.0005459599 -0.026259031 -0.012664927 0.033280943 -0.005347874 -0.007465377 -0.043622456 -0.022508936 0.01228711 -0.035736147 -0.029346153 -0.004542629 -0.0015301675 0.006990024 0.014701759 0.0055722953 0.0132617485 0.017968062 0.020712804 -0.033531133 -0.026473664 -0.01038388 -0.025328344 0.01932469 -0.017616387 0.015032757 -0.025884386 -0.01180823 -0.015634406 -0.0006326437 0.028505955 0.0101627335 0.010852102 -0.011961466 -0.03116733 0.0047875047 0.011028118 -0.0021681504 -0.015073815 -0.0104513895 -0.006359975 0.0028554117 0.008176929 0.015898274 -0.010569352 -0.0056702225 0.02871261 0.018816277 0.014141649 0.0072494894 -0.027562339 -0.010812296 0.009895261 -0.03097401 -0.014516784 0.0029179044 -0.018812329 0.0029663853 0.00335389 0.03121375 -0.027048498 -0.007930044 0.01766701 0.014413852 -0.02515412 -0.009884857 -0.016485563 -0.0015905558 0.008915737 -0.03360053 -0.0337654 0.027438903 -0.022755494 4.4886023e-05 -0.010726452 -0.022929162 -0.0278272 0.032248985 0.023851331 -0.017992655 -0.009961989 -0.029018974 0.005973242 -0.0069164503 0.025963038 -0.028957896 0.00043619052 0.030894522 0.013459697 -0.029679738 0.024396688 -0.007998794 0.027886372 -0.022383306 -0.032736614 -0.0045202947 0.025685854 0.02458024 0.006589491 -0.005665103 -0.031487834 -0.030958423 -0.002397459 -0.017852306 0.015197605 0.035065208 0.026063979 0.009488098 0.0027102903 0.031231832 0.027133297 0.00023013353 0.022885438 0.029409263 0.019369077 -0.0046117436 -0.007840034 0.0005771108 -0.02919548 0.014223568 0.017053708 0.024174277 0.0010024495 -0.009737777 0.0033840872 -0.034206737 0.010981295 -0.023824897 0.027686808 0.03238408 -0.031116875 0.023285817 -0.024605582 0.023284081 0.026705563 -0.0028041117 0.009247512 0.01639631 -0.000121910125 -0.021285987 0.027472023 0.0291132 0.0006861277 0.013216022 0.033113617 0.02614678 0.021366347 0.011397 0.014008958 0.029864121 -0.012041859 0.03207809 0.0012681596 0.021728333 -0.024231575 -0.004520489 -0.011534521 -0.03411416 0.022153068 0.026298743 0.03259551 -0.0010702088 0.0007218011 0.0084621385 0.02905133 -0.0016547032
0.02890819 -0.011082821 0.012419347 -0.0019405261 0.029297974 -0.014751146 -0.0037409961 0.013317615 -0.016276812 -0.031568147 0.012731101 0.025662504 0.042961355 0.08114272 0.06489204 0.047652278 0.034020033 -0.022180626 0.030226383 0.019150883 -0.029908288 0.0059921704 -0.0062084123 -0.02651634 -0.018220205 -0.023176527 -0.018896125 0.024146907 0.033060115 -0.0116562005 0.0097937845 -0.034194876 0.013129707 -0.025739506 -0.0047981963 -0.029529752 0.006128994 0.022122245 0.012788494 0.003168675 -0.037298746 -0.046470203 0.0057775276 0.011591814 0.0945853 0.08488695 -0.013260885 -0.041421864 -4.8602706e-05 -0.05746297 -0.028549282 -0.02794429 -0.027679313 -0.026585018 0.032920394 0.027423415 -0.025920685 -0.025027413 -0.025639743 0.035614215 0.019270677 0.0077100503 -0.06590234 -0.082756855 0.061831914 0.055184215 0.094307765 0.02193336 -0.0026495976 -0.12199279 -0.057606902 -0.033678755 -0.0033168467 -0.043248884 -0.09628894 -0.19325736 -0.16547012 -0.079510555 -0.09523691 0.03245775 0.020714011 0.075160414 0.029651482 -0.0005093105 0.022224724 0.032595415 -0.011553994 -0.03111495 -0.01910996 0.06148729 0.056747813 0.07349967 0.14786583 0.14928944 0.1348288 0.15113357 0.044769745 0.0014890855 -0.04384007 -0.05961142 -0.026925063 -0.023374287 -0.08886398 -0.051888097 -0.021031408 -0.04588948 0.014366332 -0.05070138 0.045485202 0.022953229 -0.018787619 0.032809723 0.022031896 0.013411422 -0.004153235 0.025366645 0.037693102 0.041539077 0.07070771 0.13532907 0.10084303 0.13799638 0.06414797 0.054335564 -0.044908248 -0.10482006 -0.14972809 -0.09820272 -0.0763724 -0.093471915 0.016122758 -0.03642351 -0.014104007 -0.020802196 0.04951621 -0.108846635 -0.025498884 0.035188816 -0.060882017 -0.090067334 -0.01841119 0.03006256 0.008662896 0.04588937 0.11215498 0.07955961 0.027004912 0.06775763 0.10979098 0.06955187 0.055881225 -0.013885882 -0.048895136 -0.0031422118 -0.05028288 -0.019394225 0.034222808 -0.025930228 -0.017225498 -0.06284203 -0.029483074 -0.0994691 -0.115499444 -0.16508462 -0.1511779 0.046293624 -0.0009304593 -0.02070617 0.012676209 0.08498118 0.022492293 0.1098364 0.17763244 0.1563089 0.09991363 0.07321778 0.12514377 0.17724481 0.17290711 0.041005224 -0.003884227 0.04239882 0.0077391784 0.007885206 0.043241702 0.008382868 -0.024874194 0.009119704 -0.0033602808 -0.0478504 -0.039023146 -0.08240722 -0.1854335 -0.14912248 -0.08413993 -0.011750095 0.040881455 0.08290937 0.090170495 0.22101654 0.17645773 0.117784 0.06054265 0.094466 0.11327481 0.13928315 0.18509823 0.11872032 0.1552091 0.17371386 0.070238486 0.010678801 0.0022006005 0.03786958 -0.0022699041 -0.0031717895 0.041730434 0.023626555 0.0026710178 -0.060525656 -0.05492816 -0.106457315 0.011322165 0.021789715 0.028283866 -0.013679146 0.10319416 0.0810711 0.1541211 0.079448335 0.037391648 0.0966809 0.11738196 0.17138602 0.17882179 0.16838719 0.21583451 0.19337277 0.15045469 0.089005515 0.05639337 0.064262286 0.0094515765 0.0019275191 0.06617924 0.065576114 0.18053971 0.10362941 -0.084649995 -0.028154403 -0.0206655 -0.02737011 0.019035574 -0.0066185743 0.07609607 0.09667167 0.067829095 0.0151003245 0.054266803 0.02937037 0.12837659 0.1087002 0.06577025 0.11148027 0.17025222 0.13511637 0.08935074 -7.720499e-05 0.026746888 0.036970798 -0.041024707 -0.06671361 0.013481912 0.051769827 0.15133968 0.13230543 -0.09571224 0.0009609276 -0.005879035 0.112603754 0.023829957 0.05461923 0.006978702 0.015838763 -0.01369354 -0.04852641 0.004667961 0.01571185 0.04510206 -0.012074524 -0.078454815 -0.097025044 -0.11884818 -0.113998264 -0.097554624 -0.088375986 -0.023112029 0.026720764 -3.465684e-05 -0.045269627 0.0094548 0.0070155663 0.09191756 0.056832183 -0.031224465 0.004395076 0.08004982 0.09921513 0.03139577 0.03691269 0.025907485 -0.11245924 -0.17828414 -0.075262 -0.07581785 0.0051421267 -0.1215114 -0.19986974 -0.24404359 -0.20309098 -0.31951702 -0.29936624 -0.22123963 -0.10015367 -0.02337389 -0.03247295 -0.090538874 -0.02774186 -0.037927352 0.020036934 0.13175426 0.060307298 0.046717953 0.11060756 -0.061562777 -0.03645005 0.014931614 0.034065798 -0.03907676 -0.16579032 -0.21101478 -0.22756758 -0.27463648 -0.29318574 -0.3595671 -0.4699522 -0.34018165 -0.2801625 -0.25716525 -0.11756077 -0.09971674 -0.04716028 0.012652495 -0.04155446 -0.017968828 -0.08790728 -0.03230631 -0.050471354 0.015124782 -0.10850464 -0.004972694 0.14589438 -0.022787236 -0.057077095 -0.06359135 0.055357523 0.103675775 -0.16282938 -0.3417119 -0.37368292 -0.48130214 -0.4228388 -0.42183757 -0.35592902 -0.20105644 -0.12960604 -0.039804224 0.06410725 0.022822887 -0.020791493 0.015153781 -0.039973017 -0.020499427 -0.06205801 -0.096034475 -0.054317765 -0.12760758 -0.10410623 0.043140795 0.09374258 0.03390993 0.114469655 -0.02674909 0.07566599 0.10272385 -0.14867988 -0.2641318 -0.38865164 -0.3629342 -0.25019976 -0.19895649 -0.045538913 0.0044713533 0.096932426 0.123814315 0.06665066 0.015218531 0.03441527 -0.008969346 -0.0040341555 0.054918393 -0.032051302 -0.05499346 0.0004030371 -0.12539974 -0.075229466 0.041873366 0.08938256 0.04897536 0.037505865 0.019453164 0.033253472 0.012192375 -0.19008376 -0.20754907 -0.19299601 -0.04563017 0.0051108133 -0.008979915 0.07094474 0.13085851 0.105770655 0.099846706 0.041715212 0.06603586 0.052152935 -0.021838684 0.05718814 0.08373657 0.0070742704 -0.013731301 0.034510173 0.04727734 0.1272572 0.16674599 0.077044226 0.04225964 0.024570314 -0.019214278 0.06778197 0.063601315 -0.10644515 -0.02023996 -0.06110797 0.071141474 0.14018531 0.15132341 0.07146417 0.06700193 0.06787704 0.071011096 0.054784514 0.02679728 -0.034148425 0.06681092 0.068565734 0.086495504 0.087219566 0.09051943 0.14694464 0.06523288 0.1768304 0.15366828 0.09938414 0.065405324 0.056720305 0.013473988 0.005884142 0.09623231 0.080669746 0.14199997 0.042350076 0.06015615 0.027199449 0.14163218 0.093451895 0.027354833 -0.029184118 0.056904346 0.04237606 0.001278039 -0.010575665 0.07397995 0.0683119 2.3985956e-05 0.06927598 -0.03607138 0.055777565 0.026629822 0.03826529 0.12316169 0.09851376 0.10025523 -0.0010804355 -0.0040212264 0.024805188 0.031262547 0.17785726 0.119804285 0.103176594 0.02712608 0.026770355 0.109463595 0.05075858 0.0012434591 0.011718653 0.05537243 0.012125225 -0.08893745 -0.009615799 0.06737534 0.02810014 0.068160884 0.04667789 -0.044384602 -0.06750371 0.028232625 -0.0035740589 -0.012715101 0.05499057 0.14035174 0.01229731 -0.047544148 -0.08492797 -0.012113519 0.07794453 0.11158502 0.06662048 0.0054937224 0.049930338 0.033428248 0.02514853 0.0040645194 0.039779134 -0.0024204808 -0.014636564 -0.064585425 0.03264489 0.0048661497 -0.033856485 -0.075079784 -0.041437212 -0.081473835 -0.061357576 -0.027873233 -0.047796823 -0.02855739 0.047255933 0.06859133 -0.0056624576 -0.028018408 -0.033583954 0.041466843 0.15900588 0.10630858 0.091689676 0.05080078 0.01943475 0.016115652 -0.011824944 -0.006323088 0.027502362 -0.009812184 -0.058041945 -0.0124105485 -0.040233333 -0.05423868 -0.10309087 -0.0745497 -0.036064226 -0.040002655 -0.04499662 -0.08566931 0.009368219 -0.018812573 0.007588557 0.01914444 -0.051637582 -0.04644026 0.015433552 0.20152222 0.102181405 0.058560602 -0.036533438 -0.025341682 -0.028399387 -0.026297433 -0.008939977 0.015336288 0.037574984 0.059934013 0.023536077 0.0018904562 -0.036469 -0.062875874 -0.12138578 -0.053616308 -0.048619922 -0.060733162 -0.06541897 0.00623788 0.046022497 -0.011740753 0.0068913316 -0.012764536 -0.0070322324 -0.047839362 -0.007938942 0.1869451 0.007496538 0.038486972 0.04688819 -0.01855113 -0.05080245 -0.028659683 -0.045439452 0.0014617643 0.07253541 0.013179168 0.004976092 -0.01310295 -0.04767431 0.031007359 -0.018383188 -0.110186115 -0.023709996 -0.08880704 -0.11204937 0.044643387 0.02635864 0.05703659 -0.030957414 -0.12614554 0.011238828 -0.028806666 0.0013413504 0.16770592 0.012676908 0.104003735 0.066393994 0.0713839 0.090909295 -0.05337841 0.00157185 -0.046603672 0.050394285 -0.030467467 0.017076103 -0.031678427 0.023380097 0.014391322 -0.053701382 -0.038845796 -0.09531646 -0.04903365 -0.04253361 0.07015074 0.08859689 0.07960974 0.021419344 -0.10663827 -0.019153541 -0.026709095 -0.022453105 0.15575762 0.0961941 0.22451803 0.16740821 0.09764779 0.00097038125 -0.023896161 0.002753587 -0.001485978 0.01822856 0.0033433123 0.015141204 -0.0059956363 0.02881313 -0.022349555 0.02101173 -0.062180057 -0.017333277 -0.016859075 -0.017531928 0.059259653 0.058254387 0.21636741 -0.013757267 0.008990242 0.0034375675 -0.022448983 -0.026364123 -0.102253266 0.03563675 0.061347064 -0.050551124 -0.05462815 -0.025424102 0.03412959 0.072481655 0.14283378 0.06273847 0.124557525 0.01043933 0.09505029 0.15609907 0.15950547 0.052029945 -0.10002377 -0.065388195 -0.019960165 -0.18359847 -0.09701883 -0.02214665 0.04109877 0.009831685 0.046251826 0.004187707 0.027717326 0.030321132 0.01699578 -0.04004725 -0.107504725 -0.1948442 -0.15375763 0.035848856 0.026583051 -0.008930886 0.023223056 -0.00031816686 0.008640084 -0.021425854 0.11108963 0.22244892 0.08394776 -0.008637832 0.037302118 -0.0011704898 0.039051 -0.14293629 -0.11290317 -0.02206092 -0.017879115 0.048895888 -0.03205649 -0.026177134 0.020225424 0.032221247 -0.034927703 -0.026840705 0.062700294 0.032196485 0.10315683 0.06254887 0.023843495 0.06997842 0.15280493 0.123714514 0.08801235 0.10089796 0.089306645 0.17196473 0.13655257 0.06906679 0.037114844 0.022535078 -0.024101505 -0.08540506 -0.11128853 -0.013319707 0.027955439 -0.008564167 0.030506942 -0.035269417
0.00055489317 0.012393005 -0.012962649 -0.01650982 -0.0063832495 -0.016443253 0.024378385 0.020069141 -0.006157892 0.023883555 0.011451624 -0.019107325 0.0026722343 0.046330474 0.03101656 0.008780183 -0.024490759 -0.029047724 0.019504294 0.020431925 0.020793878 -0.03513223 0.015694126 0.0009250231 0.02230873 0.015008505 0.02053767 -0.02136231 0.002538763 -0.021304447 -0.034736853 -0.031639308 -0.0070143305 -0.01332739 -0.035118073 0.018855128 -0.014862583 -0.012576094 0.0014731538 0.0060330806 0.011034455 -0.019662032 -0.06387132 -0.091824025 0.007065146 0.015722468 -0.01110054 -0.026451647 0.0048423703 -0.016371282 -0.015405573 0.02266236 0.025179848 -0.013398193 -0.025715735 0.023415439 0.03253713 0.030071799 -0.01968918 -0.03345167 0.028969314 -0.018303668 0.0033624277 -0.02786698 0.04179963 0.07387898 0.13598898 0.092898265 0.0011930569 -0.012350321 0.078673095 0.05774681 0.0978902 -0.03577749 0.0003301649 -0.022005878 -0.06386064 -0.10109703 -0.07314775 0.006790603 -0.062356904 -4.9919086e-05 0.02610756 -0.024650306 0.008381661 0.0039600357 0.09749034 0.018899351 -0.020056216 0.06414923 0.03541062 0.100989155 0.11568285 0.05127362 0.18977183 0.16221045 0.16279632 0.09344861 0.081192315 0.13638034 0.06436509 -0.015084269 -0.028755376 -0.032710142 0.012703798 -0.07157971 -0.14833957 -0.15318616 -0.029094066 -0.01950869 -0.025976732 0.0044633113 -0.028801745 0.038421765 0.07623367 0.083634615 -0.009336159 0.01629631 -0.0008780622 -0.0021339457 0.12885937 0.088769585 0.14679232 0.17408493 0.11286807 0.07396211 0.054026347 0.09788532 0.11394301 0.08429055 0.15396503 0.029832292 -0.027967174 -0.04597741 -0.10799485 -0.2127312 -0.06983605 0.012093074 0.050188232 0.0020742775 -0.017263034 -0.027005086 0.064854786 0.0894329 0.07042804 -0.04121956 -0.037276708 0.0009577414 0.009159362 -0.075207405 0.010590301 0.061225306 0.05848373 0.037170034 0.056573946 0.029996667 0.06268047 0.053440034 0.057897545 0.0720248 0.10283515 0.042346347 0.042454537 -0.05512933 -0.03824693 0.01295198 0.05709105 0.005228911 -0.006027529 0.10300545 -0.014104433 -0.028332774 0.035583396 0.03265073 0.089948274 0.0077370536 -0.022806717 -0.0041384483 0.051752076 0.023016553 0.0057471525 0.04320271 0.03889852 -0.042181987 -0.046425592 -0.049872395 0.051437557 -0.003004957 0.08517577 0.10081899 0.03729997 0.0754428 0.17107111 0.2029486 0.12986869 -0.023406068 0.009801903 0.12909064 -0.0716419 0.014444332 0.09710408 0.123803146 0.018620128 0.00537025 0.02545504 0.019409072 -0.03228987 -0.03528823 -0.00060454337 -0.018838635 0.027470427 -0.058915153 -0.018369777 -0.052093737 -0.0065399026 0.034208618 0.040231284 0.045404516 0.07758382 0.030152775 0.052057646 0.1256162 0.041687906 -0.054413706 -0.0048316354 -0.027753668 -0.049505584 0.087533705 0.13737912 0.032808322 -0.026130356 -0.018509418 -0.036947418 -0.048040967 -0.03083341 -0.08248443 -0.06182106 -0.054748725 -0.024099728 -0.060766745 -0.048274755 -0.07246288 0.0088060815 0.019396765 -0.011207767 0.02181631 0.07267485 0.01432222 0.04218835 0.08905072 0.12478963 0.07218308 -0.00032566703 0.007889611 0.062425103 0.08086929 0.1712935 0.06873456 -0.019404603 -0.017328499 -0.016619723 -0.13137166 -0.16433054 -0.21943264 -0.10642171 -0.096005656 -0.075287074 -0.023816908 -0.015265765 -0.013344503 -0.05759216 0.005216174 -0.015577701 -0.01941897 0.08125013 0.022836814 0.070042565 0.11585448 0.052748203 0.055278007 -0.022800276 -0.069050364 0.08419775 0.11362457 0.063586436 0.04846498 -0.069161564 -0.10102499 -0.13052352 -0.17708933 -0.18867373 -0.12991498 -0.067217045 0.020511167 -0.007833007 -0.05181699 0.013548844 -0.0018313326 -0.048229456 0.013786807 -0.028975472 -0.106491864 -0.0705137 -0.059706993 0.05090269 0.047280733 0.106438115 0.027698945 -0.02596662 -0.04989157 0.028128574 0.047901712 0.10273599 -0.09378387 -0.10107567 -0.17984372 -0.18624322 -0.12795432 -0.08261227 -0.0402028 0.027175752 0.060176168 0.009210269 -0.020327922 -0.077665195 -0.013174836 0.020682417 -0.046682756 -0.058630895 -0.21735501 -0.2230496 -0.28268218 -0.16284066 -0.04540688 0.051458728 -0.039894227 -0.030756557 -0.078805 -0.04301482 0.08433329 0.092504725 -0.033335954 -0.095871955 -0.13914804 -0.100964524 -0.001977486 0.08648481 0.11893297 0.1283456 0.041292757 0.08312945 -0.035301153 -0.013350219 -0.04754642 0.028407224 -0.05756912 -0.08791793 -0.17772007 -0.3075825 -0.4197918 -0.33678427 -0.15717766 4.6143698e-05 -0.025618305 0.06045247 -0.058284834 -0.05852774 0.09502919 0.042813722 -0.025051262 -0.061558485 -0.07441685 0.025045333 0.07060935 0.046277583 0.012710993 0.0021607648 0.021430656 0.061399605 0.0033288584 -0.011819383 -0.0033960666 0.0066826087 0.025278917 -0.03592527 -0.076305166 -0.20955926 -0.33594587 -0.30993983 -0.106466435 0.043289535 -0.058462474 0.003973948 -0.02290211 -0.07778877 0.048227176 -0.014684965 -0.03423431 -0.0115771545 -0.083405614 -0.050965052 -0.014455984 -0.029317282 -0.07107473 -0.072600186 0.014479452 0.07994934 0.025514312 -0.0109417755 -0.06135244 -0.0648812 -0.032150086 0.010965499 0.06075553 -0.07521843 -0.16249716 -0.22015217 -0.067763075 0.07483387 -0.06560311 0.02777486 0.0727717 0.09776686 0.041248117 -0.07051336 -0.0007198112 -0.05402808 -0.2026814 -0.19594646 -0.21796484 -0.17099747 -0.1354739 -0.13806818 -0.05251158 0.014888323 0.027065579 -0.044545524 -0.10316439 -0.10223243 0.034681894 0.07980778 0.05481584 -0.018859511 -0.03542546 0.017461095 0.06280486 0.15400967 0.06964167 0.0027989398 0.14088017 0.118549496 0.12839495 0.02498542 0.030625992 -0.07522797 -0.25979587 -0.25654095 -0.27255565 -0.24322812 -0.21592362 -0.16142857 -0.065928735 0.03995308 -0.0036684761 -0.08295283 -0.09006992 0.026072886 0.095211804 0.069588244 0.13540766 0.12476585 0.028857864 0.15096693 0.17130548 0.09792295 0.08861297 0.031995166 0.06309531 0.11757355 0.11316936 0.0438044 0.056400474 -0.036264133 -0.10284275 -0.10122085 -0.17120737 -0.2674212 -0.30205002 -0.28496894 -0.14858262 -0.09358308 -0.08635849 0.007766166 -0.0357037 -0.026399687 0.07154048 0.06941353 0.13068424 -0.00048690493 -0.019053524 -0.0281867 0.051501475 -0.064046636 0.0857051 -0.087338336 0.011433015 0.120903954 0.17388628 0.017071402 0.06167218 0.06763947 0.042540215 0.050102282 -0.01361334 -0.10290328 -0.10060914 -0.1507334 -0.036781147 -0.04294857 0.007624049 -0.009754601 0.007719516 -0.062295772 0.010104194 -0.025012825 0.060315628 0.011407701 0.01661904 0.009691861 0.073810555 -0.04480407 0.04508534 0.012711642 0.055874806 -0.015564964 0.07318556 0.018543176 0.10673202 0.06568112 0.078686215 0.10392838 0.11485231 0.0823652 0.0650393 0.029756574 0.13029842 0.028661232 0.0518034 -0.008467264 0.008126431 -0.006109222 -0.061050527 0.016397223 0.032360945 0.05875253 0.081334405 0.07125662 0.13554645 0.08122122 0.055175688 -0.0027403906 0.06118743 -0.022948453 0.09747827 0.0042995596 0.006600295 0.044408236 0.048566286 0.05926204 0.08864699 0.11044015 0.12220645 0.10347668 0.12261585 0.04737105 0.08060759 -0.012508353 0.025404098 0.056254767 -0.040889803 0.07629388 0.09432792 0.08042053 0.09949025 0.05277933 0.10878816 -0.020763732 0.03351999 0.063529156 0.047277473 0.015072755 0.022072164 -0.028002325 -0.07996354 -0.023470474 0.091558486 0.0393887 0.013857255 0.035674892 0.07310721 0.051353768 0.045274254 0.050271578 0.038986463 0.019648418 0.0502494 0.06459408 0.060856782 0.031961247 -0.003330273 0.04617245 0.082454965 0.04554868 0.06846048 0.07681872 0.027150387 0.06550464 0.03819571 -0.032575276 0.059175238 0.031941216 -0.07753497 -0.0805431 0.003353799 -0.009405301 -0.0064308853 0.0007561643 0.028915854 -0.028205536 0.045077864 0.04011409 0.05305143 0.05014225 0.061972264 0.076531634 0.10389095 0.0827269 0.010956802 0.034562018 0.07363645 0.021209544 0.07539479 0.015675837 -0.007271475 0.011707343 -0.030272327 0.031083612 0.19628924 0.09708785 -0.003054887 -0.04135777 0.023828836 0.019580528 0.039948072 0.056452308 0.07740544 0.04821296 0.030372944 0.075019285 0.12090712 0.049303327 0.039811943 0.060225327 0.013896785 0.05502736 0.03249569 0.08992562 0.089154236 0.080538884 0.07558633 0.0493562 -0.030450018 -0.023397706 0.022789743 -0.02718753 0.08842992 0.022216208 -0.012769056 0.032198615 0.014989075 0.071774535 0.054148722 0.01704862 0.0475007 0.058097143 0.116593406 0.14047185 0.07893777 0.029111646 0.05555204 0.053691883 -0.10551303 -0.1198222 -0.007109539 0.031475183 0.059725698 0.08200336 0.042946815 0.037215218 0.016027424 0.013578761 0.004219275 0.04238415 -0.034104876 -0.021184556 0.025494678 0.036890466 0.002809598 0.07656094 0.029267067 0.00094440277 -0.037158176 0.047718223 0.0881482 0.026675235 -0.02185655 -0.08249773 -0.07214878 -0.0286805 -0.012674283 -0.007288543 0.0049703764 -0.00044101808 0.018042473 0.026710555 -0.00925834 -0.010912245 0.029029433 0.009669717 -0.019627756 0.003982175 0.0019463621 -0.047166407 -0.066153586 -0.07199766 -0.071285374 -0.038760334 -0.061596535 -0.110606216 -0.17636012 -0.14927068 -0.057402633 -0.16999759 -0.22635026 -0.20821111 -0.13943513 -0.09657407 -0.031823557 0.025885738 -0.009105794 -0.050066262 -0.0025748266 -5.601719e-05 -0.012926294 -0.013928546 0.013853133 0.032238077 -0.017855138 -0.031154698 -0.025076713 -0.011240853 0.010912336 0.026314631 -0.026521428 0.0352733 -0.029658668 -0.031037508 -0.11581193 -0.042595156 -0.071206756 -0.06465625 -0.060690418 -0.060028322 -0.05869264 -0.06934059 -0.08913481 -0.08783289 -0.030703854 -0.045959637 -0.0004395172 -0.019498158 0.0235047 0.02006805 0.030122522
0.009387754 0.009043582 -0.011443701 0.02812485 0.02318671 -0.02834015 -0.033723023 0.023317035 -0.008927954 -0.0061371885 -0.028609103 -0.032611948 0.08928792 0.07547589 -0.03622967 -0.007938878 -0.0057954714 0.0005010925 0.013212498 -0.023474703 -0.008074582 -0.018031461 0.00030445307 0.022892635 -0.010930713 -0.03372812 0.027216967 0.03383724 -0.009407466 0.01933302 -0.034231804 0.010125592 0.044007655 0.0041689873 0.0050974274 -0.0218746 0.034159943 0.07401932 0.01731267 -0.056580864 -0.012662838 0.017237026 0.00358623 -0.08529232 -0.109118335 -0.08974213 0.0714946 0.15320407 0.19444096 0.17385383 0.114370465 0.05153791 -0.0155735705 0.03323927 -0.0039041117 -0.008406291 -0.020955198 -0.012355452 0.010633031 -0.06241308 -0.03411068 0.063299924 0.12534215 0.11199201 0.10994315 -0.014695534 -0.08435732 -0.023821183 0.009489988 -0.07011108 0.015748749 -0.06202468 -0.044270106 -0.006444743 -0.032207966 -0.0037387258 0.14076759 0.15952761 0.19861516 0.1111424 0.10194471 0.04962496 0.027579103 -0.003447082 0.011023052 -0.0015888773 -0.05807429 -0.08216145 -0.011982 0.09455072 0.10507336 0.12669307 0.039938856 -0.091012135 0.026293106 0.07806314 0.06385999 -0.07318048 0.028449155 0.09709518 0.13218057 0.13359904 0.11722998 0.120504536 0.12325882 0.093165375 0.0030255672 -0.026416404 0.054481942 -0.015693275 -0.0100781815 0.0020163953 0.0028445423 0.026719352 -0.023074126 0.08733435 0.16715759 0.12039799 0.09774994 0.043791316 0.04405604 -0.011509939 -0.0042583873 0.043204598 0.005874817 0.0014056196 -0.03919472 -0.037573483 0.021394169 0.06899936 0.07337544 0.025396287 0.028086059 0.028468193 0.0042689377 -0.094153434 -0.04279963 -0.06611202 -0.09982226 -0.02358779 -0.031386595 -0.020111576 -0.043248374 0.04973725 0.10813069 0.11612665 0.081344634 0.048771575 0.088291526 0.012791226 -0.0038279893 0.012990996 0.037149653 0.016261019 0.006591907 -0.026915934 0.037946425 0.046726752 -0.008650402 0.049187653 0.023782147 -0.055843983 -0.08560761 -0.01194597 -0.06656947 -0.09005907 -0.084145814 -0.053956 -0.013094703 0.07984303 0.04104393 0.035252903 0.14797288 0.18925777 0.09850395 0.02280829 0.00011133487 0.024163328 -0.053177524 -0.03270658 -0.022778412 0.030834781 -0.0019898338 0.06346407 0.08241829 0.108694434 -0.001979688 0.03310145 0.04167973 -0.040091492 -0.038921136 -0.010889969 0.006507474 -0.114339456 -0.09173431 0.0024489763 -0.010761837 0.07121357 0.0035521588 0.030735223 0.082365625 0.08249262 -0.026352748 -0.069620654 -0.073299386 -0.038702205 -0.09078062 -0.043319996 -0.0166643 -0.020771474 0.05674727 0.058023352 0.05034329 0.007239626 -0.021421487 0.003591644 0.028907252 -0.004887413 -0.1040804 -0.079632536 -0.053863462 -0.045170635 -0.07887675 -0.04827859 -0.083974384 -0.058165476 0.026581727 0.027957406 0.10411934 0.0046715313 -0.050119802 -0.033507578 -0.035645206 -0.05977803 -0.080214344 -0.02616671 -0.079503156 -0.07554297 -0.021465853 0.046079405 -0.035850447 -0.046074126 -0.02647008 -0.045157302 -0.05737824 -0.014401559 -0.05454372 -0.19632873 -0.22464673 -0.15550372 -0.062456947 -0.047151905 0.037718643 0.055290624 0.06005132 0.0066954875 0.08741311 -0.0009775369 0.023152921 0.017754916 -0.01999049 -0.0423165 -0.09357464 -0.08070557 -0.09002729 -0.12914869 -0.022330543 0.01385354 -0.0051954556 -0.0016071589 0.006114235 -0.038565647 0.0081171235 -0.049911637 -0.06426965 -0.13257962 -0.1950556 -0.17803448 -0.05613054 -0.03542524 0.02683353 0.003396257 0.050806593 0.029621644 0.0073836497 -0.0073426343 0.06656495 0.025009416 0.036061678 -0.016523197 -0.17805652 -0.15128748 -0.074809045 -0.029973336 -0.038762964 -0.02551804 -0.007761686 -0.007988395 -0.033285804 -0.0022331767 -0.060212307 -0.04867552 -0.04714685 -0.18201457 -0.20527767 -0.09505829 -0.079184726 -0.050412416 0.050098557 -0.12185174 0.035178624 0.038951017 -0.05348758 0.044127043 0.066527635 0.072252154 0.0778969 -0.022796597 -0.02444958 -0.024154076 0.01804389 0.067946784 0.032353003 0.033904005 0.012907841 0.033509344 -0.0024496661 -0.0023273905 -0.06690972 -0.060923964 -0.0078191655 -0.16141777 -0.32517815 -0.24476461 -0.10900012 -0.00381423 0.053945534 -0.016008822 0.056642137 -0.05073722 0.007581361 0.07786886 0.013995103 0.054582648 0.057758354 -0.02344956 0.042783234 0.051545694 0.079879016 0.07940995 0.047783386 0.04902519 0.04388402 -0.011871391 -0.0018263832 -0.041878223 -0.042166118 -0.083081864 -0.03178166 0.039666835 -0.068150654 -0.14600024 -0.110923484 0.0061134445 -0.061155997 0.046271164 0.0075714304 -0.07552755 0.09855347 0.15573168 0.048065662 0.05822547 0.0020970684 -0.009879525 0.03171241 -0.04722592 -0.0075259935 0.02272489 0.01348322 0.03670607 0.07231606 0.020872591 0.06627412 -0.008179987 0.021741489 0.016535686 -0.07649991 0.04173241 -0.046206117 -0.10808714 -0.058113974 -0.05045375 -0.05197503 0.050665785 -0.019627284 -0.0028322735 0.16008253 0.12499716 0.07176593 0.0027487455 0.036835317 -0.026600828 -0.022534302 -0.046632983 -0.013159567 -0.01157006 -0.021085596 0.008035515 0.06270919 0.05315158 0.07060596 0.07191998 0.12544098 0.096934125 0.0050733755 -0.050639927 -0.1444505 -0.07085465 -0.16782694 -0.01839182 -0.020107027 0.08146721 -0.04118744 -0.018646697 0.08725349 0.08234111 0.04395091 -0.031728234 -0.063857526 -0.12514466 -0.048695903 -0.06226288 -0.08791983 -0.048574988 -0.014286688 0.030142564 0.0383888 0.054888614 0.042353544 0.1574832 0.1721389 0.14378446 0.03779876 -0.06779495 -0.17000784 -0.077598445 0.010097453 -0.09637842 0.062456664 0.052148927 0.099893406 0.05834592 0.08420277 0.09847205 0.08286428 0.016534027 -0.051574558 -0.080264024 -0.09960537 0.000750842 -0.026358226 -0.05351273 -0.04153344 -0.034203976 -0.00074509095 0.063091725 0.10961472 0.16825046 0.17825808 0.051677138 0.033040434 -0.07068529 -0.073381536 -0.062424645 -0.022541672 -0.15118101 0.021307915 0.07595669 0.12590384 0.043766636 0.064341046 -0.04930235 -0.052624553 0.052303225 0.012864213 -0.07963589 -0.04015951 -0.068880916 -0.038749512 -0.038807765 -0.030624814 0.0045817606 0.024333078 0.10548636 0.11059233 0.13735813 0.04326068 0.011320943 -0.0035205446 -0.09923638 -0.103399225 -0.08916391 0.033844166 -0.1418181 0.057058383 0.029583579 0.116228625 0.17000006 0.03218034 -0.02292618 0.012504907 0.06453884 0.011567639 -0.044469472 -0.09654556 -0.04864153 -0.00498407 -0.003340126 0.028263098 -0.009791695 0.05119 0.124437176 0.1346776 0.084040694 -0.017158138 0.0058866525 -0.15036814 -0.24602133 -0.21661949 -0.17690915 0.04272293 -0.06143082 -0.018892027 -0.049560007 0.027531909 0.18957253 0.033675894 0.09057688 0.019482153 0.055841293 0.015115378 0.02281708 -0.00666788 0.00376987 0.013374361 -0.021399898 0.050700426 0.065868855 0.07675272 0.09352131 0.09641689 0.049660973 -0.038998388 -0.08937278 -0.27224404 -0.24474108 -0.17312403 -0.09918368 -0.08754556 -0.06051241 0.0030409656 0.00050977163 -0.049152266 0.056288347 -0.02188054 0.016153866 0.01754261 -0.007300221 0.030010512 0.08976876 0.026342006 -0.059341803 -0.03266075 0.023143101 0.07913013 0.07099074 0.027872667 0.027650919 -0.0080399485 -0.06263438 -0.051288553 -0.1345532 -0.23468971 -0.22903487 -0.16528729 -0.028775087 -0.017593883 -0.02206318 -0.08020464 0.032788116 -0.038489062 -0.085982904 -0.13609757 -0.05794551 -0.1341027 -0.06137537 -0.065216884 -0.052152596 -0.08484288 -0.027216798 0.02945892 0.044985943 0.033575304 -0.017443303 0.060107313 -0.034228347 0.0049252966 -0.05417248 -0.15062608 -0.11219156 -0.15074106 -0.2679252 -0.065023035 -0.08159537 -0.14997488 0.019077804 -0.062814936 -0.0034754327 -0.039819088 -0.02411649 -0.13318247 -0.15802883 -0.19665158 -0.13508093 -0.1867721 -0.13144876 -0.087902784 -0.02287297 0.00018226544 -0.024010772 -0.015653126 -0.028468577 -0.009227605 -0.07748326 -0.0565299 0.013971356 -0.099932216 -0.09877424 -0.061461464 -0.13982284 -0.064170025 -0.07856036 -0.16213545 0.0083651375 0.00969062 0.009219397 0.05310748 0.11422951 -0.039915796 -0.08808694 -0.088498436 -0.096089035 -0.13969482 -0.18241984 -0.08413598 -0.03298977 -0.081726834 -0.048774336 0.009432744 -0.03678105 -0.08475987 -0.041161854 -0.004053551 -0.028897224 -0.04249063 -0.018559517 -0.06049631 -0.051617898 0.02953099 -0.06583902 -0.05766702 -0.024557328 0.024291955 -0.020191401 0.11406843 0.116300896 0.19697963 0.07304043 -0.019112961 0.038938127 -0.05548547 -0.079085805 0.016658608 0.06047332 0.016505705 0.010415302 -0.020741956 -0.058493055 0.040386908 0.0301809 -0.08217407 -0.037872553 0.058059692 0.07592522 0.08331504 0.06274298 -0.106796205 -0.01489478 -0.014931194 0.007853467 -0.0057457015 0.01942316 0.1335798 -0.01996203 0.14714557 0.18181604 0.07695269 0.00453126 0.034012742 0.0074162576 0.16924883 0.25510067 0.06739586 0.096439265 0.08915419 -0.010918028 0.056746464 0.007728613 -0.00024611235 -0.02846603 0.009054455 0.039434247 0.0072379187 0.08387853 0.04233321 0.02494218 -0.017148081 -0.019773416 0.014399216 -0.008829746 -0.029865691 -0.0035786158 0.11330126 0.15523162 0.11388831 0.05812181 0.12344492 0.2531341 0.23349959 0.16249347 0.12218467 0.11438282 0.18813479 0.08593696 0.104699805 0.17245077 0.08266751 -0.0018792513 0.0129944105 0.043820385 0.035821162 0.090165 0.14069076 0.016704459 0.0016603731 0.013711534 0.0074252672 -0.003627155 -0.022421353 0.034924883 -0.05356132 -0.11250476 -0.13027528 -0.078722544 -0.13978584 -0.045882966 0.030649275 0.09598422 0.069707565 -0.073573604 -0.027091239 0.054768752 0.05730707 -0.04458206 0.0029680885 0.009607727 0.013535063 0.057333305 -0.0145553285 0.048652083 -0.0029667541 -0.03020009 0.007540133 -0.0009958632
-0.006286893 -0.021251526 -0.033564143 0.024288494 0.023355007 0.011240646 -0.0058241487 0.010760207 -0.012106121 -0.024242103 0.02489771 -0.027971372 -0.01943615 -0.033351284 -0.028950732 -0.020031638 -0.01371439 0.018547762 0.03003401 0.014732659 -0.008365266 0.01843227 0.025509063 0.015085116 -0.035583224 0.024175715 -0.009484692 -0.024331728 0.033634733 0.028409753 -0.018022325 -0.015559278 -0.003058272 0.022923023 0.038137104 -0.006824836 -0.015590536 0.0028486955 0.042081404 -0.021199597 0.026542777 0.0050282963 0.0063919877 -0.060942613 0.0011451632 0.034198254 -0.050733604 -0.06798993 0.031769406 -0.023718491 -0.033189822 0.021169234 -0.012626469 -0.034773536 -0.0048907623 -0.02104213 0.033100132 -0.01655267 0.010515591 -0.032385882 -0.09774977 0.03377627 0.055873353 0.06407491 0.13347273 0.11525845 0.099946976 0.09323228 0.10249964 -0.07738694 0.0060831774 0.015512741 -0.03912475 -0.042532463 -0.0038999068 -0.025467586 -0.024510268 0.024819363 0.09929376 0.017814413 0.039502494 0.067923 -0.018317338 -0.016756982 0.022820596 0.007347688 -0.08186966 -0.07628112 -0.025153307 -0.0780385 -0.02311289 -0.045178015 0.041930504 0.12848699 0.11099658 0.09499236 0.0251569 0.019571045 0.021955187 0.051444475 -0.028289922 0.010932318 0.008295987 0.001437461 -0.09015841 -0.0071777683 0.055947397 0.09447378 0.08005386 0.03568691 -0.021723734 -0.018518222 -0.0071877465 -0.04767594 -0.108406745 -0.15998244 -0.03992653 -0.064595304 0.0006830092 0.06706837 0.053436898 0.17080292 0.14422408 0.038083192 0.08075689 0.059040885 0.030839145 -0.027227856 -9.0897665e-05 0.016845742 -0.07567078 -0.0031484424 -0.04407567 -0.060757734 0.002415102 0.017846815 0.056907926 0.049988337 0.07952927 0.109757446 -0.014341231 0.0063822567 -0.07028251 -0.10694126 -0.034675535 -0.10333771 0.002812374 0.043697294 0.052260756 0.06572004 0.06833675 0.07095721 0.089489676 0.03632538 0.013254731 0.019171925 -0.028254103 -0.0384921 -0.046278976 -0.036869153 -0.03454139 -0.042911906 -0.042268064 0.106947884 0.11357915 0.17950945 0.056764167 0.10434488 0.015335165 -0.0509409 0.010671453 -0.08014469 -0.09463198 -0.09145279 -0.002643581 0.014787218 0.012716303 0.020076033 0.013458728 0.026534833 0.08258275 0.030997155 -0.0030438174 -0.0946378 -0.20826633 -0.20973706 -0.17438221 -0.09598844 -0.079164155 -0.022345975 0.10067147 0.07669215 0.06373325 0.051702905 -0.053254865 0.06074152 -0.021776652 -0.03629292 0.009778744 -0.08111507 -0.0019819455 0.06782668 0.063834175 0.059026517 0.035233907 0.066782594 -0.014683533 0.07236563 0.010598349 0.06769422 -0.06079643 -0.14851902 -0.19023484 -0.1884599 -0.09082944 -0.030932402 -0.065765105 0.022805829 0.080483034 0.0629984 0.11206552 0.030183643 0.051705536 0.059422486 0.11086715 0.06299196 0.0013189684 -0.030485447 0.025219643 0.008543578 0.056384802 0.0298217 -0.016652757 0.062364332 0.02585269 0.06244369 0.103464246 0.080440566 -0.08261295 -0.12173366 -0.1649214 -0.075277895 -0.02683706 0.021185601 0.03883497 -0.0011883061 -0.0058477614 0.045281857 -0.019486832 -0.04947994 0.0540101 -0.038603622 0.039733447 -0.11546742 -0.001259765 -0.00086912175 -0.014964461 0.039979212 -0.0855131 -0.09576202 -0.064289294 0.031568605 -0.0049348753 0.12570532 0.15558696 0.05816801 -0.07989479 -0.14802419 -0.107342854 -0.0074135624 0.07887632 0.12111413 0.06548001 0.03967886 -0.01725988 -0.028819598 -0.10688015 -0.12240455 -0.04450145 -0.08475871 0.036710426 -0.048229955 0.049792692 0.00932154 0.009911151 0.011275344 -0.049647152 -0.050738152 -0.11191572 -0.073885724 0.04721953 0.112025015 0.11304921 0.0916101 -0.094913535 -0.13724564 -0.06331958 0.029878957 0.09273874 0.09642199 0.012621603 0.057008658 0.004153718 -0.06577081 -0.15465441 -0.25036865 -0.15767968 -0.023361329 0.026268229 0.105186574 -0.018519865 -0.025779048 -0.09744814 -0.05648307 -0.06417585 0.0056384616 -0.06671038 0.023582019 -0.031157719 0.076288834 0.07655981 -0.0019612336 -0.050566506 -0.11912415 -0.065908924 -0.010546978 0.053370196 0.09549957 0.014838338 0.03687664 0.07655715 -0.055883717 -0.046289157 -0.09851015 -0.11782103 -0.124171436 -0.03453384 0.064179406 0.0055427225 -0.00030891117 -0.14313604 -0.11095906 -0.101121835 -0.08028616 -0.02101404 -0.0072118877 -0.03243886 0.02025344 0.026238663 -0.020039521 -0.10455604 -0.09213972 -0.048992105 0.062199485 0.033313498 0.048379585 0.013340378 0.099590465 0.088390686 0.02097032 0.18317704 -0.050175328 -0.15432741 -0.123716936 -0.015178693 0.065760195 -0.093496345 -0.062987104 -0.27066967 -0.09240799 -0.11472645 -0.16532953 -0.09605976 -0.011550623 0.002358656 0.05792252 0.07020853 0.020274764 -0.044856656 -0.018074 0.036725953 0.019838989 0.03211298 -0.006724 -0.0037089041 0.030597746 0.02185025 0.0761333 0.06709505 0.040563777 0.13378453 0.049145184 -0.006087009 -0.051219486 -0.08814079 -0.07431285 -0.21450928 -0.12369863 -0.10631713 -0.18687429 -0.07537839 -0.022960532 0.021351129 0.068702936 0.023114627 -0.0028401786 0.009076705 -0.0067527657 -0.009426143 0.02871065 0.036023974 -0.030442938 -0.0794463 -0.047339648 -0.032267913 -0.046119645 -0.04239873 0.11688327 0.19041206 0.009392114 -0.009769849 -0.044831365 -0.09658999 -0.006549153 -0.192335 -0.14814116 -0.12995778 -0.055356234 -0.02943207 0.017658971 0.04964551 0.12671897 0.058808446 -0.014958299 -0.018760085 -0.044869643 0.01967798 -0.0044216993 0.017778255 0.003465049 -0.008027628 -0.0173986 -0.02784928 -0.042269975 0.014126706 0.17499743 0.09765172 0.112360254 -0.0348352 -0.07849969 -0.08587924 -0.056750152 -0.10786176 -0.07924828 -0.0717968 -0.01985119 0.03654361 0.054755557 0.13396849 0.13903025 0.07163759 0.024337705 -0.052505635 0.001551453 -0.012029015 0.033317454 -0.012461989 0.07826241 -0.03136968 0.013243578 -0.083347194 -0.039856844 -0.023796303 0.18386436 0.11398288 0.05779068 -0.031960983 -0.118875295 -0.0151116 -0.049965277 -0.09350171 -0.18092671 -0.1210622 -0.017623493 0.021784296 0.04718977 0.084945954 0.18383123 0.10641759 -0.02133878 -0.045475315 -0.03618017 -0.065706424 -0.014990958 0.050814893 0.032031707 -0.02278852 -0.04148016 -0.025148002 -0.00821257 0.041954376 0.1209207 0.061862443 0.109731905 -0.119216554 -0.0509296 -0.11051816 -0.060870282 -0.046319023 -0.21082583 -0.15313181 0.060295653 0.027338704 0.052573685 0.1188544 0.079401776 0.11613664 -0.017111173 -0.039237216 -0.08726454 -0.0444621 -0.010956093 0.019366793 -0.024625992 -0.06534053 -0.07738145 -0.012718342 0.04742089 0.07927693 0.08589541 0.05031761 0.13229874 -0.031115608 -0.14580327 -0.06608022 -0.008141919 -0.07657393 -0.17657958 -0.15190886 0.0173031 0.056051876 0.065190144 0.17261724 0.12756912 0.08281647 -0.019340094 -0.086483195 -0.058469605 -0.09882035 -0.048957452 -0.020917885 -0.038664278 -0.07134536 -0.029358163 -0.054942325 0.030282175 -0.07479917 0.027215209 0.086679466 0.0057635386 0.009915531 -0.046590816 0.017618071 0.045237917 -0.13621923 -0.13032871 -0.10653044 -0.04514659 -0.023455603 0.04309121 0.11755906 0.12665306 0.11997985 -0.010624047 -0.025778927 -0.03575328 -0.029863235 -0.11281266 -0.08172399 -0.025326194 -0.00067760545 -0.04123608 -0.012473178 -0.02908849 -0.06294237 -0.050479922 -0.0029944917 -0.051541362 -0.04289421 0.027044551 0.04025167 0.042703953 -0.15360628 -0.11696303 -0.08221029 -0.049316492 -0.05927217 0.109027125 0.1330308 0.18371156 0.10755445 0.085720114 -0.017291516 -0.02024471 0.0008058256 -0.041406833 -0.031378075 0.0059617097 -0.028658459 -0.039342217 0.022539524 0.09540124 0.008835076 -0.0250697 0.10347959 -0.017634546 -0.07326256 -0.02205389 0.047911644 0.03646753 -0.056843102 -0.08983098 -0.051461726 -0.012358815 0.01995396 0.085762225 0.07449393 0.1370368 0.1232628 0.068083696 0.03316985 0.022445265 -0.014122928 -0.07869235 -0.055441342 -0.010015067 0.011553131 0.032282975 -0.04662565 0.009582473 0.033629317 0.019812424 -0.086458854 -0.0039200177 0.013175391 0.016596712 -0.017496154 -0.06612673 -0.112677835 -0.15836333 -0.09455295 -0.027222551 0.010320378 0.032003757 0.02225589 0.105616525 0.10687158 0.12037043 0.05517638 -0.035856623 0.014314843 -0.04231743 -0.020880455 0.02963904 0.05190034 0.030731374 0.011175398 0.06872742 0.017058983 -0.0009276246 -0.111570455 0.026559833 0.020293675 0.015206158 -0.04997716 -0.117793985 -0.17675586 -0.18047254 -0.118977614 -0.24139501 -0.113693126 -0.021488499 -0.046088755 0.035764772 0.055452798 0.041610416 0.06387172 0.022171052 0.053990155 -0.05301007 -0.030367186 -0.015102648 -0.0050020614 -0.06735375 -0.039775603 -0.057675585 0.13759138 0.04424206 0.03291143 -0.020949721 -0.03398248 0.027518395 -0.1085831 -0.094752364 -0.09042574 -0.11832786 -0.021547867 -0.09071494 -0.16578853 -0.12975787 0.03682791 -0.008015598 -0.040228404 0.051242657 0.035472326 0.11407449 0.13122019 0.05880767 -0.11528703 -0.13141452 -0.16720048 -0.078861505 -0.09769115 -0.044554267 0.007520975 -0.017906735 0.030588165 -0.02468361 0.010872956 -0.027488505 -0.030488186 -0.054085627 -0.036160335 -0.05028322 -0.09957679 -0.20726553 -0.19927442 -0.21020772 -0.13724202 -0.11439034 -0.04931802 -0.07178131 -0.24789973 -0.12634386 -0.13084063 -0.17448471 -0.21245044 -0.2089407 -0.20957267 -0.14433171 -0.09045399 0.04904426 0.011767902 -0.016607326 -0.0018891655 0.02192812 0.034753513 -0.003918808 0.033732314 -0.008251594 0.11829585 0.08417831 -0.013696129 -0.0572269 -0.039404605 -0.010872932 -0.113963105 -0.18033671 -0.17355101 -0.038466096 -0.01722392 0.018836161 -0.00028233882 -0.012436297 -0.034355488 -0.02764498 -0.020677352 -0.01867338 0.002552226 -0.054262716 0.027996782 0.016727284 -0.026207592 -0.019635707
-0.008605801 -0.0076576862 -0.013356686 -0.028017689 0.023945596 0.008864157 -0.006737344 0.017808594 -0.026211288 -0.020713326 -0.022685802 -0.022302624 -0.0057854187 -0.023629347 -0.013753347 -0.0064967666 0.010551639 0.022219542 0.0072405636 -0.016958524 0.0015679225 -0.005447278 -0.025962673 -0.034966566 0.031923737 0.020601645 -0.021007037 0.03128804 -0.014452092 -0.0015884712 0.020086836 0.017353974 -0.004450951 -0.0062529254 -0.05837515 -0.0922226 -0.051870987 -0.051718157 -0.05256017 -0.055711813 -0.049999528 -0.07666145 -0.057410706 -0.059157204 -0.028043743 -0.05457686 -0.08968209 -0.08791275 -0.06360851 -0.0113954935 -0.057233877 -0.0092525985 0.007363938 0.034244362 -0.007599937 0.027415257 0.022209939 0.01819497 -0.00872934 -0.009654682 0.00045699754 -0.06602164 -0.037206206 -0.05981875 -0.10684448 -0.13189083 -0.20825413 -0.18419893 -0.25125915 -0.28262135 -0.24436566 -0.25627792 -0.1001277 -0.16999069 -0.09897253 -0.038587563 -0.022990601 -0.077538215 -0.046300564 -0.029919995 -0.020366827 0.023999922 -0.026890442 0.018299397 -0.028054664 0.015124831 0.009935988 -0.022672104 0.006434578 -0.048319306 -0.08013659 -0.20305581 -0.16166298 -0.17069152 -0.103225395 -0.012209655 -0.09044486 -0.14642175 -0.07686907 -0.023037784 -0.047215704 -0.029218854 0.0033076091 -0.048265852 0.10534707 0.14469804 0.094065286 0.12860975 0.16052172 0.074489534 0.091255024 -0.01875783 0.019506063 -0.0040380717 -0.0050287186 0.04966736 -0.046673216 -0.12575042 -0.11575618 -0.0755245 -0.13446221 -0.07699253 -0.07185617 0.10189679 0.10267354 0.05998652 0.035892922 0.044939514 0.020612923 0.05170454 0.09514156 -0.022456862 0.0026038955 0.015944548 0.063422725 0.09239688 0.20105687 0.19074443 0.21125276 0.0904997 -0.02961456 0.01398056 -0.07064558 -0.053745538 -0.13155434 -0.06455648 -0.043059118 -0.0346437 -0.01988433 0.06774652 0.09141611 0.15627067 0.18495469 0.114440605 0.05956769 -0.0036186324 -0.01838993 0.05068085 0.05311406 0.016521657 -0.018894374 0.061022002 -0.035018537 -0.04780475 0.054825004 0.17579082 0.17662871 0.10931398 0.018410057 -0.10589287 0.09691344 -0.03627538 0.0027421538 0.047308624 0.015329412 -0.023523778 0.10013157 0.13130853 0.15825063 0.1284292 0.08871055 0.02566279 0.047887754 0.053254932 0.04734701 0.124923825 0.036573093 0.059503052 -0.005216669 0.09834431 0.038080923 0.06865862 0.041160185 0.08893914 0.07363298 -0.052123465 0.006877467 -0.012712789 0.08032344 0.07268487 -0.0900774 0.013396977 0.04367137 0.013592572 0.10474829 0.15641022 0.106082834 0.07245879 0.047504954 -0.014400146 -0.03416615 0.024779147 0.03357798 0.0913527 0.10014056 0.074704245 0.009511076 0.023808585 0.015717406 0.061508495 0.0755113 0.027098188 0.04443463 -0.025671592 -0.045502942 0.051328093 0.105189025 0.12545538 -0.008516971 0.03456408 0.13678882 0.048408177 0.1554333 0.10921108 0.107619055 0.028512342 -0.058714613 -0.033849742 -0.049732573 -0.0153798545 0.06517219 0.0074939383 0.10844333 0.05497699 0.044574607 -0.018078817 0.007210247 0.085206166 0.16886969 0.21157964 0.18897483 0.049152497 0.017574316 0.07625924 0.03951721 0.11134648 0.04713874 0.077088684 0.13141386 0.06712125 0.032443937 0.066313006 0.031248232 0.0499331 -0.02726405 -0.058491286 -0.08259556 -0.015422775 -0.0039163656 0.059345 0.101166986 0.07673266 0.04347387 0.04516097 0.018708833 0.061761416 0.13794897 0.20120737 0.22160572 0.007860181 0.019021053 0.06856265 0.077274784 0.09997458 0.05305432 0.08412341 0.07072082 0.07391756 0.044397924 0.06790098 0.09931479 0.051020157 0.010575432 -0.023179498 -0.022773433 -0.044900294 -0.016966103 0.039054815 0.085478134 0.042811085 0.014890093 0.04166136 0.071119435 0.042737234 0.016377032 0.11901248 0.08214043 0.07791642 0.046524435 0.067006946 0.051879175 0.15561779 0.041484464 0.040766872 0.07588402 0.042859163 -0.010935936 0.0439246 0.08857678 0.13409221 0.09505788 0.03813243 0.0005002922 -0.0036320225 -0.047885913 0.082373835 0.04602853 0.024783526 0.022164611 0.0009042655 0.01182087 -0.050210442 -0.024699338 0.026634425 0.036898337 -0.017687265 0.05485333 0.113661475 0.105461806 0.19055697 0.04781601 -0.008624034 -0.0031209863 -0.02574709 -0.041219566 -0.004971439 0.057996966 0.067409046 -0.0020370253 -0.034593374 -0.03284176 -0.006426991 0.020042742 0.052627027 0.095584884 0.079249464 0.05723731 -0.04578163 -0.07693676 -0.10298274 -0.13839903 -0.13313757 -0.036189683 -0.06649589 -0.009240703 0.0648299 0.115807824 0.09066294 0.005232432 -0.051505826 -0.07110943 -0.023801403 -0.018218957 0.014944893 0.021413798 0.07071393 -0.050549652 -0.046722315 -0.02844804 0.003965326 0.012905219 0.044400774 0.088112526 0.026917597 0.021906024 -0.07428431 -0.119021475 -0.14367294 -0.10672608 -0.093552865 -0.03802458 -0.05276109 -0.023369743 0.08901634 0.10338282 -0.006559105 -0.08762364 -0.06684412 -0.091830246 0.015816502 -0.0034977216 -0.042450298 0.019070083 0.0065531535 -0.027395936 -0.06714246 -0.05409925 -0.025196478 -0.012252933 0.043603424 0.06169477 0.08595273 -0.010896164 -0.083261 -0.07805469 -0.023423705 -0.016685005 -0.0061418344 -0.0260932 -0.03296195 0.009497733 0.027145807 0.023560556 -0.032158125 -0.08186187 -0.147172 -0.11704856 -0.046496294 -0.044613272 -0.056126293 -0.020271689 -0.05589456 -0.04308855 -0.03314597 -0.062946916 -0.030609397 -0.077843636 0.08892 0.054846518 0.013501849 -0.042089954 -0.063674055 0.003689544 0.034887128 -0.032220136 -0.032477632 -0.03764708 -0.05115103 0.07620235 0.122615635 0.015060585 -0.057311848 -0.042696994 -0.16062151 -0.11639036 -0.058021948 -0.07529188 -0.07249724 -0.04415707 -0.12123255 -0.056539923 -0.049012676 -0.103616334 -0.055243563 -0.044051487 0.07162065 0.050752755 -0.04477292 0.02904883 -0.047950108 0.015196642 -0.003089847 -0.101278886 -0.15330115 -0.06597981 -0.13043013 0.03407271 0.04774652 0.010462012 -0.07400202 -0.041934732 -0.07156207 -0.038370118 -0.123936296 -0.10709234 -0.08310731 -0.064633295 -0.054054864 -0.023511257 -0.091152206 -0.12919594 -0.09005085 0.03709756 0.062488925 0.035271637 0.012739706 0.012196947 -0.029045 0.004188841 0.011167321 0.112554595 -0.01531158 0.028965339 -0.15172282 0.05833554 -0.002214892 0.054396 -0.042054486 -0.044031125 -0.026446616 -0.020560535 -0.09290492 -0.055757906 -0.07359953 -0.037947126 0.007671181 -0.060681894 -0.032426957 -0.0991305 -0.059717905 -0.026074056 0.06571313 0.040822376 0.036070038 -0.0037839198 -0.024044905 -0.051551916 -0.081762604 -0.046209723 -0.09593696 -0.0010253318 -0.09125192 -0.0025210057 0.044234525 0.09715658 -0.035997216 -0.059059765 0.01359515 -0.060023118 -0.066053994 0.030385995 -0.0069942754 -0.020873202 -0.09604685 -0.04499968 -0.0841329 -0.061084356 -0.069428235 -0.0870275 0.022222318 0.014543356 -0.0023928282 0.005117149 -0.07368631 -0.097390376 -0.06972948 0.016311495 -0.116272464 -0.09135422 -0.09786201 -0.013646655 0.09613474 0.034743953 -0.0573988 -0.06631855 -0.009244497 -0.014897827 -0.065564245 -0.029790692 -0.038949974 -0.05093404 -0.03757344 -0.05289812 0.01299685 -0.044368986 -0.06824794 -0.023245828 -0.041279394 -0.04421675 -0.007992579 -0.072018206 -0.090098105 -0.07702182 -0.16989136 -0.040233772 -0.11950656 -0.13881996 -0.028548568 -0.0741902 0.017532561 -0.026759718 -0.1289285 -0.07848036 -0.050593533 -0.021701673 -0.020974793 0.010329781 0.03894351 -0.03929973 0.0071252226 -0.021911388 -0.009000842 -0.021502823 -0.057150263 0.0037495843 -0.0028955513 -0.081527 -0.079816 -0.13042274 -0.067938566 -0.095473655 -0.1778699 -0.1598398 -0.13636053 -0.13173328 -0.024229866 -0.06343493 -0.057791904 -0.022206148 -0.022438794 -0.06590603 -0.13100931 -0.012932012 0.0064639077 0.058122966 0.0026456558 0.017357972 0.044415813 0.055313494 0.023204062 0.0054477304 0.023342656 0.00081249303 -0.0021467577 -0.08861326 -0.043948747 -0.112680785 -0.13457474 -0.12566005 -0.07052637 -0.051931553 -0.07503633 -0.057500165 0.032618858 -0.025775608 0.029071774 -0.006531471 0.034079105 0.0057617715 0.015050397 -0.0048208735 0.04570751 -0.019988751 0.0051107937 0.0053521898 0.0459002 0.050028734 0.051609136 -0.0026989784 0.04134564 0.0422293 -0.0156232305 -0.07295343 -0.07276204 -0.14651532 -0.12070563 -0.07679685 -0.05838522 -0.027885212 -0.04936481 -0.08617915 0.010244224 0.027335536 0.0041409954 0.033755124 0.100992315 0.14323771 0.19060712 0.094985425 0.065516025 0.011128124 -0.053440463 0.050458547 0.042754292 0.048315722 0.0724623 0.010555378 0.029385718 -0.0029997553 -0.124396324 -0.061682582 -0.03936377 -0.07043074 -0.074510254 -0.104828425 -0.06488595 -0.1204224 -0.10528915 -0.071297936 0.024166986 0.020492751 -0.033439416 -0.062320877 0.06617199 0.04538441 0.04127997 0.076498434 0.023450917 0.0042752256 0.04268555 0.09964474 0.12580143 0.04462117 0.07959476 0.08992497 0.021820147 0.060703635 0.06620161 0.048940383 0.011305873 -0.08237456 0.018589659 -0.08935118 -0.06370851 -0.024072101 -0.020079939 -0.046897843 -0.026457299 -0.00034771115 -0.013341688 0.034093548 0.096156165 -0.029773263 -0.05740714 -0.018258344 0.065634035 0.09790436 0.13043445 0.051859554 0.059885964 0.062816 0.12999277 0.14492872 0.0056340722 0.04980252 0.09445283 0.11990433 0.06735008 0.042264782 0.18953703 0.17191625 0.0448427 0.07024861 0.075037606 -0.00835713 -0.0026830696 0.017257009 0.030478578 0.009656429 0.02202066 0.008417074 0.009252108 0.042492475 0.06441503 0.08426776 0.04318765 0.12167407 0.032307427 -0.024097504 0.17275959 0.19027847 0.08064254 0.08352569 0.21970487 0.22785841 0.0871708 0.079353 0.14613195 0.10918325 0.03964671 -0.017406758 0.017518848 0.031765234 0.008980725
-0.027079638 0.0018099286 0.004177805 0.011677988 -0.030858582 -0.019186813 0.011067346 -0.010775821 0.032960888 -0.020101752 0.028218087 -0.006085826 -0.015130121 -0.013296852 -0.00429482 0.009826995 0.0110085085 -0.035703924 0.020025194 0.008804433 0.017198343 -0.03221778 0.033230837 0.025594678 0.03216849 0.016394034 -0.008957343 -0.029870065 0.008687366 -0.0062652063 -0.0048258137 -0.018872168 -0.009264931 0.02961675 0.045544717 0.06591873 0.07022464 0.048710566 0.032830507 0.091851756 0.050218415 0.09266643 0.10270654 -0.0071755345 -0.009368251 0.05881716 0.0682884 -0.065762274 -0.030388217 0.065447554 0.0025627553 0.017037258 -0.019952472 -0.0052201618 0.03372817 -0.030497583 -0.013775822 0.010414597 0.020188656 0.009702237 0.060375437 0.005755997 -0.02079543 -0.027662711 -0.0021489225 0.0445259 0.046151422 -0.0037322042 -0.073414944 -0.025783129 -0.009154705 -0.063545406 -0.083939716 -0.027495917 0.013219681 0.077349074 0.055218425 0.044608157 0.023574399 -0.027441408 -0.034724075 -0.010885757 -0.012747126 -0.030403616 -0.008564256 -0.026118055 -0.025802692 -0.03233898 -0.07762193 -0.0930811 -0.09171146 -0.044045072 -0.020574044 -0.080773346 0.040762875 0.0024246492 0.0022927453 0.09714731 0.07843506 0.090289034 0.06631718 -0.009994453 -0.07790438 -0.012848314 -0.07570491 -0.036939297 0.009724043 0.057691284 -0.024076873 0.10128461 -0.061988868 -0.019432792 0.008125335 0.021597873 0.03309057 0.019819269 -0.05730932 -0.088314906 -0.08767868 0.04196518 -0.035507318 -0.058069784 -0.077946566 -0.07548257 0.00751896 0.09783254 0.10914072 0.08335853 0.057003085 0.060157873 0.04564098 0.07586439 0.028941747 -0.03757084 0.06992659 0.059754215 -0.06586823 -0.013075706 -0.10336262 -0.025969464 0.018696144 -0.01772002 -0.0399879 -0.059577644 -0.0800237 0.11508192 0.15756284 0.084251374 0.10442553 0.056581 0.00909149 -0.09112764 -0.08756299 0.028168323 0.027363932 0.051166505 0.033759218 -0.019322952 0.03343439 0.05816132 0.036990814 -0.09250286 -0.053935573 -0.091631554 -0.088935055 -0.22090513 -0.17716332 -0.10710613 0.0147079155 -0.003329715 0.01923429 0.05894381 0.13021582 0.21689004 0.10270349 0.018442554 0.058739815 -0.1275015 -0.070905596 0.010245773 0.07955017 -0.040064912 -0.055691473 -0.04360702 0.009349488 0.026009144 0.046353124 0.08051075 0.13901669 0.124494664 0.023781406 0.0026850288 -0.15573388 -0.26627025 -0.18156187 -0.16520387 -0.008096614 0.001391323 0.061904844 0.16282327 0.09365921 0.114759594 0.11716858 0.0749943 -0.006603419 -0.037130088 -0.015380357 0.0014423218 -0.036931034 -0.05313847 -0.06746116 -0.041533988 0.009005945 0.06681715 0.12930995 0.09112404 0.03894091 0.0630701 0.026785837 0.0056938315 -0.06803659 -0.10461737 -0.113940924 -0.1198113 0.0028426151 0.095016636 0.13649428 0.07952083 0.07086427 0.081601135 0.050529826 0.011575158 0.030692121 0.02835837 0.0010832929 -0.033688854 -0.0415572 -0.1027208 -0.04970654 -0.0052832067 0.03992131 0.053230885 0.09633553 0.026831174 0.06644419 -0.0015717755 -0.05049002 0.09586601 0.06663338 -0.10792139 -0.07229214 -0.049146652 0.04607454 0.08028281 -0.024643485 0.019442797 0.15255928 0.09598015 0.08331966 0.025131786 -0.009020323 0.033816226 0.003224472 -0.02221415 0.0003338366 -0.030509548 0.013629725 -0.03807592 0.00820419 0.08928576 0.13756073 0.17002614 0.07703149 0.09393538 0.03450777 0.14510249 0.11338242 -0.025541343 -0.21183285 -0.06957735 0.043593906 0.042571444 0.03607936 0.11182282 0.1590845 0.054217197 0.047309767 0.03441567 -0.040855385 0.024664616 -0.04481671 0.024217073 -0.0030481094 0.022142341 -0.07758718 -0.111510396 0.0051369756 0.15906109 0.14960505 0.11119169 0.11380321 0.050703734 0.12140007 0.08616489 0.054823376 -0.016558727 -0.18984224 -0.06936496 0.028860016 0.13134144 0.21200623 0.13335373 0.020485394 0.018512702 0.002919957 0.071034975 -0.016746411 -0.013197596 0.07803636 0.14207044 0.08647774 -0.020978613 -0.17326693 -0.18539993 -0.06868335 0.047887024 0.107337445 0.09574642 0.03448394 0.0652776 0.06841002 0.15096292 0.09241328 -0.014462261 -0.07723799 -0.033792593 0.04609405 0.08916782 0.1505111 0.025230955 0.023360042 0.014881497 0.01147143 -0.0040832474 0.0017750427 0.0148239415 0.1769707 0.20514506 0.04804546 -0.18164757 -0.26208302 -0.14694326 -0.001899904 0.07940166 0.017207665 -0.053127922 -0.07135618 -0.0073489556 0.056267895 0.059862446 0.13522947 -0.1869081 -0.13220476 -0.03634308 -0.024487436 0.07508026 0.16133524 0.017266 -0.026413564 -0.045752566 -0.0004711019 0.06272324 0.081532955 0.12432582 0.22846414 0.20337029 -0.10160975 -0.36235255 -0.26749057 -0.1793531 -0.042251054 -0.02327051 -0.033481367 -0.12852915 -0.037948295 0.0031524922 0.037475176 0.039205868 0.08511241 -0.13917767 -0.092993714 0.017816735 -0.02782696 0.044096787 0.23038721 0.060969133 -0.034156516 0.021074219 0.045668907 0.04715779 0.09477023 0.17541169 0.20052867 0.074703366 -0.24441475 -0.37312776 -0.21558456 -0.10434567 0.00964519 0.00755022 -0.03970669 -0.051079582 -0.032939255 -0.054436844 0.019376464 0.08789525 0.034764845 -0.119684644 -0.077259704 -0.03269805 -0.033506803 -0.04336968 0.09724982 -0.03721926 -0.05665959 0.047220424 0.06857802 0.15024245 0.047801178 0.07129444 0.05958774 -0.17030318 -0.4363153 -0.39828032 -0.1518116 -0.032624975 -0.033350322 0.0003028078 -0.033226848 0.029913858 0.04508992 0.018698601 0.07893546 -0.013162297 -0.1405034 -0.15065692 -0.21127999 -0.037577137 0.0638072 -0.057635978 -0.038981955 -0.08403038 -0.03378512 0.060425635 0.05929052 0.15944065 0.05100711 0.046028506 -0.13578896 -0.37046397 -0.43573466 -0.27742583 -0.078647576 0.058789887 -0.031727735 0.026036974 -0.019067677 -0.02634098 -0.0021070677 0.05167084 -0.048793666 -0.124376245 -0.14871193 -0.16370049 -0.16463971 -0.033299133 -0.03334828 0.0083255945 -0.0036993402 -0.051814027 0.06607106 0.011013088 -0.045397237 -0.014310149 0.015919598 -0.023939896 -0.120999515 -0.3031341 -0.31706768 -0.14922686 0.061062757 0.11349331 0.058709823 0.045926947 0.033119917 0.0320734 0.03689022 0.0147025855 0.045526188 -0.04746543 -0.0077114063 -0.022494752 -0.06998536 -0.043941062 0.06323146 -0.0072548105 0.041398875 -0.1383525 -0.0737073 -0.020724807 -0.063852705 -0.060007557 0.026161673 -0.014669279 -0.15178052 -0.24059902 -0.21779642 -0.030360512 0.095569044 0.030443033 0.07013081 0.118076704 0.102011055 0.038567156 0.06478654 0.064131275 0.04672838 -0.06884998 -0.017845614 -0.017197896 -0.06692395 -0.04172686 0.013620578 0.06684004 0.09570309 -0.15823072 -0.07950757 -0.0122241285 -0.024154952 -0.005422762 -0.0324645 0.03272755 -0.120434396 -0.16942364 -0.070194595 -0.031244416 0.10267425 0.023080753 0.027293393 0.09351606 -2.9322022e-05 0.10921729 0.08692671 0.03086038 0.015993841 -0.13004431 -0.022044504 0.023380268 -0.1143598 -0.02835533 -0.010636147 0.095047146 0.0755188 -0.10040682 -0.07204675 -0.035338312 0.00544668 -0.036515612 -0.07106958 -0.1026472 0.022059679 0.011885475 0.074018754 0.10743875 0.061502967 0.06937346 -0.030783556 -0.02620113 -0.014904981 0.055341553 -0.01620833 -0.077983394 -0.07541963 -0.08459161 -0.09661761 -0.0729301 -0.00048114377 -0.017491683 -0.017930752 -0.03886803 0.0812612 0.008351117 -0.029351808 0.0018887327 0.010561578 -0.07572056 -0.06676907 -0.09340933 0.04722678 0.12151199 0.036462527 0.10546026 0.035090953 0.016752519 0.04319433 0.0012124783 0.0073207286 -0.014949609 -0.012250781 -0.0080215605 -0.026092505 -0.10648343 0.084752806 0.07680456 0.07405513 0.0057286713 0.020675119 -0.029226365 0.08740415 -0.06279408 -0.05665253 0.019852405 0.0081645865 -0.049196392 0.048849665 0.050493456 0.04218876 0.03924447 0.06271602 0.100847095 0.064151496 0.080774665 -0.03451976 0.025631305 -0.0042033885 -0.040188365 -0.025997028 -0.055161268 -0.004489854 -0.06269692 0.05575156 0.007899054 0.044744745 0.03774121 0.0039808936 0.0036167689 -0.05282007 -0.09942896 -0.15007548 -0.10518347 -0.002029573 0.026676135 0.07292287 0.12036606 0.023508858 -0.042817604 -0.01654925 -0.00376833 0.08257427 0.030637125 -0.010817404 -0.059419066 -0.11243623 -0.03637313 -0.104463875 -0.15403944 -0.09705581 -0.12911008 -0.037669 -0.016204337 -0.0054703094 -0.01761686 -0.004439689 0.013960026 0.03341208 0.027971907 -0.0437608 -0.06444547 -0.04469451 -0.008751665 0.037063107 0.08018847 0.030564439 0.040073786 0.030440068 -0.030652335 -0.03527765 0.019482313 -0.050732218 -0.0352828 -0.14162341 -0.09169857 -0.122100584 -0.028860157 -0.031680718 -0.18205935 0.00963185 -0.0032307731 -0.011191513 -0.020450393 -0.01727221 -0.034093216 -0.115434095 -0.013841309 -0.10455711 -0.101962484 -0.08322421 -0.014944157 0.016449803 0.056588434 -0.02356233 0.02016538 0.028497295 -0.0068759914 0.1362153 0.042605788 0.061020114 -0.036831725 -0.050618123 -0.057007335 -0.12704594 -0.036349732 0.0101787 -0.13597663 0.06647322 -0.009189883 -0.012786789 0.007352315 -0.010917174 -0.022963274 0.027887534 -0.027695615 -0.118081085 -0.14906232 -0.1290922 -0.044070724 0.08278877 0.05503396 -0.002744564 -0.0476315 -0.043343507 0.059460085 0.093593806 0.06824399 0.123452336 0.09499184 0.12191945 0.17103387 0.022771876 0.051340237 0.17906062 0.04626108 -0.02194302 0.08408387 0.014684893 -0.022209331 0.0022814795 0.034674052 0.027185243 -0.019624732 0.009139185 0.020116689 0.010607276 0.05607145 0.07112632 0.08643961 0.06406791 -0.01404583 -0.04025382 0.22458719 0.14473933 0.030607183 0.0945708 0.30446774 0.17638989 0.069365695 0.08429953 0.11073096 0.10136304 0.07823878 -0.012931572 0.032125633 -0.012278795 0.020447705
-0.012930727 -0.002813898 -0.026986847 0.008333422 -0.0339839 -0.013349311 0.024750378 0.014704362 -0.017924722 0.013412781 -0.033943318 0.007052414 0.084700815 0.1141243 0.012996173 0.00091307325 0.029104274 -0.028240988 -0.03201375 -0.006700963 -0.0042263046 0.024220433 -0.020496434 0.03213579 -0.013682932 0.002325315 -0.013599753 0.023278877 0.008188844 -0.02515604 -0.010128545 -0.024473935 0.0187947 0.0041569984 0.037628077 0.11264204 0.11997684 0.07808616 0.06794233 0.05793208 0.07065611 0.047528375 -0.02610047 0.0678345 0.12799157 0.1173587 0.12606055 0.15169716 0.17275466 0.112857565 0.09062376 0.020083526 0.022641134 0.015345458 0.012017306 0.0031302795 -0.02066425 0.01386508 0.06541293 -0.047544297 -0.008929494 0.07305338 0.16311689 0.1897974 0.20802791 0.14396818 0.10160421 0.17330149 0.1679145 0.14624493 0.18867944 0.20031875 0.1250664 0.035596672 0.05260462 0.021041516 0.068212524 0.09928113 0.14333387 0.14539 0.022044558 -0.002125453 0.0042185597 0.027687635 -0.012933025 0.00403459 -0.07754351 -0.037550036 -0.02152513 0.1756865 0.24615592 0.16627552 0.09375136 0.14682207 0.07619399 0.1321057 0.053765163 0.13836248 0.12559289 0.04239546 0.09815163 0.02228763 -0.028914945 0.04938627 -0.039814938 0.014694529 0.04318203 0.055358615 0.030762441 -0.07065035 -0.049250502 0.0016503856 -0.01893863 0.027939394 -0.04895604 -0.11960161 0.09341346 0.22840592 0.13132522 0.06290865 0.1495817 0.108293876 0.14075224 0.07842535 0.027596494 0.055433776 0.035304893 -0.045235965 0.037926767 -0.0054770606 -0.004239661 -0.022933142 0.014360905 -0.015296299 -0.060572125 -0.10332924 -0.13267024 -0.063277096 -0.038832184 0.08441048 -0.02215039 -0.009325381 0.06678607 0.05637684 0.1947299 0.007898108 0.025432676 0.06039336 0.015947148 0.0017447744 0.041488074 -0.030431157 -0.02679665 -0.033244472 -0.00037744653 0.03356971 0.025366021 -0.011871286 0.04330976 0.043429047 0.0073806997 -0.032869853 -0.06646517 0.018971447 0.0043209055 0.00504017 0.043292664 0.09519858 -0.012709495 0.0845645 -0.1274559 0.032636404 0.049795914 -0.030132134 -0.059345722 0.018018218 -0.077537924 -0.06391544 -0.049943667 -0.052976143 -0.02173738 -0.07115177 -0.024661198 0.015306082 -0.029301677 -0.052758638 -0.05972668 -0.041045617 -0.062367182 -0.08468094 -0.061772373 -0.046745855 -0.09027009 0.04273239 -0.0055844276 0.08812288 -0.011109147 0.08376179 -0.063940346 -0.044156637 0.04812183 -0.084508754 -0.102133304 -0.04891281 -0.07391771 -0.09002151 -0.054536432 0.0061294874 -0.04564299 -0.020165456 0.02681115 -0.008896805 -0.051516183 -0.082353346 -0.06322555 -0.040011033 -0.07899899 -0.04991377 -0.07615445 -0.19346958 -0.108238794 -0.08697476 -0.005090633 0.02308107 0.06934978 0.017558483 -0.04137783 -0.012043984 0.030925885 -0.043130185 -0.13910314 -0.06093593 -0.08393264 -0.0758934 -0.060545415 -0.061205313 0.01688718 0.08826428 0.043852087 0.05339904 -0.063417844 -0.025014363 -0.09792653 -0.035055175 -0.017057056 0.041214522 -0.064918436 -0.15655982 -0.32446426 -0.17261723 0.011254722 -0.0105951475 -0.12649862 -0.1030123 -0.04044557 0.061753597 0.009186414 -0.074204564 -0.06615244 0.011144941 -0.061742235 -0.038201742 -0.07144281 -0.08579126 -0.0104674585 0.099233255 0.10087982 0.025232611 -0.024841588 -0.03472566 -0.11733603 -0.056131497 0.035483353 0.023887003 -0.060626797 -0.13417816 -0.12356046 -0.21077926 -0.1302272 -0.15755403 -0.11810483 -0.05720386 -0.022084858 0.048477758 -0.052095085 0.017959619 0.053900417 0.020973995 -0.07650551 -0.08414616 -0.035072718 0.0062759323 0.009609306 0.035065506 -0.003560854 -0.06314673 -0.078632705 -0.062249128 -0.08983525 -0.061568566 -0.045016713 -0.017726192 -0.13739555 -0.06611478 -0.09071257 -0.28061375 -0.15689214 -0.11399774 -0.078008 -0.011557922 -0.0720751 -0.0015129666 -0.051085867 0.012101199 0.040354688 0.024970056 0.013572356 0.006376749 -0.036884647 0.009186008 0.016017076 -0.008319593 -0.02273412 -0.14925289 -0.058038313 -0.04660509 -0.0656423 -0.012043337 -0.01357865 0.036455303 -0.039518468 -0.09321968 -0.120707326 -0.18845728 -0.09090716 -0.054636613 -0.016863074 -0.09587344 -0.087774895 -0.029023567 0.0038673298 0.008139112 0.04838634 -0.0015231104 0.04482699 0.0491399 0.034719728 0.017020268 -0.020835819 -0.040163733 -0.06702026 -0.10335033 -0.08775039 -0.044101026 -0.052163217 -0.02607915 -0.041561026 0.08883087 0.10175754 0.03856046 0.05782693 -0.14247414 -0.23635869 -0.055576995 0.10424069 -0.080586106 -0.13232477 -0.0058777826 -0.020557882 0.077964686 0.12748705 0.029696336 0.079724476 0.103324614 0.10668329 0.020506905 -0.03877593 -0.005422557 -0.05185175 -0.033096693 0.008222585 -0.018063774 0.025747173 0.06055679 0.016232107 0.07067928 0.13430248 0.21207054 0.008746606 -0.04257662 -0.050567128 0.09161654 -0.042725936 -0.047193523 -0.100262076 0.030925544 0.03766628 0.11831663 0.13536106 0.05340689 0.111810476 0.10240717 0.027539644 0.0047740056 0.007821267 0.05763437 0.07582355 0.029563658 0.056453884 0.0024692751 0.013472754 0.028023507 -0.0018917619 0.094936125 0.103873536 0.05617324 0.013737127 0.106536314 0.031874835 0.060949773 -0.062258083 0.008048413 0.05710757 0.108774625 0.078398734 0.02917481 0.006518335 0.015794924 0.03264082 -0.015626652 -0.03291386 0.020587074 0.027046962 0.14012757 0.10899091 0.09749827 0.11006616 0.017027333 -0.016609725 0.09991664 -0.00074493577 0.0012020838 6.3162384e-05 -0.017022178 0.047463123 0.12510312 -0.058175124 0.14691502 -0.07432185 0.07833497 0.07194087 0.089461565 -0.024216639 0.038715508 -0.01825486 -0.012105374 -0.014514166 0.03654018 0.031456534 0.08372486 0.06427036 0.10494175 0.16705355 0.06519197 0.08845926 0.022947604 0.07066967 0.042009637 0.008860315 0.024444811 0.025039382 0.034487557 0.07147684 0.24253203 0.09096589 0.10042785 -0.029406566 0.045024987 0.10572409 0.08625109 -0.014380399 -0.034361765 -0.05287629 -0.003932195 -0.03644919 -0.056873813 0.013504411 0.026963828 0.045563728 0.10060413 0.074273184 0.061502825 0.053673696 0.033709336 0.043020055 0.0111127645 0.01734211 0.1079709 0.089785755 0.008523614 -0.11112153 0.06149161 0.0061432095 0.102096274 -0.13200006 0.053035207 -0.030593172 0.22873081 0.045283005 -0.05606243 -0.017894005 -0.004370738 -0.005301386 0.012976128 -0.009276423 -0.0246853 0.07929507 0.109398685 0.062843405 0.08394846 0.044678904 0.049404502 0.06636373 -0.018622084 -0.022228125 0.055005893 0.067151375 0.008366174 0.020297263 0.15488988 -0.023046965 0.1682277 0.01283893 -0.12865828 -0.053674866 0.1475254 0.08154568 0.042971194 -0.04494927 0.045598686 0.023227604 0.04205481 0.100434266 0.07453807 0.039485376 0.051100176 0.05216881 0.15187812 0.091930844 0.09861996 0.048877355 0.057850126 0.024839478 0.13614528 0.08592109 0.074830666 -0.09226794 0.06029931 0.20279263 0.092599764 -0.03552348 -0.09078174 0.05723236 0.19286084 0.117411785 -0.044016372 -0.021003028 0.08065455 0.06462995 0.15083471 0.09956332 0.049179498 0.055581424 0.06450935 0.12942097 0.14688443 0.1656391 0.08087058 0.12993324 0.0922024 0.10443802 0.20545293 0.11711182 0.046411872 -0.0012950135 -0.032191556 0.16339567 -0.04703801 0.007172365 0.021462878 0.18868548 0.25931066 0.10456473 -0.04173723 -0.014538054 0.09265516 0.07070178 0.11453763 0.09633299 0.066186085 0.06825855 0.12616758 0.14193109 0.14684625 0.10105677 0.111876264 0.13704899 0.10587141 0.08155852 0.05193113 0.058260076 0.040879473 -0.09473595 -0.04630135 0.16508418 -0.0374973 0.024179026 0.008257927 0.1612714 0.1774906 0.1096171 0.08368617 -0.031333607 -0.061162777 0.018261716 0.030939192 0.08890059 0.021296741 0.03149932 0.08113343 0.002278256 0.07458638 0.09112763 0.037242778 0.05617799 0.063236326 0.07037991 0.09966845 0.11100587 -0.0020811881 -0.16567843 -0.049860008 -0.049103696 0.01203542 0.0048114695 0.023185704 0.077097364 0.11463682 0.023741411 0.0044975355 -0.10005122 -0.15564816 -0.10632568 -0.040684298 -0.06801566 -0.07562273 -0.080191195 -0.08044498 -0.10943245 -0.025179056 -0.067971535 -0.095422395 0.06142864 0.071889475 0.10764105 0.064350024 0.10335693 -0.052124843 -0.17014599 -0.01564323 -0.01786085 -0.0094663 0.008155867 0.0028414093 0.017757963 -0.11830311 -0.117509045 -0.17115635 -0.18566868 -0.23893161 -0.14027943 -0.13197248 -0.17206408 -0.11283615 -0.16029225 -0.17578647 -0.14730391 -0.13225527 -0.08789665 -0.09281801 -0.027206179 -0.13375483 -0.052952867 -0.054541115 -0.07950683 -0.1312781 -0.1206779 0.048375163 0.061006766 -0.028857717 0.025582492 0.01535118 0.0809755 -0.12150426 -0.07648244 -0.09906755 -0.10387789 -0.15539849 -0.1929238 -0.2137669 -0.19975765 -0.16066653 -0.13274992 -0.1267997 -0.19156627 -0.14226334 -0.1432342 -0.19206823 -0.15662761 -0.18918623 -0.15321903 -0.1970814 -0.13384712 -0.14202966 -0.17144017 -0.008210549 0.00721743 0.024886671 -0.032302957 -0.02086147 0.018313423 -0.046310894 0.043425277 0.05726537 0.0052346857 0.070017114 -0.10505984 -0.19027773 -0.089546986 0.030847313 -0.003130436 -0.2171556 -0.15037988 -0.02594078 -0.043179695 -0.02984344 -0.06600656 -0.11494568 -0.14046222 -0.08797467 -0.12887968 0.055760343 -0.060963027 -0.018904967 0.02706493 0.0028905198 0.02523671 -0.033986956 -0.03535275 0.034282114 0.029481929 -0.061228115 -0.037608128 -0.027245361 -0.02561905 -0.0021100978 -0.13293073 -0.05096579 0.083652124 -0.09746369 -0.063801564 0.025137905 0.030276433 -0.09484275 -0.067678764 0.03356731 -0.003043233 -0.041417256 -0.017900892 -0.03113711 -0.035104655 0.002813153 0.020718146 0.005930554
-0.008851413 -0.03539251 -0.0017926991 -0.02890102 0.0036948211 0.024338786 0.031074878 -0.02542128 -0.017610222 0.00894976 0.02390154 0.028784204 0.084357575 0.09716128 0.018082045 0.030413639 0.018318612 -0.02699333 -0.017588705 0.0019399747 -0.0063548386 -0.016199777 -0.031208405 0.012871403 -0.0033978745 -0.011340883 0.025657881 -0.014877455 -0.02958544 0.03507233 0.023990374 0.021704629 0.026227111 0.03997331 0.05731441 0.052550174 0.047873374 0.10796917 0.06781901 0.08289124 0.09480505 0.11929298 -0.0177839 0.08353769 0.12995374 0.14418459 0.060444985 0.14045274 0.13469769 0.102657974 0.05993391 0.030641425 -0.026054043 -0.028112933 -0.034886826 0.016826153 -0.020574797 -0.027430434 -0.0050794 0.05825456 0.09938571 0.001347781 -0.013062073 0.01865273 -0.013646244 -0.120984316 -0.16363217 -0.14899093 -0.13761987 -0.16456509 -0.2243745 -0.15632413 0.03827614 0.104263015 0.04959907 0.07838619 -0.03793906 0.0072605773 0.07492447 0.04523915 -0.037240125 0.0015726554 -0.031567805 0.011660293 -0.0020959899 -0.025951557 -0.020174585 0.069707915 0.10713201 0.07057946 0.039687365 -0.012244987 0.06392767 -0.023307718 -0.019251477 0.001712985 0.072974026 0.0053286403 -0.023677962 0.032473803 0.0027783443 0.06979055 0.114224054 0.10402964 0.20964164 0.13411318 -0.01034811 -0.010039596 0.03406714 0.05998863 0.13608257 0.013029251 0.017854482 0.005694615 -0.030150143 0.10728967 -0.035105363 -0.106087625 -0.15408216 -0.12403475 -0.079508685 0.0013007206 -0.039966296 0.00972604 0.014264218 -0.03496237 0.015210227 0.082097255 0.07778053 0.09364622 0.11719428 0.043955717 0.043107472 0.12541732 0.015009036 0.08353121 0.13080761 0.073794775 0.10499729 0.035694834 -0.006870661 -0.016296469 -0.023334831 -0.027928311 -0.17617984 -0.13079832 -0.10843247 -0.020365754 0.00073592237 -0.041052487 -0.011967833 0.052630767 0.034964062 0.008755316 0.05957406 -0.011386098 0.019984381 0.07813337 0.024960209 0.045433447 0.04727148 0.04565806 -0.005027742 -0.0023415752 -0.008001112 0.064223215 0.062396273 -0.00033449603 0.010580685 0.030058281 0.06607548 -0.046588656 -0.042248253 0.017096382 0.011141141 -0.0014821067 0.05753116 -0.014094622 0.029480027 0.06778063 0.060575195 0.045929637 0.031002298 0.070728615 0.0077931224 0.047920585 0.029321522 0.04584409 0.02510182 0.025308682 -0.032152474 -0.0050191088 0.1001963 0.13705635 0.04666186 -0.023128415 -0.0031475346 0.15422297 -0.023923993 -0.010661804 -0.113225505 -0.0036955215 0.036464084 -0.0030103615 0.06652141 0.052377634 0.095405206 0.033172462 0.036965203 -0.039560847 0.022900121 0.06334597 0.09177917 0.057193954 0.08451003 0.016093263 0.024329795 -0.038829777 0.009783209 0.027046362 -0.031987313 0.010202939 0.00032804767 -0.018951183 -0.0020648155 -0.0171077 0.021389263 0.019713782 -0.01755722 -0.040119845 0.02529695 0.025511418 0.04837222 0.050672784 0.043273233 0.068731405 0.02638022 -0.023935005 0.021385534 0.007570584 0.04284528 -0.045103587 0.08411021 0.0029055937 0.069233194 0.020621512 0.04991351 0.05592712 0.085898966 0.096265204 0.076845005 0.09107826 0.0042861537 0.07367488 0.03971483 0.060883 0.052172154 -0.03285731 0.082386 0.008191924 0.08380966 0.04262831 -0.0003756704 0.031009026 0.03998641 0.03337005 0.04781629 0.007372365 0.012836706 -0.015303926 0.012956901 0.029328898 0.03859763 0.043919645 0.04745718 0.037305456 0.18414168 0.22272484 0.087994315 -0.058663864 0.0026496127 0.031717047 0.072909944 0.054488573 0.10846295 0.024586461 0.022148892 0.03119498 0.10638308 0.09506531 0.06824955 -0.0039010593 0.035979033 0.027710095 0.062085077 -0.016062478 0.036151923 -0.07390936 0.039875653 -0.002346869 0.0029006295 -0.026857078 0.05711218 0.07128639 0.18353385 0.13859303 0.17082392 -0.038683 0.0046221116 0.08914693 0.11136799 0.1799553 0.17784896 0.02414046 -0.0227638 0.022880856 0.03305214 0.05742788 0.010213328 0.06374992 0.024720196 0.09166445 0.13711412 0.1161333 -0.022825165 0.041046597 0.029173702 -0.06974704 -0.046292108 -0.10695582 -0.051999 0.037433125 0.16900016 0.19521688 0.3757967 0.08151301 0.015029717 0.085873984 0.11676856 0.17695153 0.13486116 0.10387048 -0.015538498 0.0045516314 -0.011989522 0.020356936 -0.005368067 0.010128829 0.018549131 0.048241526 0.09037573 0.072290294 -0.007561193 0.059486937 0.032711886 0.019820133 -0.054473154 -0.106726386 -0.09065065 -0.019442419 -0.06277698 0.07943208 0.12625937 0.061086345 -0.11166175 0.051755585 0.13707846 0.11989184 0.019908579 0.040596657 -0.03614117 -0.024183659 -0.04098355 -0.0016968648 0.008315798 0.065980814 0.025423719 0.017259715 0.050532993 0.013784583 0.023927126 -0.05059092 -0.0014520452 0.06746124 0.043999407 -0.028721139 -0.11203112 -0.123726636 -0.06281507 -0.04105225 -0.04548805 -0.030354269 0.07417511 0.04232696 0.10155606 0.043437324 -0.023147503 -0.020965757 -0.029542094 -0.04796854 -0.015599463 0.02046652 0.011401135 0.012426285 0.013089424 -0.004837069 0.07792625 0.06439287 -0.053983815 -0.008792646 0.016964575 0.03935184 0.015495677 0.014433083 -0.029636234 0.0048842044 -0.012588083 -0.18780676 -0.21173517 -0.04689403 0.037537925 0.06558836 -0.028163267 -0.054289438 0.0111595765 -0.04256562 0.01146038 -0.08082285 -0.042236812 -0.055916075 -0.05101743 -0.060829613 -0.026877329 -0.0067760576 0.013642136 -0.05149648 -0.076046266 -0.052409388 0.04659213 0.018051654 0.066696875 0.006227418 0.030871829 -0.0010310342 0.043472886 -0.16962841 -0.17074642 -0.10683682 -0.031464104 0.056184817 0.04376978 0.024585577 0.069125146 -0.05108555 -0.041005895 -0.07024246 -0.055277534 -0.10386016 -0.0769817 -0.091933146 0.019012172 0.03334197 -0.03853252 -0.06863583 -0.14784436 -0.04865414 0.029919269 -0.0058029233 0.023274781 0.0012792707 0.023167709 0.056620322 -0.034094285 -0.20922697 -0.19331466 -0.06989148 -0.016718704 0.06894265 -0.05447749 0.11531391 0.047678977 0.05897707 0.008426047 -0.003007796 -0.06548906 -0.097976215 -0.11351075 -0.01411274 -0.014784083 -0.014597704 -0.03025507 -0.06585034 -0.06634183 -0.0056808866 0.009006196 0.020126807 0.04230547 0.0028105418 -0.023868734 -0.027040096 -0.012622058 -0.23400478 -0.039213896 0.0049531586 0.108736806 0.07107946 0.058963425 0.053225975 -0.009938992 0.048022922 0.086142145 0.026913228 0.01123372 0.0038244496 -0.023990119 0.0056162374 0.005591567 0.039764028 -0.0016265544 -0.08093094 -0.055699438 -0.0052027777 -0.06750049 -0.02262269 0.030387046 -0.018353613 -0.058760643 -0.10896555 -0.06991622 -0.2214031 0.02796215 -0.14845397 -0.019613463 0.1208973 0.010199813 0.025349462 -0.07566924 0.071142316 -0.0015907343 0.005302448 0.015120051 0.02325804 0.035253964 -0.00051247235 0.06421718 0.07377527 -0.037237167 -0.076813504 -0.07504698 -0.033285636 -0.02949508 -0.017382752 0.046799842 -0.023975737 -0.037817772 -0.086707294 0.0071605174 -0.16862741 -0.15480721 -0.13376974 0.015529163 0.13947219 -0.06903407 -0.11662795 -0.11605524 -0.018054042 -0.007220969 -0.0337282 0.06249984 0.08808603 0.045299724 0.031842858 0.06831488 0.059005123 0.035873722 -0.035325304 -0.081377506 -0.01809894 -0.03961817 -0.032009512 0.0197908 -0.052737452 0.014119186 -0.037300073 -0.054051746 -0.11405658 -0.12130197 -0.029163418 -0.03355485 -0.020154817 -0.12775075 -0.14066981 -0.16712354 -0.0962041 -0.018619785 -0.021684738 0.024393419 -0.001159539 -0.019406088 0.08848804 0.08196064 0.06975566 0.068367615 0.06973257 -0.0029154993 0.020719558 -0.046207603 -0.037452593 0.005191905 0.017338812 -0.012473342 -0.15136304 -0.14111577 -0.14965689 -0.11192705 -0.011799994 -0.06203066 -0.036772426 -0.114215784 -0.12443137 -0.12286346 -0.18880308 -0.13838065 -0.09042738 -0.07239245 0.026857857 -0.0059750387 0.020171609 0.08730213 0.028169531 0.0769907 0.100551575 0.09569323 0.06232225 0.0059746453 0.01184435 -0.032079984 -0.050999142 -0.024173886 -0.058023386 -0.13096723 -0.1348804 -0.11332853 -0.032011103 0.034203697 0.015162535 0.016365623 0.115014434 0.12552433 -0.05920943 -0.08919082 -0.13463445 -0.06621186 -0.041513495 0.027928602 0.05105199 0.0055335364 0.023280095 0.08697034 0.040116545 0.104345605 0.018845188 0.01906247 -0.033452924 0.015449802 -0.10725997 -0.073133886 -0.03671778 -0.041484382 -0.10367833 -0.091569886 0.009361673 -0.0017472617 -0.0037916675 -0.032491807 0.20143954 0.12294449 0.09138454 0.014956873 -0.030694561 0.028814161 -0.0076339184 0.08434862 0.09694273 0.14608176 0.1392506 0.07451202 0.10175397 0.048059344 0.017887177 -0.0052745542 0.0016882162 -0.009022206 -0.06452493 -0.07428222 -0.01455061 -0.0034978422 -0.14570339 -0.036907833 0.023612108 0.023747202 0.017304137 -0.052349422 0.01569026 -0.012138942 -0.009250351 0.10141534 0.08898818 0.07351404 0.09511338 0.247371 0.22236222 0.21256153 0.1718501 0.08672172 0.13890578 0.18346356 0.1292707 0.10285235 0.17114586 0.022383787 0.08893475 0.12307003 0.15286602 0.2052296 -0.06250897 -0.03253245 -0.02081371 0.025052551 0.0050843917 0.031860407 0.062668145 -0.07970173 -0.06707531 -0.099171944 -0.08371271 -0.014829765 0.0845527 0.16978396 0.20160232 0.17843771 0.21649043 0.13250618 0.080679566 0.15893549 0.2643855 0.23812497 0.17192802 0.09235188 0.08543401 0.11427206 0.050522264 0.05204184 0.034947027 -0.018771973 -0.012331814 0.024816964 -0.016325824 0.014434129 0.013903264 0.008039739 -0.017550033 0.007591536 0.028747125 0.07535165 0.051130533 0.111032926 0.06814777 0.04397469 0.115895644 0.1492335 0.04524876 0.11305507 0.19408995 0.14592646 -0.00038192116 -0.055277728 0.10188997 0.07636584 0.040299904 -0.027414918 -0.031165874 -0.028135752 -0.022938102
