0
-377
85
-13
14
-54
189
-63
134
26
121
-53
151
4
-62
-53
-317
-104
202
-359
96
-365
-97
-53
-131
80
-29
31
14
171
29
-53
38
65
-142
226
93
223
109
146
-10
-4
-5
129
-76
-149
111
84
-159
86
-107
-26
-82
-71
-293
-270
11
49
321
178
162
186
102
-66
0
-166
-123
161
-34
-83
-94
-201
-105
-217
142
-65
20
164
-61
-367
-294
117
290
275
-46
-60
123
31
51
-85
-375
-110
97
-121
140
-30
-64
45
126
-54
146
202
-18
16
-141
-11
-49
111
-16
235
-142
-153
138
105
56
104
274
-163
158
163
-36
134
-134
-123
261
-158
-170
-12
-8
105
-225
11
-11
-309
-56
-18
-172
-33
94
-6
129
100
107
182
125
28
-13
-135
-17
-12
-303
-145
-16
139
-152
-117
-72
-58
125
140
-388
62
87
254
37
15
134
131
-84
70
16
93
7
-270
-127
56
-75
14
-137
186
-59
76
-51
0
-76
70
-74
305
-184
-64
-269
-151
115
3
-241
-37
281
61
171
-91
149
156
39
-346
-29
-118
-147
-62
-171
121
-40
-96
-84
45
-8
134
96
-321
98
0
-173
-12
119
-17
-94
-165
-368
175
128
-91
85
-126
159
-206
247
-13
-128
-15
-198
-254
10
249
-121
98
-8
-337
-65
-122
-95
110
-175
-39
-25
-126
26
-129
-104
-140
240
-252
0
-165
-3
244
-132
-17
-45
-78
-102
45
-70
43
-76
-167
383
116
-37
-388
-18
13
134
17
32
143
-2
111
38
-32
-112
-290
-67
148
-92
-47
110
-130
110
83
31
-199
-151
-86
120
-55
22
-136
32
64
-1
250
-159
-40
-128
60
-153
110
-62
245
-10
-120
31
78
-74
-244
-41
9
-88
106
-175
0
116
-2
-19
-36
56
-387
-71
20
77
-138
70
292
10
-36
3
-52
-418
158
29
-262
103
41
-33
-63
-12
88
-41
-54
64
85
136
-60
-34
-65
-66
81
-11
114
-118
155
